! -0.09637965 0.09522605 -0.15106584 0.4867184 -0.15226233 -0.41450453 0.27724472 1.4079412 -0.19159609 -0.6384534 -0.30416507 -0.7297411 0.054675486 0.93012524 0.066735156 -0.50860727 -0.15622039 -0.28178716 -0.14009129 -1.192177 0.45815918 0.31343803 -0.041163564 -0.15665399 0.26811698 -0.13614483 -0.17753409 0.14624888 -0.76026875 0.28316417 0.11411118 -0.05568434 0.2678277 -0.76807654 -0.7686086 0.7404103 0.30675802 -0.43481502 -0.016822316 -1.1202432 -0.36094415 -0.7188855 -0.4746927 -0.26405483 0.5745313 -0.071184695 -0.79552543 -0.21909407 0.6867765 0.4738842 0.0555093 -0.32546037 -0.04055677 -0.2161368 0.010093493 0.2295793 0.17438605 -0.72010124 -0.51902384 0.37948474 0.13288456 -0.048323505 0.06499888 -0.21174404 -0.88781524 1.118457 0.36030588 0.9593295 -0.9218992 0.807206 -0.14517519 0.15955985 0.56937015 -0.18311222 0.3575818 0.24367696 0.043748245 0.19528738 -0.29618317 0.30195 -0.3970236 -0.41919714 -0.6266197 0.44388467 -0.44237497 -0.15175769 0.18027246 0.19853735 0.9778577 0.035400562 0.68681693 0.3672271 0.13489376 0.0589486 1.0584455 0.7214911 0.10144031 -0.559628 -0.0100689195 -0.11536437
no -0.07652531 0.059942987 -0.058299214 0.20393291 -0.034472648 -0.20587327 0.14018846 0.59541774 -0.120143116 -0.25369072 -0.12836666 -0.31937525 0.013989088 0.35314536 0.027217535 -0.19871803 -0.033569742 -0.15252486 -0.07268323 -0.52221614 0.17964913 0.120286204 -0.008317913 -0.10926825 0.09615072 -0.039593477 -0.087391354 0.033767406 -0.3201514 0.11591727 0.09159736 -0.02046086 0.10618154 -0.31446543 -0.29352036 0.30071393 0.13923739 -0.17579572 -0.006359698 -0.4675363 -0.1026825 -0.32645556 -0.19728383 -0.081836455 0.2392535 -0.021362485 -0.2908181 -0.095275335 0.2730568 0.19273424 0.06194854 -0.17870626 -0.005874988 -0.073612906 -0.03384066 0.123835735 0.09756822 -0.26474693 -0.24493586 0.15249413 0.042007796 -0.0018174928 0.017776446 -0.10856925 -0.38495716 0.455521 0.17822862 0.3789918 -0.39954042 0.32951814 -0.09757216 0.0548132 0.2559465 -0.041523233 0.15477142 0.10212726 -0.004532618 0.077507265 -0.1562484 0.12402201 -0.17253472 -0.14019147 -0.2403099 0.20039351 -0.18917567 -0.049938492 0.0797796 0.10129957 0.420128 0.00058248435 0.3121419 0.16823131 0.052105185 0.034341034 0.44761103 0.30262575 0.07315807 -0.2441672 -0.0047484306 -0.05024717
. -0.08320614 0.094031475 -0.1557629 0.43846583 -0.120596714 -0.37379074 0.24641861 1.3079885 -0.18677339 -0.5850283 -0.29988465 -0.6862324 0.07008913 0.8576646 0.075223945 -0.47730434 -0.14039283 -0.25980204 -0.13580453 -1.1068034 0.41523835 0.28023028 -0.056953456 -0.1588365 0.25014085 -0.12951304 -0.15437114 0.12979494 -0.70826 0.2707343 0.11933254 -0.06652849 0.23367779 -0.7129732 -0.725305 0.6932615 0.2768202 -0.39282855 -0.013653492 -1.0443981 -0.3328123 -0.6749465 -0.43207386 -0.23312576 0.5362204 -0.05516559 -0.7306779 -0.21591054 0.6150613 0.4344596 0.065059066 -0.31693184 -0.041302923 -0.21251836 -0.010899771 0.21419002 0.1536629 -0.6685145 -0.4921362 0.3331768 0.13122115 -0.049388304 0.07562155 -0.19151495 -0.8327921 1.0558896 0.346502 0.892253 -0.8591194 0.7519694 -0.13450675 0.14829537 0.5348506 -0.15953068 0.3303575 0.242423 0.03698628 0.18965162 -0.2801363 0.29024452 -0.3667196 -0.39924467 -0.598715 0.40540308 -0.40525028 -0.14819562 0.15897746 0.18878086 0.92984194 0.025241265 0.63849074 0.3547979 0.12603073 0.05116836 0.98637676 0.6688634 0.109112635 -0.5174923 0.004750832 -0.12586457
tenir -0.06868283 0.061918348 -0.060665973 0.18139096 -0.037958335 -0.19050494 0.12971513 0.5595363 -0.100220665 -0.24018258 -0.11145148 -0.2834537 0.022653582 0.31937373 0.03265439 -0.19513658 -0.031001601 -0.15354533 -0.0694962 -0.4785437 0.16972244 0.116281845 -0.0071331942 -0.07686194 0.07425323 -0.036278956 -0.069251366 0.03185668 -0.29561135 0.10375286 0.07186459 -0.020092767 0.091509484 -0.29095066 -0.2754907 0.29240516 0.1324705 -0.17693825 -0.023352038 -0.43676537 -0.10330044 -0.29290637 -0.17123656 -0.08383581 0.2363918 -0.026150411 -0.28062513 -0.08886013 0.25146213 0.17563182 0.052392617 -0.154833 -0.015714742 -0.08270893 -0.03307652 0.107157364 0.08015905 -0.24729961 -0.22228989 0.13160133 0.04781931 -0.0016622469 0.031087242 -0.09812223 -0.35602313 0.41733637 0.15535341 0.37233773 -0.38339186 0.29297212 -0.07919289 0.05814557 0.23162895 -0.03932363 0.14323787 0.099077284 -0.0002853711 0.08422806 -0.15264277 0.123122066 -0.15608932 -0.13102174 -0.22647378 0.19622616 -0.17979345 -0.050291047 0.082178615 0.11029027 0.3883547 -0.0057458906 0.2843019 0.15685646 0.04482537 0.034380306 0.4321438 0.2804179 0.06813371 -0.23329428 0.0052985307 -0.05859128
fer -0.06440504 0.050741866 -0.06392355 0.16953045 -0.033413894 -0.16999573 0.12043384 0.5165927 -0.10698034 -0.2067198 -0.119921476 -0.26512682 0.008900616 0.3048237 0.01716606 -0.18343407 -0.038927015 -0.1336333 -0.05218032 -0.4596278 0.15695263 0.10123774 -0.008199061 -0.07534709 0.07432888 -0.032818835 -0.06965179 0.032173645 -0.28783968 0.09792058 0.07564017 -0.012392414 0.094012916 -0.27786052 -0.25008044 0.2564614 0.11199511 -0.1542067 -0.015860878 -0.41567045 -0.09565636 -0.28639758 -0.17474224 -0.06410898 0.22024006 -0.034959067 -0.2586156 -0.08025489 0.24244337 0.15793473 0.050374113 -0.14319079 0.005672601 -0.07154208 -0.028073525 0.09339186 0.06392472 -0.2474674 -0.21526507 0.12068201 0.049411643 -0.012820325 0.023255067 -0.08957613 -0.34025395 0.3930128 0.15606049 0.34721783 -0.36090857 0.2920274 -0.088285506 0.062072515 0.2143723 -0.040884044 0.13938498 0.103684954 0.0019277345 0.080061935 -0.13028657 0.10233231 -0.1479423 -0.13320538 -0.21222517 0.17862947 -0.17302762 -0.052452147 0.07673641 0.10250356 0.35422093 -0.0001096256 0.27804846 0.14412607 0.04693367 0.032049697 0.39747867 0.25385025 0.06405529 -0.20540477 0.007478928 -0.04480905
, -0.097468495 0.094249345 -0.14405611 0.4068902 -0.1293236 -0.36912492 0.24432449 1.2570791 -0.18095967 -0.5667682 -0.28762233 -0.65585554 0.038869802 0.7984527 0.061937165 -0.46003318 -0.14325018 -0.27134836 -0.1238321 -1.0628902 0.38547692 0.27837688 -0.03418929 -0.14011756 0.21677002 -0.11596707 -0.1553366 0.10109391 -0.67470795 0.25786832 0.12830915 -0.06418651 0.22455764 -0.68571997 -0.6798897 0.67332655 0.27266628 -0.3725271 -0.009832568 -1.00294 -0.29449052 -0.66383183 -0.42236897 -0.22743033 0.5089654 -0.06717142 -0.69326633 -0.2011068 0.59458494 0.4078233 0.06824106 -0.31522298 -0.016033562 -0.17975265 -0.018120369 0.21717028 0.16350535 -0.64109504 -0.48242283 0.31978616 0.13275515 -0.04229202 0.071953565 -0.2001371 -0.7833516 0.99932265 0.32821354 0.84424317 -0.8279625 0.6979894 -0.14286508 0.14430743 0.5200072 -0.14301759 0.31806627 0.2283238 0.015286423 0.17624925 -0.27080345 0.28127253 -0.34177944 -0.37511635 -0.5596867 0.37948695 -0.39638394 -0.14197467 0.15117304 0.20452279 0.87888354 0.02501107 0.6336407 0.3414634 0.10494896 0.050155416 0.95012885 0.6419711 0.104097374 -0.5058175 8.588682e-05 -0.121351875
és -0.05757296 0.061093673 -0.108094506 0.32788908 -0.09259058 -0.2927254 0.1956947 0.96810156 -0.14410412 -0.42936745 -0.2119017 -0.50389266 0.03970446 0.6386022 0.0393591 -0.34535864 -0.0915058 -0.2040689 -0.093049444 -0.8404002 0.30996555 0.21516006 -0.025276737 -0.11552528 0.17242472 -0.07725868 -0.1205261 0.08453143 -0.5237707 0.19376715 0.09802894 -0.028745407 0.18060611 -0.5201179 -0.52981216 0.5182741 0.19961493 -0.3085781 -0.022854615 -0.7852352 -0.22689056 -0.52166593 -0.31151515 -0.17986394 0.4020347 -0.04217068 -0.5491479 -0.17018734 0.45409912 0.3119601 0.056459595 -0.25559178 -0.033391144 -0.14730325 -0.015696084 0.1590869 0.11426657 -0.49924433 -0.37373126 0.24268359 0.09500877 -0.04433483 0.056241132 -0.1463235 -0.6169981 0.7775837 0.24381565 0.6500083 -0.64692384 0.5461628 -0.11841542 0.11250846 0.3888417 -0.11109333 0.25874877 0.16619198 0.022495696 0.14534052 -0.21577886 0.22440268 -0.26199225 -0.2868962 -0.44784763 0.31199 -0.30398268 -0.10745768 0.1301034 0.14557794 0.6806424 0.020185767 0.48291352 0.2620618 0.08668838 0.039986443 0.7229542 0.49124172 0.09152041 -0.38688526 -0.0030956725 -0.07644833
dia -0.07751939 0.07257692 -0.107722096 0.3520808 -0.09145876 -0.31843483 0.21744063 1.0002397 -0.16920738 -0.44194508 -0.22230676 -0.5239064 0.04740945 0.63031846 0.050871566 -0.35378778 -0.08888051 -0.24161543 -0.10980527 -0.87917423 0.3190571 0.23252511 -0.02954361 -0.1538438 0.15648493 -0.06566547 -0.13636602 0.086779624 -0.5391888 0.21647951 0.09634926 -0.03210177 0.17246254 -0.5400326 -0.5347218 0.523489 0.20763364 -0.31243268 -0.021296674 -0.801956 -0.20554623 -0.5394553 -0.33395803 -0.15437868 0.4307422 -0.05272954 -0.542342 -0.16963583 0.48292762 0.3250899 0.057755634 -0.2664169 -0.009157161 -0.1578905 -0.037829712 0.19576684 0.121933885 -0.48563656 -0.3943662 0.2573413 0.098255135 -0.033815257 0.04336283 -0.15464693 -0.64478076 0.8025316 0.2538839 0.69049174 -0.6846194 0.55918545 -0.13515456 0.11331943 0.4176111 -0.11139556 0.2534193 0.18041971 0.015782265 0.14081979 -0.2458795 0.21240236 -0.28995344 -0.27798694 -0.44353622 0.34278822 -0.30591482 -0.10101385 0.12557334 0.18557681 0.7245603 0.0035007854 0.5256896 0.2650579 0.07161732 0.06737244 0.75629675 0.5139192 0.09820549 -0.40770575 0.011370302 -0.096757144
anar -0.059350654 0.051578913 -0.045440923 0.16026217 -0.02893855 -0.14898957 0.11381715 0.4482328 -0.0941657 -0.18667027 -0.0950308 -0.24263997 0.026176635 0.26543123 0.028448934 -0.15644115 -0.040416338 -0.12211046 -0.058188386 -0.40059784 0.13913687 0.1075814 -0.0031767196 -0.07895495 0.07334424 -0.029347172 -0.0633743 0.014637906 -0.24324466 0.07630941 0.06481448 -0.019261297 0.08819707 -0.22744647 -0.23089924 0.23649897 0.098315485 -0.13241185 -0.0074023395 -0.37521508 -0.091075055 -0.23991202 -0.14579354 -0.06800397 0.18541121 -0.026388431 -0.23125774 -0.06586009 0.2042885 0.14179845 0.038532045 -0.12679519 -0.0050357007 -0.065720834 -0.01718531 0.08533304 0.06700599 -0.21105264 -0.18031394 0.104024716 0.032508288 -0.0118597215 0.027840931 -0.08048728 -0.3056795 0.3478112 0.12378811 0.30439767 -0.32079044 0.25164956 -0.07986247 0.051121242 0.19606182 -0.033023875 0.11153085 0.07843431 -0.0022527175 0.05467723 -0.1298372 0.097129464 -0.12502462 -0.12065324 -0.18308425 0.15863372 -0.13959534 -0.037460275 0.06053872 0.07804985 0.31744295 0.008179927 0.23344463 0.12984829 0.040273603 0.02899959 0.35507336 0.23909488 0.052280076 -0.17699157 0.011893171 -0.048294544
més -0.057662155 0.03918971 -0.060491335 0.1691689 -0.039728902 -0.1695689 0.106487185 0.48694405 -0.0960731 -0.20729809 -0.10450516 -0.25532222 0.016890736 0.28727156 0.018596819 -0.15895562 -0.03059032 -0.13725947 -0.04757822 -0.43255678 0.14739521 0.109111376 -0.019859416 -0.07968801 0.08239372 -0.037563723 -0.074532956 0.035708394 -0.2626279 0.08510651 0.07088528 -0.00864493 0.09202548 -0.24324189 -0.25365436 0.25304228 0.10970857 -0.14440592 -0.009803088 -0.3857486 -0.08999021 -0.25347418 -0.1570324 -0.07532483 0.19897723 -0.023461444 -0.24989864 -0.06996087 0.2267097 0.16321227 0.045138855 -0.12803642 -0.0073679197 -0.056786604 -0.01885799 0.08576172 0.065683305 -0.2279284 -0.19343443 0.11742366 0.039105672 0.00071449473 0.029939145 -0.084394574 -0.32036006 0.36623377 0.13009076 0.30779842 -0.33123985 0.26044914 -0.07220087 0.058611456 0.19843656 -0.05242999 0.12884036 0.08303318 0.0066392873 0.06382228 -0.12032008 0.10660051 -0.12783799 -0.12326441 -0.2034368 0.17702807 -0.15193295 -0.046821352 0.056028817 0.092887424 0.34894404 0.0105882455 0.24507718 0.1467235 0.043597467 0.04075208 0.37879768 0.23694785 0.042787768 -0.19115016 0.016047321 -0.0422699
veure -0.033734716 0.037029017 -0.039394762 0.1295084 -0.043615125 -0.14311811 0.08999292 0.4281442 -0.07968187 -0.19029374 -0.08063876 -0.22645153 0.026590448 0.24909835 0.021925813 -0.1422393 -0.033228934 -0.110022224 -0.042499177 -0.3734664 0.12821645 0.08728005 -0.0054337033 -0.06515362 0.061197773 -0.026957572 -0.056130093 0.021636248 -0.21884994 0.082932934 0.04954521 -0.011214141 0.08725872 -0.21463136 -0.21190074 0.22182268 0.09492082 -0.13016057 -0.018544782 -0.33735996 -0.087747015 -0.2245126 -0.14458041 -0.05852659 0.16430026 -0.029609371 -0.22126271 -0.06718141 0.18449576 0.13904133 0.027063154 -0.114479996 -0.014179222 -0.05501088 -0.011472727 0.07852108 0.051930826 -0.20271581 -0.16200154 0.10941893 0.029840445 -0.012103309 0.020761611 -0.06850583 -0.2854585 0.3317491 0.108831584 0.26923022 -0.2810872 0.23167774 -0.05459 0.056817785 0.17120543 -0.030984733 0.11083558 0.08750691 0.010940712 0.047914404 -0.112255104 0.102051355 -0.11086258 -0.101101495 -0.17333727 0.15199159 -0.14649479 -0.03271249 0.049807098 0.08050722 0.30227885 0.007061552 0.22795653 0.11980549 0.03490909 0.03340328 0.31394872 0.2126236 0.053583212 -0.17643486 0.007437876 -0.04721221
molt -0.03335054 0.04670993 -0.043149836 0.14532588 -0.030841311 -0.14585122 0.0939803 0.4249821 -0.08471804 -0.1808996 -0.08718291 -0.21584 0.013677087 0.24735177 0.024137491 -0.15123297 -0.03570534 -0.11445951 -0.050594907 -0.37542322 0.12209047 0.08032124 -0.011469274 -0.07441997 0.054233976 -0.038754635 -0.063324235 0.03061151 -0.22147112 0.079555124 0.049799614 -0.019872986 0.07764458 -0.21971366 -0.21284127 0.21580093 0.0936605 -0.12862116 -0.017797016 -0.34489825 -0.09084685 -0.22605753 -0.13231742 -0.053445566 0.17089146 -0.024687717 -0.20480287 -0.066117994 0.19030917 0.14287315 0.036929645 -0.12213174 0.0016542332 -0.05123622 -0.02550488 0.07987867 0.06019264 -0.19189955 -0.1715506 0.100077294 0.038625725 -0.0065885424 0.019152353 -0.07335343 -0.2795424 0.3294917 0.12577942 0.28362754 -0.29714644 0.23426604 -0.06713709 0.055905614 0.17884535 -0.0333977 0.1124874 0.08492504 -0.001322111 0.06612164 -0.111432314 0.086055845 -0.1166226 -0.09596597 -0.18224221 0.14216316 -0.12609838 -0.035910264 0.049175214 0.071477704 0.3052265 0.011609232 0.2238707 0.11424999 0.024952618 0.032248005 0.3257286 0.20567025 0.0355058 -0.173116 -0.00073865795 -0.041569766
nord -0.079414874 0.072059564 -0.105817705 0.3385279 -0.09278253 -0.3120459 0.20295607 1.0571479 -0.13891724 -0.46056542 -0.24326928 -0.5551473 0.028904613 0.662503 0.037761666 -0.37990072 -0.106872216 -0.22696377 -0.09944855 -0.89595884 0.32315776 0.23139167 -0.03701727 -0.12192555 0.17887732 -0.0752879 -0.14009066 0.100671075 -0.5702195 0.21825 0.095126614 -0.036043808 0.19968235 -0.56470126 -0.56517774 0.5403616 0.218104 -0.3295926 -0.023430822 -0.83339894 -0.25359392 -0.5441725 -0.34836322 -0.18798636 0.41283455 -0.07529324 -0.5648894 -0.1786961 0.48942262 0.34680325 0.07379959 -0.27567974 -0.024555555 -0.16496016 -0.009425782 0.17689495 0.12110413 -0.51804745 -0.38965476 0.27998123 0.09337931 -0.044961136 0.057906963 -0.16007067 -0.6621732 0.83078337 0.28897464 0.69849646 -0.7017759 0.59330666 -0.118567795 0.119705915 0.42958617 -0.12584673 0.27351987 0.18912181 0.024619905 0.13242121 -0.23794398 0.23393923 -0.2988161 -0.28657004 -0.47180235 0.34223276 -0.3377986 -0.114200376 0.14171274 0.15830564 0.7293678 0.024845397 0.5325552 0.28159288 0.113578685 0.034785226 0.78970915 0.52775604 0.0997002 -0.402939 0.0058212294 -0.08110239
dir -0.054834295 0.050265484 -0.05525394 0.14286837 -0.03960002 -0.14969888 0.08983786 0.4276963 -0.08592305 -0.185982 -0.10143962 -0.22287792 0.006405736 0.255909 0.028628597 -0.14496887 -0.02603068 -0.10919007 -0.048290882 -0.38845435 0.13912807 0.09675886 -0.0051787132 -0.061747286 0.07651651 -0.022005998 -0.06927097 0.01735129 -0.23448205 0.089818224 0.0637622 -0.006980992 0.08719708 -0.23483546 -0.21692163 0.21967392 0.08704474 -0.12330708 -0.009506193 -0.35645884 -0.090537444 -0.2384269 -0.13514547 -0.061201632 0.17780751 -0.030109437 -0.22875327 -0.06870816 0.2083949 0.13804239 0.03588164 -0.120649695 -0.012866226 -0.056781355 -0.020442685 0.08595668 0.066266894 -0.20681725 -0.18165272 0.11552875 0.043272264 -0.0004743366 0.022743905 -0.06532081 -0.27533308 0.33527148 0.13193455 0.29203367 -0.2925073 0.2394916 -0.067697905 0.043479476 0.1746219 -0.03626832 0.12425905 0.09056072 0.0026785342 0.06594248 -0.10890997 0.091389954 -0.11690427 -0.11695057 -0.1764364 0.15591472 -0.13574257 -0.03465873 0.06631279 0.08883946 0.30750582 -0.0027760742 0.23691875 0.1315293 0.038887464 0.027578829 0.32689613 0.21688974 0.05501739 -0.18041497 -0.0022653153 -0.031038024
haver -0.04252805 0.055867966 -0.05664544 0.16872998 -0.035133857 -0.17478086 0.12155765 0.53173035 -0.08447196 -0.23647451 -0.10576168 -0.28619826 0.014354326 0.31364274 0.020537874 -0.17675689 -0.035471763 -0.13470727 -0.05332229 -0.46303523 0.17023286 0.12205907 -0.015226778 -0.08107272 0.07686662 -0.034760993 -0.06937877 0.030788977 -0.27357814 0.098779134 0.05537806 -0.02041716 0.0959319 -0.28595495 -0.28108346 0.26417932 0.12629098 -0.1540475 -0.010151349 -0.41831106 -0.09986944 -0.28348738 -0.16228828 -0.077592604 0.22270414 -0.018640053 -0.28045073 -0.08738919 0.24551721 0.17280892 0.04376717 -0.13952465 -0.0047622803 -0.08373167 -0.021840274 0.092419185 0.08385611 -0.24835952 -0.20818642 0.13424173 0.039916907 -0.018102141 0.025982643 -0.08022563 -0.33720776 0.4177572 0.14241871 0.34638673 -0.35983926 0.29019687 -0.0821519 0.049394507 0.22673142 -0.051560126 0.13611816 0.088143535 0.014641703 0.0753634 -0.13160859 0.11926644 -0.15387969 -0.13944747 -0.22083952 0.17045632 -0.1604423 -0.04503405 0.07481522 0.10093558 0.37062067 -0.0029815733 0.2819065 0.14827952 0.049847502 0.039792586 0.4016823 0.26060894 0.052812684 -0.2038494 -0.002863915 -0.03839474
dèbil -0.07976409 0.07989774 -0.11696916 0.35902834 -0.10417385 -0.32006887 0.19211277 1.0595461 -0.14580503 -0.45161954 -0.24560982 -0.5659951 0.03708319 0.6921235 0.038977273 -0.3814855 -0.12345259 -0.2173497 -0.09517806 -0.89076805 0.32756057 0.24020408 -0.043579612 -0.12543619 0.18043657 -0.090691626 -0.13102823 0.1081674 -0.5672809 0.19816929 0.0926238 -0.04975055 0.2062796 -0.55454385 -0.5762907 0.5686334 0.23724285 -0.32669502 -0.030679176 -0.8241113 -0.24733537 -0.56453466 -0.36000404 -0.18168204 0.4267671 -0.054513335 -0.6014576 -0.18672372 0.50372523 0.33082557 0.04796832 -0.26492468 -0.008826185 -0.14635517 -0.005620198 0.18553402 0.13801432 -0.53365624 -0.38818887 0.2875753 0.11581673 -0.04569799 0.04260839 -0.16216764 -0.64346254 0.83065027 0.2755579 0.71526134 -0.6804821 0.6059304 -0.12681083 0.11314857 0.42904893 -0.13268512 0.28045246 0.20299326 0.020019384 0.13986978 -0.2224126 0.22599478 -0.29575834 -0.3042766 -0.48202226 0.3308506 -0.34938982 -0.10546446 0.1212036 0.14603107 0.7514012 0.0364167 0.51936793 0.28471485 0.10027835 0.030513767 0.78156465 0.53473204 0.093502186 -0.3995668 0.011988002 -0.080894224
sud -0.05594786 0.05047637 -0.09656088 0.3035051 -0.08013434 -0.26751947 0.16641736 0.9226718 -0.114638254 -0.4035951 -0.21099547 -0.48961017 0.027078576 0.6121332 0.029365268 -0.31336504 -0.11723768 -0.18675299 -0.086858705 -0.78559214 0.2963302 0.2127454 -0.025745852 -0.09133328 0.16389516 -0.06455252 -0.100511424 0.07951503 -0.5003888 0.17945008 0.083511226 -0.042110458 0.18226182 -0.5027421 -0.4937801 0.49786624 0.20066331 -0.278887 -0.02949578 -0.73456883 -0.23003723 -0.49510223 -0.3108179 -0.16391443 0.37619242 -0.05216251 -0.532146 -0.15858948 0.44380417 0.29947615 0.038579967 -0.22995336 -0.022247544 -0.13794783 0.007813694 0.1555888 0.10141025 -0.48011896 -0.34457573 0.24224469 0.10453817 -0.038032677 0.04481707 -0.12949462 -0.5616797 0.73591214 0.22391911 0.62157446 -0.5793876 0.52671784 -0.092115834 0.11080351 0.366008 -0.11502217 0.2403503 0.15430108 0.029817417 0.11789983 -0.17425604 0.20129126 -0.24510057 -0.2753634 -0.43193442 0.2687909 -0.30303338 -0.09783668 0.10065766 0.12471326 0.6387046 0.018720683 0.45864794 0.24897768 0.10445322 0.03555258 0.6735676 0.46211097 0.060029153 -0.355163 -0.006319884 -0.06774435
oest -0.051031735 0.06600396 -0.0872714 0.2618965 -0.066679426 -0.24912639 0.15797094 0.81371903 -0.10991736 -0.3599647 -0.19084139 -0.42994735 0.04002689 0.5259044 0.045377716 -0.29943082 -0.090413004 -0.16996591 -0.06894137 -0.6939913 0.2603283 0.17217909 -0.034543585 -0.095770165 0.1392171 -0.071504086 -0.10198761 0.0713797 -0.43651533 0.15934832 0.06665987 -0.030443516 0.15050271 -0.43802997 -0.43116233 0.4408816 0.16282535 -0.2332892 -0.011235591 -0.6455153 -0.19261178 -0.44104344 -0.26190606 -0.14556484 0.32293987 -0.05596651 -0.46579823 -0.13855661 0.38968042 0.26428497 0.049076412 -0.18461679 -0.007479483 -0.12439006 0.014016045 0.13370349 0.09984255 -0.40782264 -0.30465746 0.21743584 0.084089905 -0.04085834 0.02861986 -0.118292905 -0.48531097 0.6469914 0.21340977 0.5447254 -0.5078976 0.45163625 -0.08711654 0.07962419 0.32824036 -0.08985789 0.22139119 0.15411901 0.02728692 0.12030257 -0.15208198 0.18889526 -0.22275233 -0.22013438 -0.365599 0.24325675 -0.2505563 -0.08134083 0.10903527 0.11792106 0.5790184 0.02424033 0.4139591 0.22081622 0.09221098 0.021600679 0.6149774 0.41017836 0.05887123 -0.31430906 0.002828397 -0.078554526
poc -0.06480692 0.05893981 -0.110025585 0.30835786 -0.081241615 -0.2783128 0.19098215 0.9198061 -0.14599952 -0.41450644 -0.20429145 -0.47686648 0.0416398 0.59293526 0.058096133 -0.32954404 -0.091754414 -0.18911946 -0.081523605 -0.7664556 0.29683766 0.18915226 -0.034257334 -0.123022355 0.16595806 -0.09046576 -0.13233511 0.077105656 -0.473353 0.17728792 0.11262228 -0.03592406 0.1557713 -0.4886465 -0.48752254 0.46938625 0.19647889 -0.26646617 -0.00067727687 -0.73813707 -0.21289307 -0.47461706 -0.28512627 -0.14399374 0.36983588 -0.033503044 -0.49159622 -0.14942662 0.44119608 0.29676604 0.044446852 -0.23398364 -0.019017633 -0.13816015 -0.012998279 0.17374037 0.11477233 -0.44853437 -0.33623672 0.23306796 0.08341171 -0.007749531 0.056440257 -0.13241594 -0.58805525 0.7279487 0.24844061 0.62124735 -0.60893875 0.51843625 -0.10427257 0.09506493 0.38326487 -0.097926185 0.23892853 0.15542626 0.012248838 0.13408372 -0.21886396 0.19039823 -0.26579937 -0.2645798 -0.4032305 0.30234277 -0.27297252 -0.090451084 0.11785434 0.15031426 0.63739693 -3.86477e-05 0.45940304 0.23586746 0.078788 0.06250272 0.6868675 0.4730563 0.087003104 -0.37016487 -3.1521864e-05 -0.08424842
núvol -0.051841862 0.068447754 -0.09798903 0.31924063 -0.099974215 -0.26773387 0.18655288 0.89586407 -0.13239351 -0.41979513 -0.19982179 -0.46448326 0.06183427 0.60244673 0.059148908 -0.32121307 -0.090906605 -0.19368635 -0.098564744 -0.77760863 0.29579964 0.20970382 -0.044298 -0.11101608 0.14996529 -0.07254938 -0.12046419 0.07773629 -0.4658155 0.20107342 0.07632274 -0.04215186 0.15660067 -0.49304956 -0.5077349 0.4919214 0.18342386 -0.28615966 -0.0047831153 -0.72827 -0.21455075 -0.45505124 -0.2815982 -0.14523463 0.37732342 -0.03468272 -0.5000657 -0.16686273 0.4295587 0.288398 0.04006592 -0.23184201 -0.04233774 -0.1622448 0.005356981 0.16564447 0.12036072 -0.45690325 -0.3152878 0.22542803 0.08196715 -0.050183274 0.05358891 -0.1334113 -0.5766111 0.7384345 0.20993413 0.614982 -0.61478066 0.5159435 -0.111650035 0.098374076 0.36098707 -0.118875034 0.23028669 0.15757456 0.011969699 0.14528847 -0.20697336 0.18972676 -0.27262083 -0.28094476 -0.39770013 0.29674515 -0.25484136 -0.09315881 0.10818236 0.13800181 0.6495191 0.001076125 0.44652122 0.23652689 0.06623844 0.05660588 0.6566916 0.44236258 0.05714309 -0.34817111 -0.0001708836 -0.06093278
vent -0.04993784 0.058543332 -0.08889017 0.2668677 -0.06906142 -0.22977732 0.1479629 0.7800045 -0.0988126 -0.33947125 -0.17155027 -0.410591 0.036010243 0.50288147 0.039264143 -0.28214896 -0.09042556 -0.16340284 -0.080658615 -0.6598096 0.24267802 0.17023006 -0.03789981 -0.08237645 0.13242413 -0.071750596 -0.09091468 0.06760107 -0.429489 0.14686483 0.07115046 -0.042023197 0.1562185 -0.4153497 -0.42144114 0.4111621 0.16872425 -0.22215152 -0.016843164 -0.61741227 -0.1891853 -0.41396773 -0.26917076 -0.13337003 0.30977032 -0.057203192 -0.4444701 -0.13045432 0.37375796 0.26248345 0.0475502 -0.19946358 -0.016380794 -0.11763264 -0.006537181 0.13898095 0.09488003 -0.3943845 -0.30402914 0.19791576 0.081309386 -0.022673715 0.04058506 -0.12915224 -0.4920904 0.62502867 0.2047763 0.51423204 -0.49568608 0.4335019 -0.08310222 0.08362429 0.30717412 -0.09272483 0.20960848 0.15537275 0.020809922 0.11082171 -0.1647913 0.1743936 -0.21475069 -0.21646711 -0.35654417 0.23774835 -0.25873607 -0.07273025 0.09993698 0.116003975 0.54331607 0.028711602 0.38300663 0.2136013 0.07783547 0.037010647 0.59593415 0.38639078 0.06612899 -0.30440918 -0.006990979 -0.073067494
voler -0.049620688 0.051011976 -0.04072674 0.16650888 -0.044695616 -0.15125553 0.1024916 0.4711234 -0.089217775 -0.19284181 -0.09865608 -0.24272928 0.027420083 0.2815162 0.013857579 -0.17168991 -0.029017342 -0.12992239 -0.05558816 -0.41088596 0.14016375 0.09595811 -0.016278183 -0.073850766 0.07421963 -0.027951887 -0.069023415 0.027875299 -0.24711202 0.09038657 0.06712947 -0.018160118 0.0922487 -0.25539094 -0.23734215 0.23283091 0.10190423 -0.15484403 -0.01352154 -0.38824537 -0.0960067 -0.25339553 -0.14971912 -0.07021868 0.18723178 -0.03045689 -0.2410425 -0.07781568 0.20809944 0.15110327 0.047070853 -0.12620793 -0.015747555 -0.059493374 -0.029105166 0.0809879 0.068019636 -0.22162811 -0.20074996 0.1090852 0.03960989 0.00048000092 0.012126228 -0.0730478 -0.30944562 0.36439186 0.14346848 0.31566852 -0.32904494 0.26383075 -0.0688631 0.058618627 0.19927934 -0.045464113 0.12572517 0.08302447 0.005258204 0.06984526 -0.119487 0.11383153 -0.1370298 -0.12358593 -0.19105907 0.1658023 -0.15741971 -0.039759543 0.064343244 0.086953245 0.32841942 0.009498953 0.25849953 0.12682676 0.040011227 0.029686248 0.35355297 0.23879486 0.046661727 -0.18310069 -0.0004044777 -0.040983897
mig -0.05726567 0.06650987 -0.09970374 0.3334157 -0.09189088 -0.2850043 0.17664798 0.9335803 -0.13652794 -0.43622434 -0.21743797 -0.49303848 0.060150325 0.62861633 0.06835942 -0.33094445 -0.113947235 -0.18740298 -0.08071553 -0.79600203 0.3118199 0.22376533 -0.044497848 -0.09690894 0.17923303 -0.06976524 -0.12897152 0.100448206 -0.48212034 0.20004877 0.07243422 -0.03410937 0.15561044 -0.5145184 -0.5132391 0.51251096 0.20710474 -0.2960801 -0.011201919 -0.7418174 -0.21720447 -0.4895274 -0.31015617 -0.169551 0.38374054 -0.042340316 -0.5212823 -0.16419594 0.4420612 0.28684467 0.060754895 -0.24277341 -0.04103552 -0.1487251 0.0048694075 0.1694155 0.110015444 -0.48557684 -0.33502617 0.23176128 0.07927299 -0.045348622 0.056822594 -0.12412007 -0.586202 0.7605346 0.21640404 0.6371329 -0.6299841 0.54576385 -0.12044117 0.1034853 0.3719407 -0.12548092 0.23431675 0.16771692 0.0012807291 0.13985966 -0.20338559 0.21638487 -0.28057083 -0.2867564 -0.40479654 0.29388136 -0.2788426 -0.09489252 0.116358116 0.14447936 0.67894214 0.014003528 0.46797377 0.23985225 0.07528114 0.0460262 0.6957475 0.46215835 0.067841746 -0.36740702 -0.0068012537 -0.06653988
parlar -0.043512337 0.02938712 -0.033279758 0.11659166 -0.038475852 -0.12721331 0.07784979 0.3759604 -0.06995066 -0.16034304 -0.08851806 -0.19842792 0.012564431 0.2263937 0.024719771 -0.12404614 -0.020737719 -0.107429385 -0.0317104 -0.33168927 0.122888215 0.08303422 -0.0078058424 -0.06884992 0.04725959 -0.017871577 -0.0534515 0.022819245 -0.1964128 0.06839499 0.058795802 -0.0117475055 0.059031893 -0.20395103 -0.19271635 0.18292089 0.09112199 -0.11186019 -0.019238425 -0.2945489 -0.06359617 -0.19567928 -0.11281194 -0.06600041 0.15558767 -0.029363243 -0.19634145 -0.057969134 0.17227864 0.1225537 0.035670567 -0.10360743 0.0011267794 -0.042549007 -0.023749363 0.08032069 0.0595691 -0.16587849 -0.14805461 0.08872687 0.030551445 -0.0062486674 0.013319878 -0.054565445 -0.24347927 0.29331252 0.10864727 0.23750359 -0.2513529 0.21476866 -0.05902576 0.043537177 0.15109037 -0.040137526 0.10840709 0.067915164 0.01064471 0.053394876 -0.1007274 0.0859525 -0.1074311 -0.096576735 -0.15695445 0.13612498 -0.1224099 -0.031201629 0.042209163 0.07983323 0.25626284 0.0112113515 0.20154053 0.09969933 0.026587827 0.017693505 0.28145185 0.19779229 0.05083088 -0.1509316 0.0049295677 -0.025177985
agradar -0.045007803 0.033375137 -0.036020607 0.11487109 -0.03795137 -0.13200402 0.094244406 0.37149608 -0.07731297 -0.16288292 -0.07823503 -0.1873545 0.012224023 0.21762742 0.012498861 -0.12195885 -0.02544079 -0.086218804 -0.051221892 -0.32770124 0.10096642 0.07722818 -0.019056864 -0.052843034 0.049372185 -0.03273476 -0.043940883 0.009573909 -0.19611073 0.06004348 0.057564396 -0.0026262284 0.06849685 -0.18577178 -0.17961028 0.1798162 0.09239612 -0.12236955 -0.0019359746 -0.2923382 -0.07378981 -0.20012364 -0.10735422 -0.058923464 0.1603892 -0.025533393 -0.17791125 -0.057229634 0.17673476 0.115220815 0.037911475 -0.09468565 -0.001626181 -0.04697489 -0.012750099 0.07907067 0.06075222 -0.1614653 -0.14256418 0.098437004 0.041994017 -0.0045724087 0.014354745 -0.06108775 -0.23933327 0.28023234 0.09467224 0.23054545 -0.25420433 0.21052998 -0.059933413 0.03199107 0.15923227 -0.031538144 0.09937523 0.07223662 0.007908905 0.057431128 -0.095348455 0.08003384 -0.090334386 -0.08841409 -0.15862943 0.13457407 -0.11283426 -0.027932195 0.046319705 0.07320027 0.26467383 0.010420303 0.193429 0.09468252 0.030902943 0.025014004 0.28359693 0.17546637 0.050826468 -0.15693812 0.010612666 -0.04453113
fort -0.038101733 0.05874248 -0.08010273 0.24397147 -0.07290047 -0.21874696 0.1327095 0.74126834 -0.098710515 -0.31923127 -0.17629054 -0.37743804 0.028523853 0.48075762 0.021867564 -0.25699043 -0.07205531 -0.14652032 -0.07919926 -0.63517547 0.22566023 0.16353154 -0.034554496 -0.100068174 0.12656444 -0.062202938 -0.104556575 0.06660264 -0.39699972 0.15713044 0.070387125 -0.030585213 0.13069808 -0.4101882 -0.4021109 0.40037104 0.16218784 -0.22659107 -0.011648897 -0.59774923 -0.18574601 -0.39383215 -0.23786797 -0.13684872 0.29262123 -0.055376638 -0.4137549 -0.13259749 0.35117647 0.23697081 0.036642168 -0.18518332 -0.02709131 -0.113668606 -0.0009853984 0.119634345 0.078497835 -0.37532014 -0.28934208 0.19272447 0.07989343 -0.0347441 0.037193377 -0.10264804 -0.45129037 0.59243715 0.20580634 0.48397958 -0.49191564 0.41411456 -0.092593364 0.066484496 0.28817654 -0.09055299 0.19188659 0.12816365 0.005626841 0.104719065 -0.15361056 0.1695268 -0.19470498 -0.20559523 -0.3376459 0.2322111 -0.23994695 -0.0822533 0.09600734 0.1185928 0.5128459 0.02362885 0.3599301 0.19305836 0.08470695 0.020817267 0.5506467 0.36022383 0.05002982 -0.2784223 -0.0066158287 -0.057544313
any -0.07305513 0.048176747 -0.07698252 0.20595458 -0.035244346 -0.19292982 0.14331275 0.57813174 -0.11775969 -0.22645731 -0.12837265 -0.28912157 0.026341807 0.34187716 0.015119696 -0.20361339 -0.031652715 -0.1659222 -0.057025187 -0.5146012 0.1900952 0.12865788 -0.0072100214 -0.103159696 0.071057215 -0.04185509 -0.08360448 0.038173106 -0.30234313 0.12709665 0.070852034 -0.009347766 0.10016389 -0.28700528 -0.29306445 0.3036381 0.11453357 -0.17710033 -0.009174985 -0.46311662 -0.0942731 -0.3193199 -0.1985689 -0.07972271 0.24238071 -0.029631658 -0.28297636 -0.09933112 0.2775558 0.18639228 0.052250925 -0.15945041 -0.0076391827 -0.07419441 -0.041514322 0.123010434 0.08060811 -0.2711422 -0.255865 0.12467082 0.041591983 -0.013528427 0.018935798 -0.1137728 -0.3892555 0.44751564 0.16696246 0.38253343 -0.4105261 0.31861842 -0.0957114 0.0642997 0.24285656 -0.05228832 0.14504057 0.09484994 0.0048259236 0.089762546 -0.1684464 0.13675411 -0.15582977 -0.1254155 -0.23274024 0.21872741 -0.17994864 -0.05525611 0.05957057 0.12118266 0.41054505 0.0017456952 0.32556367 0.15033041 0.03475447 0.034346197 0.43407482 0.28791198 0.07496562 -0.23240294 0.017400797 -0.06009426
matí-tot -0.058402117 0.067076735 -0.102085546 0.31069052 -0.07067617 -0.2701006 0.1845246 0.8832246 -0.12658395 -0.39928058 -0.19679207 -0.47364554 0.045295138 0.5899078 0.04286611 -0.32772765 -0.08881983 -0.20275813 -0.09366416 -0.7564941 0.2816888 0.21132335 -0.02966795 -0.10523389 0.16422227 -0.08254482 -0.12122809 0.08303294 -0.481555 0.18639019 0.0899952 -0.046395995 0.14845274 -0.48747814 -0.4942865 0.46920976 0.18602091 -0.27005827 0.0026886647 -0.72515863 -0.21763496 -0.4740085 -0.3020854 -0.1585593 0.3652915 -0.03422178 -0.5018834 -0.14669769 0.42415383 0.29241508 0.050270747 -0.23553911 -0.016422687 -0.15021098 -0.0012555274 0.15818447 0.123188585 -0.44521523 -0.33699605 0.23732986 0.07727688 -0.04496496 0.053665735 -0.13683608 -0.58180887 0.71276623 0.21684998 0.6094808 -0.5966292 0.50909996 -0.10720288 0.10107953 0.368868 -0.118193835 0.21985859 0.14573832 0.0016451102 0.1263684 -0.20938946 0.19017392 -0.26017725 -0.26759204 -0.38742614 0.29053888 -0.25945777 -0.09938286 0.10389884 0.1402862 0.64888966 0.010309135 0.45054814 0.23703277 0.08058511 0.036104534 0.66466564 0.45914602 0.084040456 -0.35067773 -0.011521735 -0.08106516
nit -0.038820177 0.04990675 -0.0930888 0.24158481 -0.07506807 -0.20005181 0.14217433 0.69611067 -0.09418094 -0.31245 -0.16015317 -0.3717722 0.046203673 0.46936327 0.025692869 -0.24155404 -0.067896046 -0.15120605 -0.06697213 -0.5949566 0.23458138 0.15557711 -0.01737113 -0.071676105 0.1311684 -0.06813943 -0.09163917 0.06616252 -0.37133828 0.14794257 0.0741958 -0.022272788 0.1384614 -0.390204 -0.39080694 0.37861702 0.15023026 -0.21530727 -0.0179295 -0.5588282 -0.18007745 -0.35248417 -0.22666936 -0.13519296 0.28888118 -0.030055963 -0.39580762 -0.12324345 0.33089975 0.23750505 0.025717376 -0.17174086 -0.025686394 -0.11196472 0.0037801322 0.11431417 0.08225273 -0.353885 -0.26348948 0.18617842 0.07682067 -0.038576175 0.033240236 -0.09992989 -0.4524249 0.55210316 0.16925846 0.46792153 -0.4500118 0.41113436 -0.07503937 0.066346824 0.28619945 -0.08177372 0.17924441 0.1148616 0.008589899 0.098492876 -0.16219364 0.16232248 -0.19947596 -0.21790816 -0.3243286 0.22807254 -0.22757003 -0.08229184 0.08991065 0.10706063 0.4928075 0.004465344 0.3490053 0.19081855 0.05852081 0.0270439 0.5175665 0.3468958 0.04697471 -0.28827116 0.00683482 -0.04916997
tarda -0.052840777 0.038957905 -0.08159989 0.24686144 -0.059856772 -0.21773164 0.13564828 0.7149031 -0.119470134 -0.32685834 -0.16745673 -0.37794033 0.045095902 0.48443314 0.044191033 -0.26537806 -0.06929515 -0.16479662 -0.08050964 -0.63020015 0.23442973 0.16336003 -0.032215133 -0.08617309 0.1443989 -0.052520722 -0.092053585 0.077908315 -0.38330787 0.1529926 0.057037286 -0.019769808 0.11325711 -0.39537898 -0.3842228 0.38457114 0.1526784 -0.23647226 -0.0014535355 -0.5738572 -0.18222009 -0.38349265 -0.22552909 -0.12139418 0.30349815 -0.028297229 -0.4114609 -0.1115161 0.34038204 0.22729932 0.044269536 -0.18266748 -0.030314691 -0.11341429 -0.008449581 0.11759781 0.098397985 -0.35576797 -0.2575072 0.18520902 0.06720955 -0.037604626 0.04601682 -0.09615178 -0.4675581 0.57799363 0.17920402 0.49473467 -0.49294314 0.4244249 -0.085105084 0.084961824 0.2846667 -0.094876304 0.17975682 0.119626254 0.012318593 0.1126857 -0.16391712 0.16471134 -0.22112016 -0.22113477 -0.33150885 0.24057075 -0.2190591 -0.06479183 0.08721196 0.121168144 0.51983523 0.009306349 0.35946104 0.20326419 0.06424177 0.04613452 0.5396112 0.37626263 0.06541427 -0.29357445 -0.012885465 -0.058101907
bé -0.05850868 0.05770899 -0.067089304 0.21283446 -0.056420088 -0.19484891 0.14449663 0.6142812 -0.10215295 -0.25982276 -0.13191022 -0.32986802 0.031831287 0.36084145 0.023369072 -0.22447382 -0.05237248 -0.15809965 -0.05836331 -0.5299606 0.19995305 0.122057125 -0.024160253 -0.085590765 0.09605622 -0.045277063 -0.08362087 0.036602203 -0.33385357 0.10376889 0.08322863 -0.019122036 0.12074064 -0.33043504 -0.313904 0.30335537 0.14421923 -0.18034612 -0.023307135 -0.47858736 -0.13143493 -0.33193594 -0.19502753 -0.09422091 0.23645079 -0.04012469 -0.30727783 -0.09402007 0.27862188 0.20179291 0.04115634 -0.16061614 -0.0091667725 -0.07236326 -0.026854547 0.116514616 0.08951835 -0.29986382 -0.25217995 0.1609961 0.06730773 -0.019658614 0.03528586 -0.09878022 -0.40499842 0.4721617 0.163299 0.41076785 -0.4098159 0.3314642 -0.080384 0.06670307 0.26088372 -0.0631363 0.16726235 0.11542853 -0.0003815492 0.093117446 -0.15370905 0.13412456 -0.17537895 -0.1655311 -0.2652533 0.20800315 -0.20640095 -0.061542347 0.08125461 0.1087531 0.43369788 -0.0016573096 0.31615627 0.1711183 0.060325503 0.041565537 0.46816713 0.30881613 0.05232315 -0.24821718 -0.005586609 -0.06340903
més1 -0.060847517 0.05032457 -0.093377896 0.30499753 -0.08715451 -0.27352616 0.16041082 0.8906353 -0.10844756 -0.40474874 -0.19971016 -0.4807256 0.05302129 0.59799516 0.042905554 -0.3275638 -0.09987851 -0.19249848 -0.079677366 -0.75972766 0.28645635 0.2082674 -0.028706659 -0.111327335 0.17186253 -0.07416617 -0.1199072 0.09678054 -0.49187708 0.19406848 0.07719084 -0.030254196 0.17691047 -0.4967797 -0.4992216 0.49523062 0.19049773 -0.28178698 -0.01633617 -0.72120905 -0.22383498 -0.48737717 -0.28849602 -0.16547489 0.37759012 -0.04359405 -0.51597047 -0.14827529 0.4283666 0.28176454 0.058573056 -0.2106413 -0.014360196 -0.14626995 -0.0071207765 0.15697539 0.09819989 -0.44864038 -0.33214438 0.24230485 0.10043304 -0.040722292 0.040286563 -0.13128997 -0.55073994 0.7173808 0.22890396 0.6057674 -0.58025473 0.52526134 -0.106198415 0.10323134 0.35917434 -0.10723313 0.24382672 0.16567527 0.010947506 0.12123403 -0.17755197 0.2140199 -0.24293236 -0.26977426 -0.4185697 0.27372938 -0.28868568 -0.09536353 0.10120486 0.12666878 0.650252 0.031717315 0.4593725 0.24286535 0.080506414 0.02594685 0.67427295 0.4407903 0.06369447 -0.34936363 -0.0038977438 -0.08748811
cim -0.05639806 0.057317074 -0.114355154 0.31856114 -0.08508784 -0.28415135 0.18288828 0.9544244 -0.124445386 -0.42522427 -0.20915084 -0.48393443 0.028013943 0.60787416 0.047307745 -0.32948798 -0.10297492 -0.21423373 -0.08065415 -0.8191093 0.29557452 0.20247908 -0.028572123 -0.12263241 0.1842597 -0.08810449 -0.11023112 0.09334214 -0.5156787 0.20096746 0.08388102 -0.050007388 0.18932857 -0.5134895 -0.5033342 0.49753845 0.19256668 -0.29952833 -0.010534307 -0.76224464 -0.2283538 -0.51369184 -0.32630804 -0.1743529 0.40094483 -0.05970478 -0.52733964 -0.14871186 0.4561636 0.33069047 0.04521117 -0.24149637 -0.014740363 -0.12618409 0.0034433356 0.15946785 0.121233106 -0.46498844 -0.374148 0.26013422 0.081934944 -0.026317375 0.05272499 -0.14245601 -0.61400896 0.7506283 0.26757354 0.65562594 -0.6361003 0.54782367 -0.10578028 0.09861252 0.40474862 -0.12103657 0.23636182 0.1618069 0.023552889 0.12803037 -0.21312736 0.20772968 -0.25119677 -0.27658698 -0.43411794 0.31002563 -0.28890628 -0.097103424 0.12291665 0.14318313 0.6662909 0.02858658 0.45961505 0.2577437 0.092863545 0.040222455 0.71005434 0.49287942 0.096913084 -0.36920208 0.0141032925 -0.09305145
fins -0.06694441 0.06284955 -0.10761495 0.31455472 -0.084836155 -0.29310328 0.1910553 0.92648077 -0.15615727 -0.4166662 -0.2110363 -0.46922585 0.03436543 0.5982513 0.048787065 -0.32330447 -0.09246584 -0.22005355 -0.09095675 -0.78853935 0.28677684 0.20458741 -0.02904825 -0.11793494 0.16560595 -0.07840798 -0.10954555 0.07339896 -0.49311247 0.19760765 0.09874315 -0.044235643 0.15970205 -0.5026334 -0.49351478 0.49402407 0.18725675 -0.27963534 -0.003652134 -0.74558234 -0.21793476 -0.48878986 -0.29956722 -0.14561506 0.3920048 -0.03845084 -0.5020003 -0.15112294 0.4245662 0.28961307 0.059330124 -0.23307778 -0.02881087 -0.1535908 -0.013851484 0.16755192 0.11190441 -0.4609987 -0.3537933 0.22734927 0.07447166 -0.03729144 0.044549573 -0.13490199 -0.5906771 0.7315818 0.23575996 0.61831313 -0.6145595 0.51844406 -0.11454957 0.09821412 0.3642377 -0.10243336 0.25129825 0.15738788 0.005161142 0.13122025 -0.2094616 0.20296364 -0.24905801 -0.2733069 -0.38998407 0.29275474 -0.26728675 -0.08924602 0.117515 0.14845629 0.6651214 0.01671073 0.46649027 0.23770641 0.08969675 0.041850094 0.67697906 0.46788245 0.07791424 -0.37564132 0.012027873 -0.080776885
cel -0.04340205 0.035711452 -0.06969891 0.19177768 -0.061352257 -0.18389642 0.10618378 0.58302915 -0.08181147 -0.2654646 -0.1251432 -0.30844718 0.04277969 0.3852984 0.037200116 -0.21364523 -0.06346719 -0.12027005 -0.061050646 -0.48773485 0.1976435 0.1337669 -0.027763909 -0.0675154 0.097818956 -0.05637489 -0.068502314 0.037651572 -0.30275378 0.11941236 0.04804207 -0.021525273 0.10401519 -0.31607527 -0.3228383 0.31228206 0.11550621 -0.1881752 -0.0031289735 -0.4606849 -0.12204228 -0.29525417 -0.17292258 -0.106880225 0.24352667 -0.013521124 -0.3142395 -0.10047858 0.26864296 0.18101756 0.025547426 -0.15459947 -0.017041013 -0.09695646 0.0057242955 0.099784344 0.08108904 -0.28514972 -0.20400289 0.13017723 0.05452264 -0.023948638 0.034313384 -0.084851734 -0.3775777 0.47065413 0.13958761 0.39231688 -0.39378533 0.33318567 -0.059570145 0.061236177 0.23672572 -0.067170255 0.15912248 0.11133494 0.003236009 0.08392867 -0.14590259 0.13727792 -0.16872083 -0.16948743 -0.25458282 0.19945484 -0.16011472 -0.054623216 0.07500153 0.101949 0.41357243 0.013713132 0.28851628 0.14963311 0.051820096 0.02738983 0.42289197 0.30210823 0.034954406 -0.23290488 -0.0056225164 -0.0417775
zona -0.0586164 0.058702525 -0.08157289 0.2706336 -0.08382852 -0.2522969 0.16694272 0.8012806 -0.12689722 -0.3588123 -0.17322065 -0.41407722 0.029547753 0.51191145 0.034289896 -0.28691682 -0.08482136 -0.18208568 -0.08076333 -0.68307775 0.25980592 0.17878732 -0.021781327 -0.11357374 0.13603447 -0.07104173 -0.09743438 0.07207204 -0.43817174 0.15993881 0.08960068 -0.024439111 0.15083788 -0.4382804 -0.4180541 0.4124169 0.1680756 -0.25394425 -0.02414047 -0.64934874 -0.19728038 -0.42227912 -0.2682829 -0.14226015 0.33404976 -0.039686497 -0.4306747 -0.13186859 0.3933225 0.26677006 0.057290196 -0.19626504 -0.02612056 -0.1297747 -0.0055831475 0.14615998 0.10014046 -0.39088285 -0.3152592 0.19927372 0.06626553 -0.016364798 0.032283373 -0.13746135 -0.5223314 0.6398356 0.21747397 0.53028005 -0.5405698 0.45316076 -0.10503326 0.08273102 0.33439404 -0.086070694 0.20332955 0.1522077 0.019931484 0.10117741 -0.19581534 0.18773462 -0.23465651 -0.22314152 -0.36298686 0.2708801 -0.26072168 -0.08728158 0.10067269 0.12939827 0.5738732 0.022724472 0.40720367 0.22315802 0.08062363 0.04113874 0.60426867 0.40747383 0.07666784 -0.30995327 -0.0023752756 -0.082920864
pirineus -0.06382442 0.08425978 -0.105066136 0.290181 -0.09198389 -0.25405508 0.19475156 0.8676145 -0.12581943 -0.37836164 -0.18682505 -0.473681 0.03895456 0.54852396 0.031634737 -0.29637918 -0.08686219 -0.18124309 -0.09271826 -0.7360735 0.26941293 0.17128745 -0.041920457 -0.10540266 0.13923183 -0.06893426 -0.11102026 0.06014172 -0.4715935 0.16633871 0.077419415 -0.026772182 0.17282572 -0.4785858 -0.47102517 0.46623975 0.2021625 -0.25219917 -0.032423418 -0.6896273 -0.21689858 -0.44032496 -0.27591914 -0.1583654 0.36369637 -0.054984268 -0.46358487 -0.13436183 0.42113838 0.3012998 0.0473198 -0.21100928 -0.025630211 -0.13751547 -0.012889988 0.14038444 0.110639 -0.4261851 -0.31802133 0.20810957 0.07771282 -0.030419154 0.029820321 -0.13877256 -0.5510975 0.67316884 0.23797855 0.5924745 -0.577146 0.49253738 -0.09181156 0.09159854 0.3569423 -0.079340495 0.23325633 0.16694868 0.019973319 0.11438804 -0.18813363 0.20641729 -0.25268674 -0.25263795 -0.38550833 0.26865777 -0.27175185 -0.10461185 0.10618595 0.1453556 0.6106719 0.016384568 0.42326683 0.24446052 0.089577354 0.049644012 0.66944367 0.4437169 0.087022714 -0.33176374 0.0011733591 -0.08236441
temps -0.03799684 0.027659012 -0.034203764 0.11908615 -0.032166492 -0.12671028 0.09479272 0.37489605 -0.072954826 -0.16023272 -0.0837107 -0.19716342 0.008791083 0.21578251 0.0165814 -0.12582164 -0.025316807 -0.09121008 -0.04126506 -0.33132657 0.1053265 0.086574346 -0.0037217066 -0.06476883 0.061506942 -0.015889218 -0.05677306 0.016333029 -0.21093895 0.07352856 0.045071773 -0.007958378 0.07785563 -0.20433022 -0.1982655 0.19149709 0.074231 -0.12495525 -0.019542236 -0.30201727 -0.07267726 -0.19933626 -0.12065513 -0.04487588 0.16297695 -0.02696371 -0.18042432 -0.067412324 0.17126343 0.12305201 0.031340495 -0.110889435 -0.0047362368 -0.04879157 -0.028322369 0.06710455 0.04493694 -0.17088665 -0.15409708 0.08440807 0.038388554 -0.004558527 0.017867627 -0.059084326 -0.2494426 0.29469618 0.097381175 0.24071002 -0.26541603 0.20618021 -0.066665456 0.049736157 0.16319232 -0.040989317 0.10418164 0.07665204 -0.0036664896 0.056465786 -0.10787981 0.09114766 -0.09735575 -0.0938237 -0.16706689 0.12850088 -0.11910163 -0.03119048 0.05847205 0.06686333 0.2545697 -0.006036666 0.1946722 0.10723095 0.031643957 0.02416818 0.29277492 0.18942487 0.047517832 -0.14679599 -0.003343622 -0.037328646
nivell -0.094208114 0.0692054 -0.11049346 0.32222247 -0.093283206 -0.27156904 0.20153348 0.95491844 -0.1441444 -0.42411765 -0.21339165 -0.50666124 0.030026397 0.61122036 0.04300898 -0.35719213 -0.10702876 -0.20285012 -0.090737596 -0.8016577 0.31534743 0.1932636 -0.02286815 -0.12747325 0.17462067 -0.104150064 -0.12798733 0.061826523 -0.50405276 0.19691417 0.11268535 -0.026085025 0.17810413 -0.5133459 -0.49936065 0.49894056 0.20308888 -0.2754206 -0.008622587 -0.7741669 -0.22131334 -0.49520075 -0.30796307 -0.1666752 0.39155474 -0.039316498 -0.5053107 -0.16102874 0.46914098 0.3227804 0.0620097 -0.23074283 0.001437626 -0.14168112 -0.030442247 0.17697693 0.12305428 -0.4610107 -0.38441175 0.24673097 0.07998031 -0.0091495365 0.045851663 -0.1550565 -0.61950284 0.7397724 0.2715614 0.64740497 -0.6478889 0.5512304 -0.11753793 0.096630305 0.40424925 -0.094008654 0.22896373 0.17319563 0.032248866 0.13367489 -0.21242619 0.21876557 -0.27387935 -0.28137547 -0.41539273 0.30060226 -0.31222856 -0.09990223 0.13360159 0.14618783 0.6746001 0.019030377 0.4702535 0.2474609 0.06539793 0.05888243 0.7193699 0.5062371 0.090844154 -0.40188602 -0.0074687386 -0.089332394
aquí -0.04232548 0.0410514 -0.05015415 0.11492024 -0.034511294 -0.123744406 0.078144886 0.36239284 -0.08082708 -0.15739883 -0.07428994 -0.20358345 0.008748232 0.22372594 0.019863382 -0.13944101 -0.019160694 -0.107743666 -0.036565863 -0.31849748 0.119799815 0.086688414 -0.0029070235 -0.05555858 0.050052445 -0.020125484 -0.058328968 0.014978623 -0.19594882 0.06128093 0.042841583 -0.014158957 0.07185536 -0.1905338 -0.18766747 0.1955549 0.07981469 -0.11012109 -0.016707934 -0.304594 -0.08142883 -0.20076805 -0.11571501 -0.049918864 0.14868279 -0.018133692 -0.18296172 -0.06418139 0.16785978 0.12001886 0.02678673 -0.09545532 0.0027520205 -0.039850164 -0.008485385 0.063085556 0.052050576 -0.1825946 -0.15978709 0.082673065 0.035608284 -0.0055079046 0.007768693 -0.056833208 -0.24300046 0.28645927 0.10110258 0.24201208 -0.25908658 0.21204317 -0.054333452 0.036788568 0.1622786 -0.03191908 0.0956278 0.077532016 -0.00041818956 0.059004273 -0.10316695 0.07470664 -0.1066908 -0.097764574 -0.15694289 0.12825744 -0.11549191 -0.02684555 0.047320202 0.07494752 0.26107663 0.0038161564 0.19503921 0.10381563 0.026204081 0.020864703 0.28478327 0.19145745 0.03105785 -0.14616427 0.0029384901 -0.038139097
vegada -0.048143763 0.034763914 -0.061287865 0.15307607 -0.045872025 -0.16380839 0.09558159 0.48310837 -0.067199744 -0.20952508 -0.11810988 -0.25185755 0.007486318 0.3017586 0.024243487 -0.18136889 -0.05410891 -0.12517036 -0.04390625 -0.4133046 0.15616344 0.11215313 -0.009738234 -0.07390887 0.09026914 -0.027272083 -0.060829226 0.046741422 -0.2775704 0.09915321 0.06482562 -0.018304067 0.08538497 -0.2654938 -0.2627992 0.25103757 0.10241811 -0.14357413 -0.0132419355 -0.38731518 -0.1157138 -0.2521319 -0.17013164 -0.09202598 0.19608779 -0.039896984 -0.26869264 -0.07858625 0.23362933 0.16053669 0.041040756 -0.13244966 -0.005666335 -0.070749976 -0.0044453265 0.09756563 0.059150044 -0.23764075 -0.20064215 0.12046722 0.038768116 -0.016521605 0.013504264 -0.08302745 -0.30784282 0.38802078 0.12292738 0.32868952 -0.32406178 0.28041092 -0.068646714 0.06178908 0.21253388 -0.051486447 0.12714954 0.080703765 0.0027611558 0.065823 -0.11045505 0.10843077 -0.1443617 -0.12732784 -0.22560994 0.1687526 -0.15046547 -0.059030704 0.06615847 0.089909315 0.33810267 0.0011707334 0.265211 0.13583478 0.0590319 0.013199896 0.371674 0.2571147 0.045220517 -0.19897772 -0.0063096643 -0.049639907
llibre -0.04305425 0.040615253 -0.039053336 0.104317814 -0.017309489 -0.11938316 0.075251065 0.34124342 -0.060629517 -0.14914712 -0.075508684 -0.18266165 0.024283092 0.21552338 0.016629117 -0.12676148 -0.021899797 -0.089012235 -0.043469332 -0.30750126 0.10090527 0.077736095 -0.019914083 -0.05932493 0.06390746 -0.028573873 -0.03623882 0.021125086 -0.19132128 0.05855254 0.04293148 -0.004883307 0.056031115 -0.18569532 -0.18304461 0.18417148 0.072655216 -0.10118701 -0.009755499 -0.28668118 -0.06983869 -0.18428142 -0.10642208 -0.06133898 0.13265507 -0.025154326 -0.17529112 -0.05746764 0.15971482 0.114655934 0.035440132 -0.0924241 -0.008307809 -0.045011073 -0.020257916 0.057864062 0.05826847 -0.16706927 -0.15121825 0.08971951 0.04097143 -0.006947025 0.016528724 -0.061842624 -0.22817823 0.25595862 0.08658098 0.21596715 -0.24218038 0.19941491 -0.04057415 0.035719495 0.14444289 -0.021422707 0.09182614 0.05628961 0.0051397444 0.04948053 -0.09316074 0.069631614 -0.08221416 -0.0759242 -0.15396845 0.11367118 -0.10708806 -0.028537909 0.035043698 0.07459279 0.23679823 0.00948783 0.19178766 0.09838076 0.03396434 0.020205302 0.2500067 0.1749181 0.034338474 -0.15101504 0.011441765 -0.0402977
venir -0.04002491 0.035655387 -0.06330546 0.15440856 -0.03676252 -0.16274299 0.10807557 0.48936707 -0.072284296 -0.20237309 -0.09719741 -0.24866308 0.010212405 0.2918836 0.015134866 -0.1756968 -0.038460046 -0.11492492 -0.05386291 -0.4191652 0.14834931 0.09837387 -0.012616311 -0.080025345 0.07974235 -0.04265782 -0.057228494 0.032432895 -0.26142582 0.08771494 0.065112785 -0.020636972 0.093764685 -0.25858954 -0.24741581 0.24697033 0.104111366 -0.15763976 -0.0045229658 -0.3972154 -0.1020732 -0.26212248 -0.15177013 -0.0860251 0.19986685 -0.028373139 -0.26899955 -0.06957941 0.22818877 0.1668598 0.035293587 -0.12590644 -0.007181429 -0.059578743 -0.023861846 0.098437846 0.07440169 -0.23732568 -0.18851005 0.12913212 0.049853764 -0.015913194 0.024059279 -0.079117686 -0.30824316 0.3914831 0.12597732 0.32525608 -0.34005883 0.27238634 -0.074695915 0.05789207 0.20244263 -0.050133348 0.13692327 0.08244043 0.007594542 0.06496808 -0.122350216 0.09939188 -0.14350307 -0.12146105 -0.22082138 0.16813491 -0.16061935 -0.049536932 0.06687259 0.075343914 0.33806592 0.00070566376 0.24419244 0.1308951 0.04192271 0.027015993 0.37181842 0.2402646 0.041095395 -0.19992335 -0.005516026 -0.051784582
ja -0.045486387 0.030499693 -0.053192418 0.1248027 -0.026933229 -0.14354539 0.08710497 0.40714815 -0.06990144 -0.17509428 -0.079428814 -0.2189112 0.015297765 0.2460194 0.014594565 -0.12947531 -0.03028406 -0.10147365 -0.03703658 -0.3609252 0.11519837 0.07886328 -0.013046312 -0.07269926 0.061663553 -0.036969293 -0.05333221 0.02150578 -0.20940237 0.06568611 0.04881559 -0.005336012 0.08202337 -0.2125709 -0.20335011 0.19847734 0.08995063 -0.13098979 -0.017641727 -0.32252717 -0.077261485 -0.21027586 -0.1396731 -0.056918815 0.16619745 -0.027119081 -0.2052438 -0.056277998 0.17765962 0.12976061 0.039861444 -0.111188285 -0.0010040283 -0.04406401 -0.013781901 0.080923826 0.06627879 -0.19562408 -0.15798262 0.10331352 0.029048825 -0.010208842 0.023796778 -0.06346492 -0.270597 0.3095071 0.1127423 0.2640413 -0.26820746 0.21280107 -0.050771408 0.03385002 0.17502931 -0.024892474 0.101227134 0.06491738 0.01023577 0.04575056 -0.114392124 0.08567178 -0.117317304 -0.09012347 -0.16017748 0.14101787 -0.121101946 -0.023908643 0.057990134 0.08120843 0.2887316 0.010978902 0.21721232 0.121636815 0.024148429 0.036537193 0.31456172 0.21297665 0.03370331 -0.16832386 0.005614405 -0.03406725
matí -0.06262964 0.05050158 -0.06922084 0.23725297 -0.06560096 -0.203804 0.14399397 0.6649763 -0.10197534 -0.3072928 -0.1496161 -0.3402903 0.034257066 0.41275784 0.027307661 -0.23671238 -0.06346164 -0.15759374 -0.061228033 -0.5709869 0.20554212 0.15963212 -0.03332308 -0.08998467 0.12975146 -0.05406037 -0.090666234 0.05361158 -0.3623779 0.12866336 0.06109063 -0.019209169 0.105110854 -0.35366297 -0.36431655 0.3599759 0.13812828 -0.21610549 -8.483073e-05 -0.54818416 -0.150866 -0.35574344 -0.22715703 -0.12038565 0.2852968 -0.034934297 -0.35350165 -0.12077048 0.31628838 0.21386981 0.03638936 -0.17579044 -0.024621539 -0.106531255 -0.017691277 0.11677273 0.07914965 -0.33976692 -0.25248644 0.1695706 0.0678097 -0.01401266 0.045172464 -0.110643655 -0.44266102 0.529728 0.16879909 0.4591928 -0.44179013 0.3785819 -0.07807256 0.083066866 0.2785428 -0.06931067 0.18046702 0.11924054 -0.0014366051 0.08646207 -0.16505316 0.14652874 -0.18133241 -0.20148349 -0.29286027 0.23171063 -0.20764345 -0.076811545 0.087051764 0.10571415 0.4676303 -0.0019074938 0.33651426 0.18913549 0.05976873 0.047763906 0.511545 0.34898013 0.055554066 -0.26066288 -0.014546497 -0.065767094
normal -0.04766252 0.06922164 -0.10243582 0.28409308 -0.0748786 -0.2653153 0.16234581 0.8778742 -0.11364892 -0.3813315 -0.19406298 -0.44467303 0.049025048 0.5733487 0.05759556 -0.3152344 -0.09786113 -0.18514854 -0.07538895 -0.7270673 0.28238058 0.19570026 -0.020989431 -0.09415989 0.15213226 -0.0834942 -0.10901813 0.088703625 -0.46746653 0.17707273 0.08614503 -0.045077227 0.1743418 -0.4658287 -0.4698255 0.46885452 0.18409416 -0.26187244 -0.020445103 -0.6770515 -0.21988364 -0.44597834 -0.2792363 -0.15425506 0.34322613 -0.03623862 -0.48887506 -0.13962385 0.40773985 0.2748833 0.04099804 -0.22300287 -0.02843444 -0.1437652 0.007107863 0.14887223 0.105207026 -0.4324103 -0.32373136 0.21616483 0.09429196 -0.043654986 0.044353675 -0.11673983 -0.544789 0.7014454 0.22627743 0.58102673 -0.5741821 0.50526094 -0.09732188 0.094073825 0.3505583 -0.11148214 0.2284298 0.15167442 0.021286935 0.11511033 -0.18479738 0.19583364 -0.24634881 -0.25682425 -0.4032379 0.2749194 -0.26659042 -0.08770781 0.10580261 0.13112935 0.61592495 0.01563621 0.43859398 0.2257784 0.07552867 0.029824639 0.63609225 0.4277321 0.07236999 -0.337016 -0.006814383 -0.083421186
temperatura -0.07698148 0.06854284 -0.09889503 0.26086584 -0.0650731 -0.22583254 0.15602286 0.77683336 -0.13031329 -0.32957777 -0.1764725 -0.40627426 0.034097355 0.48335472 0.047214136 -0.28421775 -0.06793941 -0.18776177 -0.07257925 -0.66058767 0.23879582 0.1621018 -0.027267482 -0.10889452 0.13190053 -0.09025541 -0.11701969 0.04401745 -0.42481175 0.1455598 0.10056696 -0.029338175 0.12838463 -0.42115057 -0.40312698 0.3941806 0.16403604 -0.23485222 -0.0029968093 -0.6330852 -0.18324237 -0.39338803 -0.26034456 -0.12510847 0.31951553 -0.018888302 -0.40562207 -0.11998551 0.3732941 0.26529256 0.050885823 -0.1966245 -0.0006508653 -0.10283042 -0.013402274 0.14108163 0.10252945 -0.36807543 -0.31712934 0.19683248 0.05980875 -0.0009214144 0.026940523 -0.12131051 -0.48777834 0.6013186 0.20638445 0.50871444 -0.5163826 0.4272789 -0.09325277 0.081453875 0.33642498 -0.080333844 0.18675226 0.13306837 0.021310851 0.09927999 -0.17438444 0.16692382 -0.22317919 -0.21551912 -0.34583035 0.24457486 -0.25433695 -0.07939779 0.105541445 0.13299708 0.55066144 0.018994048 0.3946402 0.21154125 0.052455295 0.05663006 0.5884778 0.4093549 0.07522395 -0.31060123 0.0072140764 -0.088053316
deixar -0.045913126 0.036863476 -0.041350152 0.12346669 -0.026456146 -0.13017273 0.091247894 0.39682266 -0.083201975 -0.16053769 -0.09640408 -0.21679935 0.020594338 0.22990485 0.0140601825 -0.14159235 -0.032569747 -0.11267902 -0.039445516 -0.3497782 0.1259653 0.085415125 -0.005644111 -0.0724449 0.06861179 -0.03277108 -0.051210333 0.014097367 -0.21920395 0.06842862 0.04727759 -0.001239841 0.07567869 -0.20818688 -0.2100942 0.21134351 0.07995312 -0.12539145 -0.015505438 -0.33169338 -0.0779532 -0.21876146 -0.12608401 -0.05576933 0.15854503 -0.024191614 -0.20909773 -0.072053924 0.17572321 0.1298928 0.038855106 -0.11142195 -0.010071877 -0.04992495 -0.016777571 0.067083195 0.06484384 -0.18045451 -0.1721027 0.098485805 0.042299516 -0.009179745 0.016437931 -0.07274067 -0.25475287 0.31574473 0.11459912 0.25835052 -0.27630052 0.21527205 -0.07157664 0.052083552 0.16774133 -0.03633122 0.11300492 0.06550109 0.010866563 0.046735555 -0.11023656 0.09394899 -0.11287825 -0.10389265 -0.17505883 0.1349869 -0.13040105 -0.03891 0.062180817 0.08488036 0.28223056 0.0035397531 0.20546502 0.12303911 0.028470607 0.03365767 0.3150781 0.2087909 0.041452575 -0.15823652 0.012619128 -0.041743636
casa -0.04824507 0.049601134 -0.04383246 0.15414427 -0.033918053 -0.16198084 0.09656712 0.45664072 -0.093723536 -0.19456184 -0.10546228 -0.24217889 0.024664452 0.28521618 0.028383004 -0.1601795 -0.038289867 -0.11845414 -0.05450998 -0.4149245 0.14758702 0.09095829 -0.010136408 -0.07722427 0.065727726 -0.03337865 -0.06944669 0.034179967 -0.2567554 0.07634643 0.06485724 -0.007832969 0.08940991 -0.24117406 -0.23933025 0.23044772 0.104139484 -0.1335146 -0.01742223 -0.37817976 -0.08946551 -0.24212399 -0.15593088 -0.07437572 0.18791172 -0.023409564 -0.23091274 -0.06571479 0.20504536 0.15715638 0.037194867 -0.13349241 -0.015150092 -0.068623535 -0.01151744 0.091722056 0.056350034 -0.21415806 -0.19718376 0.105025016 0.044482164 -0.0060148523 0.019795308 -0.07027202 -0.2943994 0.35043362 0.1333941 0.30665326 -0.31545097 0.26356098 -0.077764615 0.048074003 0.19521616 -0.034548372 0.12127993 0.094278894 0.00025610146 0.0548693 -0.1287179 0.097137205 -0.11661799 -0.120805785 -0.20074081 0.16929083 -0.15664127 -0.039335113 0.06737748 0.07887062 0.3270152 0.0030215967 0.24815017 0.12666048 0.03248647 0.040991288 0.34854746 0.2433123 0.041412886 -0.1808917 0.0012113423 -0.051242586
mar -0.03780197 0.03263095 -0.05095942 0.14501989 -0.04752484 -0.1406473 0.08587117 0.44686702 -0.061860364 -0.19245864 -0.101978555 -0.22487757 0.008173397 0.27756307 0.024671258 -0.15930313 -0.04681754 -0.10919808 -0.05512633 -0.36583653 0.14175588 0.09251203 -0.00565741 -0.069026046 0.07265923 -0.036961846 -0.06617422 0.02364599 -0.22757663 0.082892194 0.03839591 -0.0063225003 0.07319208 -0.23743463 -0.23236921 0.22344999 0.08432731 -0.13817874 -0.017874524 -0.34778628 -0.10491042 -0.22821712 -0.14101651 -0.07853639 0.18769653 -0.015915675 -0.235303 -0.0714285 0.2077427 0.1515613 0.03820302 -0.11514689 -0.010334984 -0.06825942 -0.009401351 0.07053219 0.053944852 -0.22263078 -0.16942294 0.11092485 0.043550335 -0.015709672 0.02426031 -0.07747479 -0.26967865 0.34631625 0.12026438 0.29544535 -0.29178193 0.24960756 -0.053619977 0.03455705 0.17485812 -0.04988496 0.102901354 0.084580295 0.012430697 0.059172984 -0.09294439 0.09678419 -0.122896746 -0.115552716 -0.20302522 0.13512446 -0.13043113 -0.053177137 0.06546329 0.0786388 0.29874447 0.017172756 0.22964205 0.11234164 0.02970907 0.0124647925 0.33765322 0.22989859 0.03770537 -0.17356554 -0.009656011 -0.045563817
comprar -0.03142602 0.023135478 -0.04784649 0.11819301 -0.03644861 -0.12425984 0.084967464 0.36123502 -0.07353507 -0.14082636 -0.06747536 -0.17961055 0.009044606 0.222006 0.006516585 -0.12654063 -0.025155444 -0.09876309 -0.04975468 -0.30525234 0.11615757 0.07089283 -0.014811228 -0.050571468 0.056486543 -0.0351827 -0.039404023 0.016484711 -0.18641439 0.06909162 0.053484734 -0.00076551695 0.073081374 -0.19421336 -0.17871474 0.18057272 0.07908621 -0.09945564 -0.0035859598 -0.29468533 -0.05990141 -0.18979755 -0.11433332 -0.048594307 0.13756734 -0.019150266 -0.1804885 -0.04802631 0.16810498 0.11118048 0.020927157 -0.10292025 0.00454495 -0.057652093 -0.0057859267 0.06679313 0.04731138 -0.15748894 -0.13416252 0.09587677 0.040630557 -0.016781513 0.022323173 -0.07031675 -0.23756772 0.26332882 0.10244103 0.23972175 -0.24875516 0.19123565 -0.05586488 0.033804465 0.14621736 -0.027221665 0.09669961 0.06294491 0.0010878933 0.045323413 -0.095566 0.083276786 -0.08612541 -0.07998816 -0.15677203 0.11559976 -0.12393324 -0.037617583 0.049767833 0.058919266 0.25071937 0.013443596 0.18858017 0.102163725 0.03988125 0.029720401 0.2678716 0.17270462 0.036540926 -0.13512903 0.012178853 -0.037304018
núvol/c+ -0.035805516 0.05113392 -0.0721246 0.23956884 -0.06411497 -0.21343188 0.12687822 0.71136844 -0.11407756 -0.33505797 -0.15572453 -0.35537618 0.03926112 0.4795667 0.046760075 -0.24928725 -0.08613458 -0.1385716 -0.08142537 -0.60838145 0.23917134 0.1523308 -0.017377656 -0.08943097 0.1266136 -0.06843842 -0.10078566 0.065857515 -0.36112 0.15721013 0.049307432 -0.034411218 0.12568288 -0.3952862 -0.3810022 0.3915331 0.13664857 -0.21015686 0.0048029493 -0.5664203 -0.16863573 -0.37284118 -0.22164276 -0.11480001 0.30068016 -0.038469892 -0.3863885 -0.12526035 0.33457837 0.22996373 0.039600406 -0.17201962 -0.030343248 -0.112766795 -0.004475649 0.11992424 0.097426884 -0.3553652 -0.24691966 0.17706211 0.071187206 -0.022530489 0.034963537 -0.09619314 -0.463545 0.582298 0.1736895 0.48946297 -0.46695042 0.41482544 -0.09191271 0.0677581 0.27835992 -0.088044696 0.17883462 0.10892025 0.0009166745 0.11649239 -0.14735758 0.16137037 -0.21067818 -0.2158157 -0.32749024 0.24063742 -0.21086465 -0.063801154 0.07867991 0.10600441 0.5073267 0.011322971 0.3453419 0.17410526 0.05989557 0.026128642 0.5317033 0.361553 0.048461974 -0.28633103 -0.01635844 -0.056860607
bo -0.041251697 0.042027894 -0.058764182 0.16446348 -0.044255476 -0.14868301 0.11232841 0.46258125 -0.09686229 -0.18920521 -0.10921027 -0.24761353 0.027515093 0.26722902 0.011171699 -0.16571844 -0.03213239 -0.11861879 -0.056885503 -0.40819448 0.1499595 0.10867998 -0.0027248408 -0.070554696 0.07714139 -0.03024416 -0.060522918 0.0322522 -0.24659736 0.08691788 0.056191493 -0.020229291 0.09269475 -0.24936658 -0.23179132 0.23575486 0.099104874 -0.14682399 -0.008450105 -0.38048804 -0.10000769 -0.25117725 -0.1427611 -0.06261852 0.18821703 -0.01638685 -0.24583076 -0.07668908 0.20405415 0.14205422 0.046190158 -0.13949007 -0.014836632 -0.072340086 -0.010571701 0.085502245 0.06615471 -0.2234893 -0.1914861 0.114306845 0.03757512 -0.016091073 0.012585136 -0.07581758 -0.31193662 0.35732135 0.12867835 0.3141243 -0.31621963 0.26104936 -0.078411885 0.042918947 0.19969442 -0.04088907 0.11648636 0.08304853 0.013432784 0.054226473 -0.12427257 0.10179774 -0.12700848 -0.10652319 -0.19687133 0.15216434 -0.15530735 -0.05022895 0.052983124 0.079452366 0.32035935 0.0034193269 0.24071804 0.1257406 0.04241336 0.034868006 0.35993835 0.2291613 0.05475162 -0.17899168 0.00051403145 -0.04975651
passar -0.03994826 0.024664555 -0.031647492 0.1261665 -0.01919335 -0.12682979 0.085902035 0.35796154 -0.061075523 -0.15816018 -0.07701316 -0.19286333 0.0045658313 0.2137996 0.026070014 -0.115675315 -0.034824453 -0.08911916 -0.04277364 -0.29797047 0.0977404 0.08619915 -0.01750201 -0.0625116 0.056698788 -0.025424164 -0.056695074 0.018679878 -0.1907941 0.05994563 0.051136784 -0.006670091 0.07308029 -0.17793708 -0.18764392 0.18579543 0.08372302 -0.10284089 -0.0035123306 -0.29077443 -0.064866185 -0.1875044 -0.11334637 -0.059956156 0.1474831 -0.012828083 -0.1915728 -0.045458063 0.1648869 0.11391611 0.026099695 -0.09852352 0.0011783717 -0.043081116 -0.021766197 0.07526951 0.04881624 -0.17439905 -0.13455148 0.09208756 0.035141513 0.0017300441 0.006552652 -0.06590083 -0.23252726 0.2677228 0.09668455 0.23133692 -0.25045273 0.1969202 -0.05111012 0.038229726 0.1526478 -0.03074807 0.099208534 0.06306946 0.012110938 0.046737634 -0.088849775 0.07434465 -0.08990384 -0.08527924 -0.14821678 0.13193578 -0.121849045 -0.02031275 0.046853986 0.06329758 0.24466784 -0.00573317 0.18262422 0.10252849 0.036565837 0.03323083 0.25954816 0.1880978 0.02807586 -0.14000745 0.012707343 -0.035649277
tornar -0.044854302 0.02316405 -0.034416094 0.11204712 -0.03644335 -0.11121618 0.08093176 0.34570065 -0.06090604 -0.1403162 -0.084055215 -0.17388836 0.017355958 0.19479917 0.011531485 -0.118420914 -0.02518372 -0.09173859 -0.043159496 -0.30007493 0.10884018 0.07305329 -0.00949937 -0.05158971 0.046693046 -0.03258685 -0.035818215 0.007367996 -0.18502235 0.06247257 0.035848256 -0.0071589625 0.071030386 -0.18088154 -0.1647235 0.1750903 0.06941679 -0.10742311 -0.009225652 -0.27110654 -0.057749707 -0.17724486 -0.11611393 -0.057448328 0.14769444 -0.015209313 -0.16890974 -0.05264093 0.16474995 0.10015284 0.03961177 -0.105302915 -0.006096787 -0.03815883 -0.02709712 0.0711895 0.041559335 -0.16651598 -0.13803598 0.0847413 0.026824292 0.0036917648 0.0063456865 -0.059474763 -0.21372712 0.2638977 0.089589976 0.22701705 -0.23999593 0.18796076 -0.05029327 0.045963574 0.15062885 -0.035013825 0.100781575 0.05788071 0.011183244 0.038400684 -0.09860959 0.07369542 -0.10174478 -0.08873822 -0.14350103 0.119546525 -0.120258994 -0.03598396 0.036716696 0.064400636 0.24692474 0.0038378513 0.18947016 0.093323134 0.036347594 0.029582467 0.26988313 0.17343564 0.036522433 -0.13751169 -0.005501746 -0.021709146
cosa -0.03963458 0.03973948 -0.03592309 0.11962608 -0.02797494 -0.1266061 0.08057296 0.3511552 -0.077078976 -0.15105665 -0.07899912 -0.18708254 0.01648145 0.2101439 0.01884614 -0.12820958 -0.03228164 -0.08641617 -0.03193224 -0.30085543 0.110648386 0.06714319 -0.0019023672 -0.061085504 0.045822036 -0.016090197 -0.050086904 0.0104955705 -0.19153145 0.07143295 0.041813374 -0.0046413583 0.063593335 -0.17817007 -0.17571257 0.16888821 0.07315513 -0.09795569 -0.0076854625 -0.28781685 -0.061598703 -0.18051037 -0.10438579 -0.050851155 0.13448556 -0.022275776 -0.1727068 -0.06116576 0.17059518 0.102838635 0.021130871 -0.10252578 0.0020203313 -0.054609276 -0.0068411585 0.05709655 0.05251323 -0.16011545 -0.143453 0.09595825 0.036053725 -0.005196922 0.019507034 -0.053892326 -0.22444558 0.27825603 0.097522944 0.22028889 -0.2444785 0.19055007 -0.060355484 0.03678321 0.1542636 -0.036599882 0.09643521 0.06924638 0.0031866098 0.049877886 -0.08609876 0.06962465 -0.0911671 -0.078017436 -0.15008046 0.11264081 -0.12106604 -0.03924863 0.050012656 0.07072101 0.25316116 0.0019552615 0.18441202 0.10201173 0.01906885 0.014687264 0.2695881 0.16786909 0.034288503 -0.14597169 0.01002729 -0.036028665
encara -0.043520883 0.05051946 -0.06789267 0.17856443 -0.044245526 -0.18547101 0.12899442 0.5619452 -0.094785385 -0.24562596 -0.12843491 -0.2908672 0.017892022 0.32813004 0.033533156 -0.18961857 -0.05064282 -0.13702044 -0.054654285 -0.4790624 0.1796781 0.11867553 -0.024357606 -0.082217276 0.07982055 -0.031897217 -0.082710735 0.031185014 -0.30136344 0.10786748 0.07353961 -0.02769238 0.09431478 -0.29223326 -0.28209493 0.29090852 0.12113887 -0.17021489 -0.018967297 -0.44276565 -0.124534465 -0.29297298 -0.18383437 -0.09411084 0.23528697 -0.02958877 -0.2975176 -0.09833911 0.2573324 0.17066774 0.045310613 -0.14749385 -0.0012141963 -0.08097465 -0.012059422 0.09533928 0.08347145 -0.26612797 -0.22712177 0.14396009 0.049347732 -0.012570396 0.021879226 -0.10342792 -0.35950613 0.42358384 0.1598507 0.356763 -0.38129345 0.2957284 -0.090528846 0.061067127 0.22330861 -0.059691872 0.14922705 0.10065741 0.0086992625 0.08498194 -0.1524957 0.12638415 -0.16147672 -0.13801675 -0.22861813 0.19778909 -0.18826573 -0.04746613 0.06363177 0.10066798 0.3858706 -0.004515805 0.29185683 0.15951428 0.04033596 0.02538987 0.4269768 0.27831593 0.047884334 -0.23173982 0.0021058195 -0.04328096
després -0.07312479 0.06429581 -0.06760768 0.21514373 -0.05299217 -0.21946701 0.1477593 0.6505822 -0.11956691 -0.28334817 -0.13491972 -0.34833908 0.014991085 0.39447406 0.030710822 -0.22884317 -0.049612395 -0.16581191 -0.06491875 -0.55668974 0.19854425 0.137389 -0.030025309 -0.09318764 0.10092047 -0.04904288 -0.08006372 0.050352704 -0.33598757 0.121688806 0.069248885 -0.021674354 0.10643542 -0.33381453 -0.32796705 0.3279782 0.14851739 -0.20986854 -0.004261292 -0.5281359 -0.122934654 -0.35505792 -0.21330562 -0.08938658 0.2695367 -0.037437234 -0.344917 -0.098512545 0.30624467 0.21812746 0.046668228 -0.19027422 -0.0012329398 -0.093024075 -0.027034292 0.1357535 0.08510198 -0.306403 -0.2712234 0.14913122 0.045676794 -0.013126981 0.016664581 -0.11721857 -0.42708763 0.51128846 0.18065874 0.4391317 -0.44164634 0.35568157 -0.10443393 0.086846516 0.27965334 -0.07150674 0.17411262 0.12831151 0.009483548 0.084726706 -0.17550072 0.14577271 -0.17438784 -0.16298592 -0.27392757 0.23491961 -0.19705267 -0.058453877 0.071400814 0.1146018 0.4549535 0.00940018 0.34578523 0.17495427 0.03923265 0.043181438 0.5016059 0.33821434 0.07603137 -0.26615533 0.01905872 -0.06463868
menjar -0.039889928 0.043223094 -0.048298016 0.1342347 -0.01792079 -0.12564628 0.093059674 0.3884321 -0.07639945 -0.17106062 -0.082871474 -0.19880456 0.0053609237 0.22904879 0.023776693 -0.14177968 -0.027075931 -0.09433403 -0.051934235 -0.3338215 0.10736444 0.073621124 -0.0035075922 -0.06920284 0.05709796 -0.036445037 -0.061163668 0.012843322 -0.206514 0.07308589 0.041245095 -0.02043933 0.06482861 -0.20175782 -0.20163982 0.19145603 0.09030431 -0.11447431 -0.0022706178 -0.30592057 -0.07538595 -0.20247622 -0.11371739 -0.053944606 0.16116674 -0.019859482 -0.20474781 -0.05423219 0.1821433 0.12455881 0.0436606 -0.11365551 -0.0011475701 -0.059185922 -0.02882176 0.076001875 0.06069616 -0.17290562 -0.165731 0.09946823 0.036077622 2.3718336e-05 0.015552072 -0.06062277 -0.2421008 0.28617376 0.096444 0.2601671 -0.26419872 0.2002461 -0.06378991 0.044362072 0.17073722 -0.0352957 0.10001424 0.062390503 -0.004692504 0.054123953 -0.10254569 0.074022956 -0.1039929 -0.10582218 -0.16228068 0.13743761 -0.121741034 -0.023003394 0.058888007 0.07099891 0.27675214 0.009351952 0.2114572 0.11958176 0.037397906 0.03048241 0.30151522 0.19181356 0.036537956 -0.14769785 0.004832901 -0.04150868
saber -0.04848792 0.036081124 -0.038159233 0.15166633 -0.029010547 -0.14384028 0.11088141 0.44053853 -0.093518846 -0.19270276 -0.10148102 -0.24309392 0.014621907 0.25692296 0.029617894 -0.15899234 -0.0407936 -0.12601845 -0.053958025 -0.401778 0.13615602 0.10073243 -0.016197998 -0.06211301 0.06701633 -0.039396264 -0.0641311 0.019742724 -0.24872635 0.07367209 0.054385085 -0.014098743 0.08638108 -0.24221292 -0.23118746 0.22910692 0.097667366 -0.1335428 -0.014094688 -0.35620296 -0.07956644 -0.24756758 -0.1385402 -0.059015565 0.18463804 -0.016061474 -0.23373562 -0.0748272 0.19672017 0.15374504 0.02809739 -0.12879325 -0.0056447065 -0.06464975 -0.011533243 0.07798971 0.054423258 -0.19892809 -0.19260024 0.11915963 0.033964407 -0.000837765 0.01754735 -0.08072444 -0.29921347 0.3363023 0.13475883 0.29905555 -0.30658695 0.25122923 -0.064342305 0.053378347 0.19033311 -0.048995417 0.12856804 0.07571016 0.0013476465 0.062980376 -0.11213248 0.088285305 -0.12043751 -0.104596406 -0.19707087 0.16573016 -0.14926027 -0.027324125 0.052371368 0.09173323 0.32528102 -0.0056953053 0.23440701 0.119776025 0.045896184 0.03939435 0.3335259 0.22767222 0.04619221 -0.18947206 0.006085327 -0.051957127
alt -0.03479434 0.030604748 -0.057193495 0.21586974 -0.060806707 -0.18934073 0.105488874 0.5991042 -0.083919294 -0.26523888 -0.12950623 -0.3118973 0.04003317 0.40840468 0.049687255 -0.20456885 -0.07653505 -0.13382478 -0.05305306 -0.5223567 0.19861726 0.14510983 -0.024055434 -0.06065413 0.0943115 -0.04385189 -0.06732985 0.060216486 -0.32044357 0.13985352 0.06530651 -0.026454175 0.10655267 -0.31810078 -0.3287377 0.32444677 0.11923943 -0.1863673 -0.0010550926 -0.4842609 -0.14183837 -0.3190531 -0.182819 -0.09005223 0.25514343 -0.012117968 -0.3352326 -0.098839745 0.27295935 0.17816734 0.042602926 -0.14364165 -0.03101164 -0.11008233 0.006591039 0.10673061 0.08289925 -0.31214252 -0.21573183 0.14871785 0.057502385 -0.026282076 0.029187586 -0.07646293 -0.3825952 0.49357852 0.14014974 0.41604447 -0.40068284 0.3503966 -0.078676574 0.053462725 0.23583841 -0.076548725 0.17011599 0.10548329 -0.0030945048 0.10140425 -0.13172707 0.11624934 -0.1680525 -0.18913773 -0.2737069 0.2041803 -0.16288789 -0.048405588 0.07158538 0.106935695 0.4361568 -0.0025908554 0.30990428 0.15053001 0.039693423 0.0413544 0.43190998 0.30888757 0.03391528 -0.22524214 -0.012957065 -0.041726165
dos -0.03251761 0.041581064 -0.045925938 0.1279124 -0.0411232 -0.12795152 0.09964934 0.3941005 -0.07077288 -0.16079266 -0.09628469 -0.20566496 0.007631347 0.23265925 0.018759852 -0.14744575 -0.03372232 -0.113238394 -0.051060963 -0.35818556 0.13173112 0.09437423 -0.011837847 -0.06524767 0.06714367 -0.028847467 -0.063695945 0.012925642 -0.2135797 0.08360686 0.05462795 -0.0011031757 0.07956585 -0.20879777 -0.19349481 0.21428648 0.096100636 -0.11313058 -0.017453164 -0.3186444 -0.086706914 -0.22244744 -0.13759968 -0.054762375 0.16442405 -0.026656248 -0.19814536 -0.054616064 0.18768424 0.13713059 0.028930359 -0.117021166 -0.0008125573 -0.05608272 -0.025803514 0.08013277 0.05374378 -0.19229713 -0.16240789 0.10563059 0.041756388 -0.005236829 0.025536843 -0.06657059 -0.25290453 0.3053837 0.114569105 0.26886952 -0.28494927 0.22485594 -0.060170826 0.050902996 0.16679156 -0.03949448 0.098234855 0.07088593 0.00087333843 0.05036796 -0.103973046 0.09427342 -0.10412076 -0.10923669 -0.17435542 0.13586138 -0.123340964 -0.04418565 0.058470976 0.077389166 0.27936342 0.012462461 0.21776819 0.11305949 0.03707459 0.017666914 0.29505435 0.19922923 0.053234026 -0.15996052 0.010038667 -0.04618721
amic -0.032702345 0.032271676 -0.038630236 0.11591558 -0.021038625 -0.12968446 0.087616526 0.35915613 -0.069322735 -0.15441157 -0.085541375 -0.19299652 0.006422968 0.21496107 0.010855765 -0.123874485 -0.038463704 -0.09651884 -0.042095095 -0.3184067 0.110337384 0.085450895 -0.00494522 -0.054921884 0.050028067 -0.026946748 -0.045811508 0.02283426 -0.18086253 0.06446351 0.05399825 -0.0050093215 0.06892751 -0.1761948 -0.18502901 0.17557155 0.08755285 -0.09832839 -0.006136145 -0.28969735 -0.062438235 -0.1866608 -0.11426853 -0.04080994 0.15089783 -0.014102936 -0.1841074 -0.066427045 0.16082968 0.11787617 0.021903474 -0.09171672 0.0043803887 -0.056835394 -0.0213204 0.0629725 0.048576683 -0.16882147 -0.1443689 0.085348465 0.034375995 0.004765907 0.009270418 -0.06916781 -0.22529788 0.2650559 0.10696981 0.23627649 -0.25136217 0.18642154 -0.06420605 0.04181958 0.15125014 -0.028443897 0.09264967 0.06637961 0.0073146434 0.045736615 -0.10069361 0.0765915 -0.09376356 -0.09366767 -0.1530575 0.11957288 -0.106266536 -0.033141375 0.057220988 0.06174791 0.24030988 -0.0025265892 0.17967185 0.10273554 0.036050994 0.025511278 0.2793699 0.17997505 0.04375003 -0.14327338 0.0015672802 -0.024364095
mai -0.03213328 0.03893647 -0.04057872 0.0907692 -0.021573095 -0.10556672 0.067886226 0.3003312 -0.06770104 -0.1330901 -0.056448314 -0.16221622 0.0076907095 0.17238313 0.012811194 -0.11406092 -0.022583773 -0.083742015 -0.02561592 -0.27564535 0.086098015 0.06186305 -0.0059231217 -0.0563756 0.038569663 -0.029824173 -0.035752844 0.005419588 -0.16563357 0.056017537 0.042504724 -0.019231545 0.06367603 -0.15917571 -0.15028366 0.14261165 0.059862383 -0.088078424 -0.004159752 -0.2409881 -0.048960574 -0.17028585 -0.097477354 -0.04459081 0.123243816 -0.010590132 -0.15002787 -0.054248244 0.14160956 0.10501387 0.021481035 -0.08366422 -0.0071495636 -0.029283695 -0.012103677 0.061705243 0.042838376 -0.14784889 -0.11686946 0.07254459 0.033860125 0.0018521257 0.00327936 -0.054308686 -0.19438392 0.22659412 0.097184524 0.19224368 -0.21630357 0.16832644 -0.05193493 0.025760956 0.12961447 -0.019177726 0.07482943 0.052005574 -0.0048535303 0.043729633 -0.08728086 0.07301631 -0.08188997 -0.07167044 -0.12848224 0.11521966 -0.09925724 -0.03327869 0.032644786 0.058293857 0.22081974 0.0058068805 0.15565787 0.07985265 0.013019178 0.025303865 0.22128125 0.15596063 0.035861522 -0.1254991 -0.005903542 -0.022610249
sempre -0.054371603 0.03724921 -0.06452545 0.18176544 -0.03859353 -0.18152343 0.116434164 0.5244754 -0.108417034 -0.22618999 -0.11466439 -0.28385207 0.020762676 0.312172 0.03106845 -0.18039088 -0.039473046 -0.12978597 -0.062226575 -0.44528362 0.15875183 0.11014436 -0.025376922 -0.07904361 0.08713659 -0.035679393 -0.078118905 0.024565518 -0.2858501 0.10338036 0.059524618 -0.008750665 0.08928202 -0.27995935 -0.27270478 0.26953256 0.104924865 -0.16648053 -0.02029412 -0.42520225 -0.10640731 -0.2766065 -0.15907055 -0.080119565 0.20695655 -0.024199855 -0.26019582 -0.08686547 0.23343554 0.17279427 0.050545167 -0.15386981 0.002343218 -0.08073848 -0.031140681 0.093638994 0.0742185 -0.24367274 -0.20843059 0.13433225 0.0504405 -0.011760746 0.013848582 -0.09754204 -0.3385468 0.40930387 0.1385673 0.3444251 -0.3504653 0.28119102 -0.08614637 0.049795374 0.21115026 -0.054209463 0.14296661 0.08871251 0.0017625468 0.07507433 -0.13582282 0.10660468 -0.14661808 -0.12707992 -0.21596555 0.17764635 -0.16798154 -0.04266526 0.06927452 0.0920596 0.37186363 -0.0025835151 0.2777486 0.13584939 0.040806424 0.041334122 0.39095238 0.2705021 0.060880627 -0.21827853 0.0058446396 -0.05334322
est -0.06643119 0.054920387 -0.07226288 0.25257984 -0.07345908 -0.22670701 0.13548839 0.7253571 -0.10247974 -0.32538077 -0.16000625 -0.38809073 0.024696106 0.46436957 0.025195735 -0.25870657 -0.07590202 -0.17007707 -0.078395635 -0.6114495 0.21457537 0.15107092 -0.026992612 -0.084818564 0.12418036 -0.046119962 -0.10157786 0.0741511 -0.39856178 0.1342981 0.06292895 -0.024120865 0.1308216 -0.3812784 -0.38709226 0.37815917 0.16436334 -0.23120134 -0.016177855 -0.58365595 -0.18379754 -0.37768066 -0.23470132 -0.1322349 0.28901026 -0.051452212 -0.39900717 -0.11721429 0.35503015 0.24361129 0.040419027 -0.18059064 -0.019006355 -0.113586254 -0.014201349 0.11992081 0.09054147 -0.3683023 -0.28451547 0.18223314 0.08127111 -0.023785267 0.03799932 -0.102907345 -0.45741048 0.56635964 0.20284072 0.4891543 -0.47215503 0.41804555 -0.07654162 0.07362999 0.29603845 -0.07415577 0.19997676 0.14264593 0.0018364055 0.09506291 -0.1539947 0.15981837 -0.20157051 -0.19269621 -0.31544152 0.22222485 -0.23167925 -0.08779567 0.100975536 0.11683801 0.504124 0.016432596 0.3780432 0.20451686 0.08165729 0.03333081 0.55098045 0.37599835 0.06342226 -0.28454491 -0.014056246 -0.06342912
començar -0.05607089 0.050600372 -0.06692301 0.18255022 -0.047887497 -0.17459406 0.10679069 0.55456555 -0.0974637 -0.25049677 -0.11907475 -0.29034734 0.032009132 0.33886886 0.028179156 -0.1964232 -0.04663178 -0.13941692 -0.050933275 -0.48229358 0.16572663 0.11998266 -0.021391151 -0.079646535 0.08790585 -0.040514432 -0.08330787 0.041875634 -0.28817728 0.10797523 0.058611967 -0.010645805 0.09025601 -0.3029639 -0.28691798 0.29841527 0.11199715 -0.17813031 -0.011336891 -0.4515115 -0.11852469 -0.28072542 -0.18468106 -0.09775636 0.23590934 -0.026719017 -0.2998622 -0.093245186 0.24938713 0.1730753 0.032084495 -0.14425294 -0.009929831 -0.07285019 -0.0050742826 0.097829066 0.06279609 -0.26508862 -0.22078559 0.14595428 0.054945998 -0.016305871 0.032318782 -0.09203309 -0.35851052 0.4325817 0.15687045 0.3742078 -0.3681351 0.31474382 -0.07688548 0.07007255 0.21820842 -0.061788686 0.13680226 0.10925138 0.004236725 0.07516132 -0.12411569 0.1130776 -0.15580803 -0.1484065 -0.24488087 0.19205572 -0.1722021 -0.059383776 0.07442077 0.10083105 0.3911157 0.01429412 0.27271336 0.14594086 0.05825254 0.03543521 0.41694948 0.27557555 0.056212995 -0.21785393 0.011383817 -0.048881322
arribar -0.03692133 0.033699736 -0.055542182 0.14580894 -0.03173105 -0.14805649 0.10509082 0.43008664 -0.092324205 -0.17714247 -0.08949391 -0.23435755 0.011931284 0.26017505 0.017888818 -0.14323755 -0.032816384 -0.1164297 -0.053012397 -0.38713115 0.12447189 0.102230474 -0.023192434 -0.07184822 0.05977748 -0.021458153 -0.052323546 0.024544619 -0.2322601 0.0815656 0.06751869 -0.017039008 0.08553958 -0.23588032 -0.21354221 0.23474333 0.103954725 -0.13461612 -0.012041286 -0.36519074 -0.07735124 -0.24485953 -0.14858425 -0.06012311 0.17921378 -0.013751563 -0.23411407 -0.057773232 0.20526256 0.13179901 0.041256614 -0.12893745 0.00035421824 -0.05248044 -0.029556187 0.091665864 0.0664954 -0.1992555 -0.18680184 0.10099966 0.02888391 -0.001886593 0.01396311 -0.06922395 -0.28110492 0.34712952 0.1269095 0.28801507 -0.29861295 0.24560298 -0.0757252 0.04161813 0.18295479 -0.034238752 0.116133854 0.07192075 0.0046981964 0.06817336 -0.107607104 0.099362575 -0.12677164 -0.115139104 -0.18779512 0.1467057 -0.15111709 -0.039512217 0.05988868 0.08751698 0.3155619 0.013862835 0.22214438 0.13510466 0.03427626 0.031068327 0.3300549 0.21896665 0.045776702 -0.18658535 0.0138492705 -0.034350198
tan -0.04454593 0.039950892 -0.034946296 0.12481676 -0.026537154 -0.13213779 0.09276859 0.3917669 -0.08656822 -0.1595499 -0.088219695 -0.21588959 0.015605019 0.22649238 0.025236266 -0.14370802 -0.031369984 -0.105022006 -0.048992325 -0.3499273 0.1267629 0.08648975 -0.021475378 -0.06267011 0.050850134 -0.031095946 -0.049156684 0.024080463 -0.21924642 0.07484631 0.057793364 -0.01905982 0.06900329 -0.20954454 -0.21029288 0.20447995 0.094953835 -0.11930644 -0.008316108 -0.31961587 -0.077328585 -0.21839876 -0.12561305 -0.0529733 0.16597676 -0.020339526 -0.19446793 -0.058051616 0.17288244 0.13471968 0.044318136 -0.12058687 0.002717883 -0.059678216 -0.018795455 0.08051235 0.05007501 -0.19274354 -0.16871476 0.086151876 0.028551897 0.004522582 0.019764466 -0.07733446 -0.24862665 0.31019643 0.1185376 0.26839638 -0.27967232 0.21408162 -0.058394067 0.046863813 0.17057112 -0.04282347 0.111019656 0.08380085 -0.005329519 0.062828176 -0.10015363 0.08201618 -0.10963273 -0.10688263 -0.17387 0.14374317 -0.13095814 -0.022642277 0.043332763 0.06701559 0.28455827 0.012158513 0.21136501 0.12021589 0.03939278 0.019768553 0.3106071 0.19279085 0.038954314 -0.16825794 0.012076523 -0.041636597
pare -0.029996075 0.027110208 -0.03612955 0.10013725 -0.031380124 -0.110304534 0.07213274 0.31946057 -0.062380537 -0.13255893 -0.07621798 -0.15613501 0.011301193 0.18488805 0.012525939 -0.103275575 -0.025664805 -0.08795148 -0.043720763 -0.28475857 0.09359748 0.076007724 -0.017871015 -0.048471395 0.050433718 -0.018302083 -0.050658707 0.026211888 -0.17497137 0.06547492 0.02933945 -0.0041945786 0.04925913 -0.1705089 -0.16474645 0.16004702 0.06932008 -0.0977184 -0.0023510354 -0.26044574 -0.0682349 -0.17712264 -0.094399445 -0.044011597 0.14084749 -0.01029763 -0.1696647 -0.041431505 0.14039217 0.10666578 0.02231405 -0.08763433 -0.00050633773 -0.04538305 -0.018984217 0.059061464 0.044863332 -0.14338554 -0.1362654 0.08314749 0.02465011 -0.013773352 0.0075148586 -0.052269436 -0.19823429 0.25384378 0.09841305 0.21721819 -0.22130454 0.17410082 -0.037984993 0.04198125 0.13988115 -0.022144279 0.08523628 0.0621448 -0.005676164 0.05142585 -0.07302601 0.06275975 -0.08641027 -0.071715556 -0.13036014 0.11733602 -0.093912706 -0.03014629 0.05045574 0.06517605 0.22332989 0.0028408838 0.17645225 0.096057095 0.019932287 0.017497022 0.23923546 0.16539161 0.034595557 -0.13903807 0.005573843 -0.020373376
esperar -0.032666445 0.035971273 -0.03314434 0.11963907 -0.016120233 -0.10783688 0.07257807 0.33515704 -0.0713595 -0.13174565 -0.07681255 -0.1632246 0.0013491646 0.19513063 0.023167046 -0.11978023 -0.027522765 -0.08075224 -0.027244987 -0.29075596 0.09336886 0.08186704 -0.019760286 -0.050073083 0.056074083 -0.032472905 -0.049477287 0.0075400234 -0.1790137 0.06808126 0.034128517 -0.012830409 0.06928498 -0.17825343 -0.16533466 0.17342722 0.07049515 -0.10758579 0.00025777178 -0.26988348 -0.055176396 -0.18142474 -0.10369918 -0.043406002 0.13716458 -0.013096186 -0.1760266 -0.043968875 0.15121813 0.10221145 0.03424583 -0.08291068 -0.0100403605 -0.04302174 -0.010924881 0.061322913 0.047153242 -0.14688487 -0.12779823 0.07519885 0.026554538 0.0049675982 0.013416087 -0.06738787 -0.21667631 0.2469087 0.09463278 0.21848865 -0.232145 0.17744324 -0.040819164 0.04012846 0.14140105 -0.027068242 0.09575782 0.05774385 0.009405963 0.045224313 -0.09505972 0.06254852 -0.09166683 -0.07481806 -0.13706967 0.105231225 -0.10511817 -0.032002896 0.0393094 0.0697045 0.24051881 0.0038210098 0.17606245 0.09508554 0.017201498 0.025433462 0.25930798 0.1714994 0.03781479 -0.13920407 0.0062842467 -0.03937335
però -0.06984158 0.07271087 -0.09767917 0.2945531 -0.07622544 -0.26441514 0.18224382 0.88429815 -0.13286391 -0.3852086 -0.19781122 -0.46384972 0.024152128 0.54810435 0.046481125 -0.3040596 -0.08531475 -0.20547692 -0.086578324 -0.75705093 0.27304327 0.20312901 -0.019706894 -0.114084356 0.14437701 -0.068590015 -0.103951916 0.075824186 -0.47402352 0.18175839 0.1046472 -0.04581124 0.16567923 -0.4707451 -0.47243786 0.46363896 0.19899791 -0.27641433 -0.0022490062 -0.7117221 -0.2076397 -0.4586387 -0.29222932 -0.14115135 0.36838686 -0.034467395 -0.46279433 -0.1520053 0.4175718 0.27384594 0.054633755 -0.21583803 -0.020880774 -0.12544776 -0.025842687 0.14857021 0.12291462 -0.42783073 -0.33116755 0.22680284 0.085913695 -0.018880991 0.033033647 -0.13162412 -0.5666565 0.69361925 0.22784492 0.5875948 -0.5840208 0.48916835 -0.123229586 0.089221925 0.35244524 -0.08520246 0.22151013 0.1543386 0.0016491248 0.1159209 -0.2130245 0.19732314 -0.23856704 -0.2450309 -0.37411532 0.28712457 -0.26460993 -0.078946486 0.113911554 0.14980559 0.6103372 0.005710908 0.45041257 0.22681814 0.079969995 0.039540894 0.67142314 0.44723752 0.082126185 -0.35702762 0.006826962 -0.08548952
gran -0.04325967 0.038375404 -0.04001088 0.11165768 -0.021170845 -0.10832121 0.08373622 0.3475742 -0.05888827 -0.1537475 -0.07021959 -0.16857056 0.00825242 0.2042808 0.011356841 -0.122763045 -0.016623592 -0.088932715 -0.033896312 -0.30438262 0.10910846 0.06916904 -0.016099604 -0.050982706 0.06335798 -0.032245997 -0.041865584 0.016709965 -0.1908981 0.059497125 0.03434959 -0.003678266 0.05948402 -0.18439022 -0.17259629 0.17996675 0.08487885 -0.115278274 -0.008348378 -0.27715376 -0.07019308 -0.18333545 -0.101323314 -0.052624863 0.15078151 -0.017027723 -0.17620444 -0.04589508 0.16449623 0.11083384 0.028837806 -0.087959774 -0.0077492925 -0.040367097 -0.016154215 0.058839686 0.054830596 -0.16394508 -0.1368591 0.07716341 0.033152584 0.0019549297 0.019643808 -0.06640776 -0.22842547 0.26938224 0.099649385 0.22461644 -0.24031426 0.18618701 -0.060558863 0.03861123 0.13880736 -0.030335944 0.093841396 0.06660399 -0.0029740855 0.047162898 -0.09587998 0.07083203 -0.09032075 -0.07725472 -0.15044272 0.12031626 -0.100557305 -0.0192365 0.05149158 0.05596499 0.24447788 0.012707527 0.18247274 0.09972802 0.026244279 0.026527146 0.26381683 0.18206675 0.03367622 -0.14855069 0.01085253 -0.038851753
sortir -0.0504642 0.045458283 -0.05358988 0.1564789 -0.037217334 -0.16938955 0.110630356 0.47850704 -0.096076615 -0.20046063 -0.10430701 -0.24881265 0.018828833 0.2795552 0.031155912 -0.1733289 -0.03991455 -0.11799164 -0.05366277 -0.41887286 0.14974494 0.1070962 -0.007647977 -0.064744346 0.074888825 -0.03893859 -0.05956485 0.018984476 -0.25134805 0.092923045 0.067401424 -0.011006537 0.08736526 -0.25383765 -0.25225165 0.25704688 0.1120885 -0.14485481 -0.016965203 -0.39960703 -0.08813926 -0.25608075 -0.159721 -0.08179331 0.19355135 -0.023798265 -0.2585374 -0.075760074 0.2257881 0.14493959 0.040097162 -0.1403644 -0.010172155 -0.0671215 -0.03177417 0.08840294 0.06144178 -0.23595649 -0.19433373 0.12185968 0.053670052 0.0011625525 0.01394168 -0.09193797 -0.305707 0.3783761 0.14155364 0.31479442 -0.33617383 0.26055786 -0.08111128 0.059186194 0.19850245 -0.03548249 0.12242645 0.099180825 0.000783677 0.07541478 -0.1300203 0.09750867 -0.124453336 -0.13321471 -0.2142295 0.17093042 -0.1653899 -0.036813647 0.06684867 0.081788406 0.34448224 0.006462298 0.26184514 0.14003395 0.03545687 0.029234992 0.3747186 0.23756564 0.059861626 -0.1999916 -0.0008318658 -0.04905641
avui -0.029762506 0.018597428 -0.030901734 0.0992145 -0.013239326 -0.109826185 0.06318913 0.31411883 -0.051352028 -0.12805451 -0.07041331 -0.1591201 0.00200768 0.18046582 0.009096565 -0.10634946 -0.029570052 -0.08996451 -0.041692425 -0.26750955 0.09697143 0.07601525 -0.00662827 -0.043748464 0.05273234 -0.0168536 -0.046998344 0.01866652 -0.16767114 0.063817866 0.03401353 -0.009754681 0.060792297 -0.16743205 -0.16710366 0.1647147 0.068699054 -0.09584429 -0.014177151 -0.24313928 -0.059750345 -0.1657859 -0.100527674 -0.04440488 0.13453494 -0.025611596 -0.15701355 -0.054874986 0.15286872 0.104507275 0.020392053 -0.08943489 -0.009351612 -0.03265416 -0.005867036 0.06252779 0.05384992 -0.1503226 -0.12479359 0.071558446 0.019217893 -0.008646265 0.011934088 -0.0596498 -0.20830284 0.23932801 0.08695291 0.19570455 -0.2068492 0.17236924 -0.057853978 0.032940615 0.123050116 -0.019938767 0.08103273 0.06606524 0.008331856 0.038899783 -0.09168038 0.0607897 -0.075840026 -0.079394184 -0.1306186 0.10842337 -0.10824044 -0.022925625 0.032948393 0.06808349 0.21078198 0.011114829 0.16162923 0.08670223 0.023509236 0.021876462 0.2406015 0.15894422 0.033328235 -0.1196587 -0.0025530655 -0.038093947
sol -0.052781954 0.050249193 -0.057912108 0.16161841 -0.032589078 -0.16380706 0.11061182 0.4987834 -0.080585696 -0.2168403 -0.106088854 -0.25048316 0.031854536 0.29887283 0.026556218 -0.17647438 -0.04527342 -0.11863299 -0.051433984 -0.43385145 0.15657458 0.10425235 -0.02028385 -0.07736984 0.08952294 -0.030795362 -0.06567777 0.045071423 -0.2601802 0.08561713 0.05016738 -0.023918847 0.0771046 -0.2536969 -0.2524439 0.25726086 0.10812772 -0.15826158 0.0027205443 -0.4022809 -0.10537905 -0.2691216 -0.15866329 -0.08387136 0.20742159 -0.030644182 -0.2474317 -0.08555974 0.21843499 0.15477242 0.029449582 -0.1283864 -0.01483169 -0.07296312 -0.007673174 0.09600868 0.06582442 -0.22826585 -0.19241312 0.12919538 0.05260512 -0.021888236 0.027413363 -0.08740983 -0.32183793 0.39335865 0.12540136 0.3216458 -0.33149353 0.28099635 -0.06477442 0.047633003 0.21186163 -0.043072257 0.12154433 0.08536954 0.0026511694 0.061647274 -0.1285574 0.116745956 -0.1416231 -0.14427656 -0.21313219 0.1535985 -0.14907555 -0.037612583 0.062901236 0.08638292 0.35932606 -0.01096681 0.24941555 0.12455713 0.053925615 0.031126942 0.36271262 0.23735477 0.05855296 -0.20061728 -0.0036542814 -0.0395496
pluja -0.03524012 0.037511516 -0.031897906 0.10883573 -0.03364877 -0.10392137 0.05999037 0.34303597 -0.049574435 -0.14269991 -0.08330705 -0.17954859 0.0074683977 0.21969283 0.02726417 -0.1213874 -0.041764624 -0.07132131 -0.03538686 -0.28586608 0.100627884 0.071182474 -0.014067523 -0.034924865 0.049826838 -0.03062668 -0.04461865 0.023886513 -0.17499438 0.06606209 0.033935722 -0.02214698 0.051388416 -0.1783008 -0.18097727 0.1666465 0.081199326 -0.095321886 0.0005686878 -0.27411735 -0.07872059 -0.16921647 -0.117527805 -0.0639092 0.12971404 -0.0126527175 -0.19255583 -0.052421965 0.16757526 0.11277572 0.009045616 -0.07815639 -9.142049e-05 -0.058595944 0.00095158536 0.069213204 0.051107354 -0.16986611 -0.12316356 0.08138314 0.025482954 -0.0051069492 0.009913558 -0.056096543 -0.2228438 0.2579239 0.089993045 0.22748312 -0.22214891 0.2000879 -0.037720937 0.025303507 0.12917008 -0.040709615 0.084728435 0.056938075 0.015097963 0.050441813 -0.08729816 0.08111041 -0.09790487 -0.10269289 -0.14967455 0.11529976 -0.11375918 -0.03705872 0.041085877 0.06239518 0.24275602 -0.004314941 0.16200222 0.090752155 0.033239763 0.02064242 0.25948656 0.17137592 0.031500835 -0.13037774 0.00043740126 -0.025106532
general -0.04520403 0.056795105 -0.06796915 0.199334 -0.049856927 -0.19062786 0.13217829 0.5931135 -0.08629687 -0.25795645 -0.11631394 -0.30219337 0.024818663 0.37123454 0.034937877 -0.19919673 -0.056476668 -0.13231029 -0.06137925 -0.50526106 0.17545837 0.12490398 -0.02462121 -0.07220169 0.099629015 -0.046236698 -0.067117095 0.037137203 -0.30569607 0.12146566 0.07262695 -0.021161994 0.109283894 -0.30836275 -0.32132426 0.29819116 0.1285724 -0.17811431 -0.0060216542 -0.47113028 -0.1267521 -0.3111111 -0.18437001 -0.10203522 0.23192443 -0.025911536 -0.3167429 -0.09582542 0.2675835 0.20024928 0.024699168 -0.14500901 -0.017678438 -0.07417562 -0.004306866 0.10624097 0.07233748 -0.28937602 -0.23217204 0.14509754 0.06469515 -0.02865818 0.03144917 -0.08748507 -0.3666739 0.4565992 0.16433623 0.37906256 -0.38863415 0.3404822 -0.06706632 0.058670662 0.23559837 -0.07381951 0.15177001 0.113514006 -0.0020372027 0.08651105 -0.14325318 0.13738793 -0.15557954 -0.15871556 -0.25831407 0.18103875 -0.19093607 -0.054285936 0.060700875 0.1075505 0.41426098 0.0054214518 0.30633724 0.1531682 0.053422507 0.033802785 0.44770616 0.29987058 0.049168035 -0.23720203 -0.007865965 -0.047805645
demanar -0.032879096 0.04146537 -0.03526525 0.115579 -0.018904312 -0.1331243 0.08593716 0.37544176 -0.063092716 -0.16856219 -0.08020954 -0.20245102 0.014424496 0.23286763 0.0070525785 -0.12079636 -0.038830727 -0.090627566 -0.051695447 -0.3355828 0.105673164 0.08670488 -0.0140033625 -0.057362825 0.048993394 -0.01797606 -0.047198724 0.017296046 -0.20599535 0.07878592 0.050177053 -0.020802742 0.072423995 -0.20359425 -0.19033922 0.20160282 0.08196011 -0.114480376 -0.0018344955 -0.31073412 -0.07130691 -0.19730347 -0.13077182 -0.059867688 0.16257857 -0.01781654 -0.1836381 -0.06094935 0.18174629 0.112753525 0.036578745 -0.11361511 -0.0021921739 -0.042095255 -0.019512972 0.07905166 0.043891717 -0.17768489 -0.14826083 0.087261654 0.04143861 -0.013944248 0.014716845 -0.054192714 -0.23623526 0.29144403 0.115333356 0.23751211 -0.26091233 0.20955361 -0.059498157 0.046978217 0.16576807 -0.037877876 0.096671015 0.07998474 -0.0022394836 0.0425595 -0.09810138 0.07371502 -0.102461256 -0.09283997 -0.16623135 0.12915108 -0.124943815 -0.035445735 0.051575843 0.07405906 0.26334265 0.013100736 0.19777113 0.11560898 0.034728654 0.030240083 0.29713246 0.18588047 0.039290365 -0.15715727 0.007431391 -0.041763935
estudiar -0.044469893 0.044766206 -0.04620204 0.13598973 -0.031133732 -0.13129415 0.09027721 0.38954908 -0.065839924 -0.16117823 -0.097499214 -0.21615133 0.017137535 0.23884735 0.014575769 -0.12943427 -0.039668486 -0.10717897 -0.036488075 -0.35082626 0.11669984 0.096152216 -0.0050708954 -0.06562102 0.053994343 -0.029854596 -0.043646567 0.01836893 -0.20944376 0.073798425 0.055317782 -0.0128057385 0.07926879 -0.19935453 -0.21227926 0.21141501 0.08068199 -0.13206553 -0.003749287 -0.32086504 -0.07341452 -0.22434105 -0.119410835 -0.06959517 0.15691115 -0.019623958 -0.20929433 -0.05979247 0.17907545 0.12161112 0.039488655 -0.113632694 0.0027383077 -0.056429528 -0.018737275 0.08058457 0.063890375 -0.18897036 -0.1734021 0.09489989 0.04354092 8.158283e-05 0.009146452 -0.06535717 -0.24950227 0.29945493 0.112980545 0.2636178 -0.28032804 0.2142313 -0.05497985 0.03863859 0.16208842 -0.03404955 0.11525372 0.0821706 -0.0018426758 0.052754164 -0.09533545 0.087684594 -0.11401788 -0.10975772 -0.17375676 0.14428663 -0.12541905 -0.04124513 0.058228906 0.07138824 0.28141418 0.00019903739 0.21277516 0.11328723 0.036222827 0.021851199 0.30083364 0.2017042 0.038629953 -0.16373925 0.012932059 -0.035488196
toca -0.057419572 0.06265777 -0.08308949 0.259304 -0.05496532 -0.23376893 0.15028322 0.7633068 -0.1297126 -0.33273223 -0.17871717 -0.40044314 0.027594272 0.48210663 0.037142746 -0.27004728 -0.0739467 -0.17236596 -0.06900922 -0.64306164 0.23938937 0.15805162 -0.02057664 -0.10676933 0.13018568 -0.05334824 -0.086095124 0.056753546 -0.40614173 0.15453784 0.079420626 -0.02559083 0.12634337 -0.39063546 -0.39784688 0.3918591 0.17096518 -0.24549182 -0.01323851 -0.6020937 -0.16857092 -0.3927413 -0.25884515 -0.13167426 0.3066703 -0.033418313 -0.39570585 -0.11684565 0.35903555 0.25106117 0.05213746 -0.2086666 -0.0035181951 -0.12077326 -0.017302288 0.13701014 0.098023035 -0.37178385 -0.29075205 0.18146434 0.065270655 -0.020291476 0.039721902 -0.13449751 -0.50258386 0.5850019 0.19653961 0.5093392 -0.51999897 0.43333936 -0.101019986 0.07678318 0.3043796 -0.09020483 0.18500744 0.13635302 0.0028421748 0.11975362 -0.18655148 0.16599737 -0.20201659 -0.2117456 -0.33282655 0.2577738 -0.23678073 -0.077075645 0.097190656 0.12191895 0.5348491 0.009655213 0.38899484 0.20305844 0.056792807 0.054797962 0.5703097 0.38499165 0.067494355 -0.3109108 0.0018821988 -0.07258908
mes -0.08831209 0.055897623 -0.089507654 0.23436469 -0.053407755 -0.23853047 0.17075492 0.69895935 -0.11252211 -0.27592573 -0.14460267 -0.35407814 0.03317074 0.41380748 0.038090456 -0.25281903 -0.043240167 -0.1841665 -0.054209616 -0.61221397 0.22988252 0.16664676 -0.029052164 -0.10464346 0.096352115 -0.028780704 -0.10899898 0.037873693 -0.35350218 0.14496791 0.06710989 -0.019880656 0.104800776 -0.34596467 -0.3431995 0.3585125 0.15337989 -0.22060916 -0.0018981694 -0.5581247 -0.13584247 -0.37668428 -0.24575509 -0.091833115 0.28631493 -0.01937788 -0.35496604 -0.10360435 0.33205995 0.23879407 0.05816277 -0.1918812 -0.009758789 -0.09659091 -0.047608152 0.14498828 0.104662456 -0.31889048 -0.29360056 0.16711728 0.047366235 -0.010480723 0.01747552 -0.13925369 -0.4663598 0.5443712 0.18139076 0.4752808 -0.49104914 0.3804518 -0.12190991 0.09654596 0.29923195 -0.06526873 0.17233615 0.11822248 -0.01456672 0.115621276 -0.20871432 0.16396274 -0.18274081 -0.15073569 -0.27446315 0.25714153 -0.20800175 -0.05432542 0.061831206 0.12608649 0.49220723 -4.5434645e-06 0.3871383 0.18222061 0.041550033 0.053965434 0.53417367 0.3682016 0.094542615 -0.27895334 0.014631112 -0.087771535
neu -0.04441965 0.04622804 -0.07237819 0.266836 -0.05165072 -0.22608513 0.17006662 0.7572319 -0.13042457 -0.34579536 -0.18989383 -0.38407025 0.039394736 0.49603525 0.027564883 -0.27189904 -0.07480618 -0.17033923 -0.06301743 -0.6596756 0.2620802 0.1485079 -0.047264345 -0.08890958 0.16217509 -0.08670727 -0.0744556 0.060152978 -0.41340315 0.16186282 0.050476875 -0.019744908 0.122098766 -0.40942708 -0.39669138 0.4137449 0.17449275 -0.24323404 -0.0057865432 -0.6339141 -0.17955896 -0.41277108 -0.25293744 -0.118417926 0.33482292 -0.040129498 -0.4266515 -0.10420693 0.37370107 0.25771865 0.05863611 -0.18325557 -0.009540289 -0.10754659 -0.029062787 0.12791726 0.094136134 -0.37709555 -0.31310156 0.20816796 0.05250142 -0.0070795533 0.050742872 -0.12814176 -0.52471626 0.5846248 0.22206967 0.536353 -0.5203686 0.43887198 -0.10123875 0.08722435 0.3179832 -0.10166022 0.19310085 0.13393752 0.029013481 0.09775657 -0.18775654 0.17975917 -0.19683738 -0.21439461 -0.33769816 0.24214025 -0.22681636 -0.08793898 0.11413967 0.13002972 0.5483401 0.018512443 0.3648879 0.22390817 0.04816779 0.054772627 0.55835307 0.40358636 0.07690406 -0.30799368 0.010863997 -0.06944285
treballar -0.042949736 0.033780884 -0.0304657 0.09632388 -0.01835444 -0.104416765 0.07516184 0.30700463 -0.053503793 -0.12401658 -0.07089997 -0.17183264 0.010425652 0.18690619 0.005884477 -0.11677612 -0.022645274 -0.08032946 -0.038417775 -0.27780706 0.10325639 0.077142216 -0.017941557 -0.05461678 0.048515286 -0.02471478 -0.041673638 0.011704286 -0.17433906 0.05309328 0.043581333 -0.005292077 0.046745606 -0.17168018 -0.1645123 0.16161966 0.060094327 -0.095133565 0.0019812314 -0.2603609 -0.06505665 -0.15736225 -0.09295888 -0.04688122 0.12376321 -0.026183687 -0.16364342 -0.047206316 0.15073963 0.09667755 0.035593428 -0.095058516 0.00179225 -0.035423055 -0.019100584 0.06723362 0.037134968 -0.14151034 -0.13731392 0.07628967 0.026123801 0.002001281 0.017695097 -0.06319682 -0.20454112 0.23163609 0.078065164 0.20511253 -0.20447938 0.16411273 -0.037949793 0.038026217 0.122754425 -0.028786898 0.085011795 0.06415882 0.0032215882 0.05271813 -0.085275255 0.05763235 -0.09352561 -0.07340156 -0.13574894 0.09864542 -0.10630808 -0.026535299 0.049819853 0.055362366 0.22304402 0.0024678844 0.17305373 0.0927836 0.01800469 0.010103251 0.23270941 0.159821 0.039135866 -0.11915518 0.008031574 -0.019631414
costa -0.0414036 0.04493598 -0.05706895 0.19111438 -0.049224216 -0.18484326 0.106421754 0.5583776 -0.10027051 -0.23283878 -0.13714652 -0.30704778 0.025978891 0.36452603 0.034510944 -0.20591609 -0.046448678 -0.13109694 -0.06314645 -0.49181607 0.17436714 0.112355605 -0.017856974 -0.06777851 0.090252966 -0.043391466 -0.06700789 0.052364923 -0.31161717 0.11272318 0.05737547 -0.013859592 0.104024865 -0.31104136 -0.2973415 0.28224435 0.13335629 -0.18269172 -0.014430732 -0.4442511 -0.13516906 -0.30937478 -0.19102547 -0.10575696 0.23725142 -0.040498964 -0.31132388 -0.10073394 0.2773794 0.18205334 0.029540585 -0.14289343 -0.011474831 -0.070918635 -0.014076307 0.092665695 0.06584324 -0.28818753 -0.2109188 0.15478262 0.057252843 -0.024931878 0.020173563 -0.08597769 -0.36706117 0.45451346 0.16177917 0.37275025 -0.38398445 0.32832077 -0.07195394 0.056671523 0.23411009 -0.06946998 0.13706248 0.113574095 0.01081091 0.08208338 -0.118613474 0.120991506 -0.16018975 -0.16466495 -0.2386686 0.17955802 -0.17522897 -0.052693468 0.061882097 0.095578514 0.40886664 0.00587184 0.28828213 0.15237135 0.059565917 0.023807378 0.42402676 0.27518255 0.046127904 -0.2221401 0.0017141711 -0.051654283
