de -0.14922222 0.32453856 0.17136174 0.03016864 0.26203167 -0.64288133 0.14644241 0.9201848 -0.3777335 -0.33028406 0.031986974 -0.55193216 0.04237315 0.20307139 0.20282416 -0.2523874 0.23275816 -0.29984128 -0.07356967 -0.9162154 0.104847275 0.08865016 0.3775622 -0.21925357 0.0242527 0.2121922 -0.35453194 -0.19312909 -0.2510235 0.29255864 0.54893214 -0.16361542 0.31328112 -0.20830622 -0.14557208 0.5843696 0.08860695 -0.3027347 -0.15887538 -0.63202727 0.06308513 -0.24189754 -0.14814453 0.14939007 0.090305485 -0.12511125 -0.25275117 -0.079990834 0.21294156 0.12764277 0.36921993 -0.3281181 -0.2493768 -0.053738177 -0.21992499 0.048639502 0.20118657 -0.082478166 -0.32188588 0.020384494 -0.053448673 -0.039955832 0.18937032 -0.20183417 -0.560044 0.45977992 0.09471687 0.35613504 -0.578544 0.36932328 -0.40528846 0.37857094 0.25718135 0.05120606 0.4089843 0.09148246 0.026204908 0.057653893 -0.2322462 0.11672944 -0.3698095 0.08925639 -0.18511502 0.52493596 -0.25402316 -0.0057720635 0.06790461 0.15554665 0.27855873 0.13787921 0.41120598 0.23171888 0.114558205 0.0027697636 0.7201389 0.27430075 0.39092126 -0.39373857 0.07772575 -0.08743496
a -0.16487193 0.33750987 0.17312036 0.02751426 0.2887119 -0.66073906 0.14014031 0.9422231 -0.3860818 -0.34297535 0.026311714 -0.57634246 0.042543426 0.21043906 0.21725728 -0.25125316 0.25036815 -0.30084756 -0.07042441 -0.9373399 0.10212367 0.08042004 0.3882828 -0.23741665 0.024815675 0.22985962 -0.367985 -0.19972323 -0.25248712 0.31680965 0.5880903 -0.1746188 0.3101709 -0.21712743 -0.14370295 0.61107826 0.08810456 -0.30273896 -0.1554471 -0.6354039 0.08028753 -0.26456398 -0.15266097 0.15938832 0.08738682 -0.12119587 -0.24452269 -0.099095866 0.21526907 0.11957856 0.3997899 -0.35093707 -0.25091133 -0.049458187 -0.23992436 0.065213874 0.21084811 -0.07115624 -0.3288726 0.018705245 -0.06407667 -0.03766138 0.19673504 -0.20250121 -0.572403 0.4794856 0.108792916 0.356923 -0.58696127 0.39036927 -0.42759195 0.3744258 0.27103385 0.070265286 0.41561794 0.08442571 0.013731778 0.057286642 -0.23277487 0.13006334 -0.39548743 0.09172534 -0.19094142 0.5237923 -0.25341153 -0.013478517 0.059633434 0.1566661 0.29320288 0.13289955 0.42207792 0.23908651 0.117717244 -0.009105967 0.73100466 0.28085595 0.42306533 -0.40291426 0.06894642 -0.09179513
el -0.14974155 0.32358906 0.15147644 0.018068347 0.27663606 -0.6098881 0.13122493 0.89304537 -0.3688304 -0.30754727 0.020613126 -0.5416337 0.05816577 0.1941642 0.21036603 -0.24928448 0.23319459 -0.2770218 -0.073850915 -0.88743454 0.083286375 0.07599634 0.3574587 -0.22058597 0.02439435 0.20961723 -0.33078894 -0.18774262 -0.24235788 0.2974195 0.5484879 -0.17113392 0.28727433 -0.20116246 -0.15056796 0.57087994 0.07818394 -0.28704283 -0.15368153 -0.61353546 0.062262468 -0.24157451 -0.13598531 0.15732393 0.093140714 -0.119011156 -0.23748207 -0.09683024 0.19572344 0.11078599 0.3694985 -0.3222412 -0.24569513 -0.061758295 -0.23535706 0.04651406 0.18939105 -0.077863164 -0.31773862 0.003726026 -0.046644855 -0.046668403 0.20141718 -0.18234542 -0.55942476 0.45776913 0.103421316 0.3477214 -0.56956196 0.36993027 -0.3976265 0.36525044 0.2542248 0.06554149 0.3874354 0.093865655 0.034224372 0.06327333 -0.232508 0.12785709 -0.36365095 0.0697783 -0.19285674 0.49807918 -0.2374824 -0.01378412 0.051998377 0.1507396 0.2818857 0.12791477 0.38946524 0.23019302 0.121150844 -0.00561142 0.7001379 0.26681152 0.40192583 -0.3773408 0.08274946 -0.09684374
la -0.143872 0.3074837 0.13750046 0.009259574 0.25656945 -0.5751744 0.1255086 0.8232666 -0.32320404 -0.30420482 0.03446715 -0.49057937 0.048632823 0.16944523 0.18662538 -0.22000572 0.2278622 -0.27417514 -0.054121103 -0.8061149 0.07787345 0.07666341 0.34367788 -0.18525968 0.010357902 0.20574617 -0.3033632 -0.17923285 -0.21165112 0.27160165 0.51153415 -0.15401556 0.2655199 -0.1803578 -0.1156231 0.5393908 0.08501836 -0.28192908 -0.15072149 -0.55503917 0.06708913 -0.2183464 -0.120536536 0.13184236 0.08758494 -0.11603693 -0.21763106 -0.09052177 0.18442817 0.09478193 0.35341093 -0.28135386 -0.23605575 -0.055946335 -0.21778527 0.04880006 0.1814818 -0.0519629 -0.28151155 -0.00015724092 -0.051210992 -0.0348078 0.18821058 -0.16654722 -0.49618787 0.40168652 0.08305684 0.30828202 -0.52736074 0.3228197 -0.3730867 0.3320567 0.22072361 0.0662009 0.35376284 0.06900354 0.013123243 0.060886625 -0.22021648 0.13540345 -0.34492055 0.08619963 -0.1634464 0.45787922 -0.22466214 -0.013910043 0.0606579 0.15254937 0.254276 0.11901197 0.3486701 0.20476855 0.10457328 -0.009619649 0.6524837 0.23360439 0.38681793 -0.35062033 0.07084892 -0.08749152
que -0.15281767 0.34205702 0.1418106 0.010383156 0.29370892 -0.6366738 0.14366898 0.92210144 -0.37901354 -0.32220823 0.017552095 -0.55428636 0.04330575 0.2044706 0.18862227 -0.24996576 0.24231295 -0.29686612 -0.037160125 -0.926754 0.08829214 0.08069838 0.3883054 -0.21047704 0.025071353 0.23132369 -0.34828994 -0.20799935 -0.24918172 0.3096232 0.59297186 -0.16562995 0.3131134 -0.20813213 -0.12530653 0.5954336 0.07706179 -0.3040668 -0.15885274 -0.64330316 0.073215514 -0.26159802 -0.15603463 0.1637356 0.09110491 -0.1463514 -0.24655944 -0.10039257 0.2212824 0.09764854 0.40489888 -0.3079086 -0.24722788 -0.055102505 -0.24399212 0.046900596 0.19471827 -0.074885964 -0.32915244 -0.002310217 -0.0559935 -0.05511026 0.20204811 -0.1831737 -0.5730979 0.4618801 0.1034102 0.342286 -0.6017199 0.38113093 -0.44437534 0.3883211 0.23695959 0.062167965 0.4047332 0.08931814 0.016948635 0.07418446 -0.23814645 0.14873841 -0.39242414 0.08556056 -0.18192737 0.50902426 -0.26368737 -0.022418963 0.069583245 0.17078541 0.28495377 0.14761387 0.41079137 0.22457853 0.1240414 -0.018234074 0.7277955 0.2502449 0.44616008 -0.3811723 0.087886885 -0.08495848
i -0.16974142 0.3461487 0.17052716 0.00979217 0.27755108 -0.6735201 0.15337409 0.96551555 -0.39782405 -0.35007367 0.020505395 -0.5859713 0.043141775 0.1933712 0.21628787 -0.2754528 0.23883298 -0.3184378 -0.07364803 -0.96052957 0.09325292 0.08526894 0.39675024 -0.22600044 0.010803175 0.22349331 -0.37025005 -0.2204002 -0.2554927 0.32091072 0.59086525 -0.17792147 0.31671897 -0.22053623 -0.15285687 0.6305294 0.090755835 -0.31337398 -0.16464838 -0.6675205 0.08778982 -0.2690567 -0.15188916 0.16219102 0.09478752 -0.13844962 -0.25564584 -0.09146781 0.21707451 0.11954942 0.39913532 -0.3626181 -0.24761915 -0.043314025 -0.2521217 0.06206209 0.21581784 -0.08899345 -0.34261057 0.0028431343 -0.045210026 -0.044272665 0.21641235 -0.21127142 -0.5893495 0.4866873 0.099232145 0.37554425 -0.6185767 0.37748736 -0.4343469 0.39736784 0.28271946 0.0734303 0.42678076 0.106045365 0.012105894 0.061795264 -0.24768952 0.14087182 -0.38383788 0.07902129 -0.19445667 0.5397877 -0.26330084 -0.016593574 0.059154794 0.18089032 0.29319194 0.14356472 0.4432319 0.25836158 0.1039405 -0.0013796256 0.7607674 0.29134822 0.42338905 -0.41846076 0.08625734 -0.10868946
és -0.09710053 0.2446779 0.10730299 0.010193537 0.21730925 -0.4738254 0.11153506 0.6818573 -0.27985343 -0.24533124 0.026100934 -0.41157883 0.037681084 0.15873589 0.13934453 -0.1808927 0.19323371 -0.2187295 -0.028715884 -0.68871105 0.06137078 0.062626906 0.29390278 -0.16287981 0.023217985 0.1735777 -0.25891468 -0.16405913 -0.17952691 0.22519101 0.44197202 -0.11687214 0.23163833 -0.14217256 -0.10502412 0.444188 0.04929631 -0.24124931 -0.12251262 -0.48661357 0.059901204 -0.19210851 -0.098087035 0.10541451 0.06613913 -0.091764666 -0.1945848 -0.083100006 0.15179804 0.0743313 0.29559466 -0.24358073 -0.20306888 -0.033968583 -0.18600385 0.028230311 0.14947282 -0.055873945 -0.24840271 -0.008275204 -0.048236687 -0.043627366 0.15660727 -0.13117008 -0.42430174 0.35172138 0.05999588 0.24107516 -0.451375 0.26934275 -0.32779744 0.2915153 0.17668861 0.04582674 0.30597112 0.04778805 0.01929564 0.052929852 -0.18819714 0.12353165 -0.2784087 0.060288694 -0.14505872 0.382314 -0.18898658 -0.01802632 0.057289198 0.115907736 0.21030526 0.115405686 0.29660943 0.16853096 0.08149351 -0.00997957 0.5371586 0.19377403 0.33619997 -0.2922575 0.0655767 -0.06030661
. -0.13091564 0.300248 0.16099542 0.0288913 0.24923627 -0.58877 0.13404307 0.8383825 -0.35105887 -0.30448347 0.022160586 -0.51173604 0.051281784 0.17772412 0.19055235 -0.23164003 0.21827646 -0.27525666 -0.068526044 -0.8560541 0.09169695 0.08307289 0.34126392 -0.21756989 0.005366359 0.20590898 -0.33217418 -0.17955399 -0.2334786 0.28493226 0.50849295 -0.145158 0.28561518 -0.19154195 -0.13966773 0.5429763 0.064548634 -0.27972648 -0.15821965 -0.58090633 0.07593206 -0.2312867 -0.12735932 0.14540097 0.09667777 -0.12680015 -0.23415951 -0.09022467 0.20194748 0.10907565 0.3365487 -0.30918965 -0.21091498 -0.058614153 -0.21645936 0.06021251 0.1694674 -0.0650412 -0.2918086 0.014762086 -0.03852581 -0.042194664 0.17581414 -0.16737024 -0.51888645 0.4307743 0.07782774 0.33674046 -0.5355031 0.33152294 -0.37860513 0.3395189 0.24300146 0.05746228 0.36929592 0.08615709 0.029855225 0.045092285 -0.21532464 0.11114691 -0.35150608 0.07468379 -0.1859389 0.48402342 -0.2256891 -0.009365087 0.063686594 0.16004187 0.26974118 0.12008059 0.38046297 0.21286002 0.092793524 0.008935583 0.6576865 0.24960056 0.3720135 -0.36512738 0.07673771 -0.09161658
no -0.14705612 0.32300833 0.13859646 0.022793947 0.27855638 -0.5848514 0.14244688 0.8379889 -0.35104054 -0.29657802 0.026888635 -0.51728743 0.059772108 0.18081406 0.19140446 -0.22299811 0.21832691 -0.2832556 -0.04802525 -0.85092914 0.081994936 0.090872444 0.36017212 -0.21391563 0.030399201 0.21608081 -0.3245991 -0.20760894 -0.22162087 0.2756956 0.54306436 -0.15940733 0.2953689 -0.1678127 -0.12441335 0.5582803 0.068955936 -0.2763247 -0.14184994 -0.60362655 0.06525874 -0.23104404 -0.13067558 0.14077899 0.076844044 -0.13228516 -0.23130997 -0.08801912 0.19207191 0.09353417 0.3651474 -0.2891417 -0.23704061 -0.050360624 -0.21954109 0.048106957 0.1888598 -0.05736236 -0.292295 -0.007744509 -0.06415572 -0.05177287 0.19362213 -0.16935338 -0.5332142 0.42509335 0.079144046 0.31209385 -0.56071246 0.34288442 -0.41443935 0.35331666 0.2253057 0.0599543 0.35838753 0.065773636 0.012688689 0.048794985 -0.24053378 0.14358395 -0.35225227 0.07505699 -0.1628185 0.47572237 -0.2268959 -0.009788966 0.059541576 0.14397748 0.26659495 0.14644352 0.36911234 0.2137348 0.10507972 -0.014497115 0.6773592 0.24874915 0.40875587 -0.34817722 0.08482464 -0.0859924
va -0.113996446 0.2508996 0.10286944 0.018809421 0.22017668 -0.50266576 0.09952517 0.7128188 -0.28815207 -0.25964034 0.021740107 -0.4318079 0.03636339 0.15578522 0.14512682 -0.17419417 0.19777632 -0.24733315 -0.023678092 -0.71551764 0.06345849 0.07310491 0.28476706 -0.16837281 0.030136723 0.17130622 -0.27366468 -0.15220314 -0.18403195 0.22917643 0.4596013 -0.122836255 0.24202438 -0.14247268 -0.114115275 0.4670804 0.06404603 -0.23686899 -0.12243723 -0.48795262 0.06165967 -0.18712425 -0.11694812 0.10895301 0.062336415 -0.10217908 -0.19713973 -0.07175621 0.16788633 0.09225334 0.3091234 -0.2293948 -0.20105302 -0.025678117 -0.18214048 0.030942716 0.15076311 -0.05389158 -0.24492049 0.00226551 -0.05188149 -0.02987782 0.16352779 -0.1410027 -0.43774453 0.35173059 0.06765105 0.2389108 -0.45718917 0.28192446 -0.3330051 0.30135125 0.18232852 0.032706793 0.30635917 0.053271104 0.018409513 0.041760664 -0.18065235 0.12702331 -0.28608176 0.06516651 -0.14679547 0.39825925 -0.19659366 -0.01867067 0.037890133 0.12682372 0.23353936 0.12450592 0.29675522 0.18633291 0.096887745 -0.0005129014 0.5702303 0.18750279 0.3273437 -0.28643113 0.07924239 -0.061745167
un -0.11359171 0.27973723 0.13081703 -0.0026655693 0.23017132 -0.54076713 0.11179116 0.7668862 -0.31019276 -0.2812771 0.031465925 -0.46544588 0.05303671 0.15850995 0.16754925 -0.19742352 0.20647314 -0.25482273 -0.034301892 -0.77285117 0.06659934 0.06821153 0.32149923 -0.18991229 0.014913316 0.19372615 -0.29224887 -0.18180262 -0.19066179 0.25842786 0.47727767 -0.13647509 0.26889881 -0.15249686 -0.107282534 0.50077677 0.06802765 -0.26057604 -0.13959381 -0.53420985 0.057024762 -0.20984434 -0.1255615 0.13323362 0.06171062 -0.12402791 -0.20943189 -0.084268086 0.16765708 0.09069081 0.32358298 -0.26111716 -0.2204215 -0.038115337 -0.19616173 0.044779032 0.16320303 -0.055183046 -0.26360187 0.0058750696 -0.0600049 -0.04568289 0.16501324 -0.15050165 -0.48080614 0.38917628 0.06705905 0.2677148 -0.48811916 0.301618 -0.3588886 0.32371953 0.19608007 0.06088639 0.33334696 0.08041571 0.021880768 0.042050637 -0.20901737 0.13667184 -0.3109343 0.08591866 -0.14761183 0.4335906 -0.22113584 -0.0062051606 0.045359608 0.14159691 0.2501332 0.12943333 0.34334594 0.19333813 0.09630597 -0.004851712 0.5951323 0.21746375 0.37294772 -0.32701185 0.07627622 -0.08250452
amb -0.13583754 0.32802692 0.15665695 0.023070728 0.2738885 -0.6280175 0.13622281 0.89065135 -0.3674646 -0.32273945 0.028219206 -0.5331839 0.043312185 0.18402311 0.2056549 -0.24805735 0.22141989 -0.29968366 -0.061340366 -0.89373904 0.08508387 0.07296334 0.36240673 -0.22583783 0.009912449 0.20446534 -0.35151547 -0.19052571 -0.22995226 0.29437152 0.54520375 -0.16849424 0.30058116 -0.1905556 -0.13851003 0.57623506 0.07385216 -0.29094997 -0.16440782 -0.6229364 0.061392944 -0.24528092 -0.13134171 0.15730362 0.083626546 -0.13014959 -0.22743817 -0.09254078 0.19880223 0.12055748 0.37685764 -0.32675165 -0.23190251 -0.046363313 -0.23673649 0.05163283 0.1923883 -0.06498304 -0.3156806 0.0034051174 -0.04959852 -0.041467723 0.19308284 -0.18800677 -0.5546721 0.45317653 0.10226421 0.34720284 -0.5747096 0.36164424 -0.41292575 0.37383196 0.24887581 0.06172234 0.39423645 0.09426266 0.014183084 0.065829724 -0.23163599 0.12608701 -0.36569256 0.093090005 -0.19400732 0.49814016 -0.23381925 -0.008243613 0.050432336 0.14995885 0.28540757 0.14222363 0.4024362 0.22021502 0.09841126 0.002043219 0.70283926 0.25424698 0.39171946 -0.37907898 0.07257428 -0.0919322
en -0.13151886 0.29032463 0.1418696 0.0035733376 0.25754854 -0.560267 0.124999516 0.8193731 -0.32038045 -0.2945079 0.01568107 -0.49975845 0.03475115 0.17165871 0.1700329 -0.22686099 0.21500985 -0.26430252 -0.0372792 -0.81564057 0.0740256 0.07712806 0.33306372 -0.18788522 0.021532042 0.20630293 -0.3197981 -0.17944789 -0.21428795 0.28257057 0.5008021 -0.14601971 0.27785617 -0.17439313 -0.12873955 0.5192545 0.06187094 -0.2786883 -0.140753 -0.5648487 0.0627979 -0.21385531 -0.12698556 0.13616474 0.066649735 -0.1315066 -0.20975141 -0.09416035 0.17896701 0.10247995 0.35377508 -0.29197422 -0.2230775 -0.049732734 -0.21029015 0.04336963 0.17501791 -0.059249397 -0.27983034 0.012951031 -0.06286719 -0.04997633 0.18312092 -0.16202886 -0.5090392 0.40970033 0.092352524 0.29996502 -0.5335397 0.32772973 -0.37470233 0.34181812 0.22342038 0.046276283 0.3547664 0.07238758 0.022828188 0.045735996 -0.22418968 0.13368025 -0.34348968 0.08306469 -0.16685823 0.46578264 -0.22906555 -0.010531116 0.061571635 0.14232115 0.2516134 0.13131954 0.36003628 0.20384529 0.10762115 -0.017454151 0.6433921 0.232969 0.3892449 -0.33603582 0.08421583 -0.06962748
No -0.13257076 0.29174662 0.11362916 0.008991853 0.23490994 -0.53445154 0.11079602 0.74654114 -0.3145464 -0.27248365 0.01618417 -0.45109275 0.030432327 0.15940261 0.17316332 -0.19465159 0.208127 -0.2436757 -0.03533136 -0.7644847 0.080993205 0.07329673 0.3222338 -0.17682947 0.0325158 0.19594666 -0.30199623 -0.1853831 -0.19608265 0.26040325 0.4868009 -0.13343595 0.26692834 -0.16638093 -0.10322254 0.49180827 0.052357327 -0.24235906 -0.12795107 -0.53305686 0.057664335 -0.21450107 -0.111486144 0.1321182 0.06664295 -0.12397737 -0.2082561 -0.08460447 0.18170848 0.08717833 0.32761553 -0.25771716 -0.2177443 -0.03976457 -0.20182395 0.04901181 0.17344186 -0.056233365 -0.2726609 0.011036634 -0.04418276 -0.03376912 0.16823134 -0.14521766 -0.4646138 0.37808394 0.087588064 0.28434014 -0.48492637 0.30418977 -0.3634671 0.30700904 0.19017905 0.053667944 0.34071466 0.07956132 0.01273569 0.05922725 -0.20036156 0.124798454 -0.31268644 0.070964724 -0.1445929 0.43047702 -0.2039318 -0.0050792703 0.059517406 0.1461432 0.2407862 0.11469659 0.34467956 0.19676827 0.09628664 -0.0126112215 0.59048885 0.21355394 0.36946622 -0.3230184 0.0643103 -0.06367753
El -0.10680196 0.27966458 0.117469676 0.0010424142 0.23922242 -0.51652956 0.11975791 0.73848623 -0.28610316 -0.27269295 0.02956225 -0.45482495 0.033858754 0.14985369 0.14972773 -0.1867067 0.20601836 -0.24624354 -0.031056354 -0.7373553 0.07677004 0.07763368 0.30234843 -0.17963809 0.012016126 0.18625292 -0.27707794 -0.17165357 -0.18449181 0.24165672 0.4569668 -0.13633472 0.24835312 -0.16538495 -0.116023324 0.46712652 0.07454105 -0.24026819 -0.12796433 -0.50497586 0.065116115 -0.2014166 -0.10905028 0.12600991 0.0755055 -0.10084743 -0.20445456 -0.083275095 0.17114492 0.09146033 0.32029045 -0.24592648 -0.2012171 -0.048172146 -0.1957759 0.033946108 0.17222539 -0.048158426 -0.2615318 0.008457522 -0.057225883 -0.04757859 0.16138601 -0.13884878 -0.44944975 0.37653407 0.07296835 0.25976744 -0.47321817 0.29226422 -0.35475898 0.29435518 0.20135991 0.0463708 0.31856784 0.057364736 0.02608783 0.052303594 -0.19686922 0.12627257 -0.3120969 0.074461035 -0.14504154 0.399538 -0.19823544 -0.008367582 0.05783525 0.13754326 0.23282854 0.114449315 0.33153272 0.1858047 0.099037506 -0.0017426932 0.57952094 0.20152901 0.34933245 -0.2989555 0.06500683 -0.060082786
per -0.13515218 0.29935455 0.13097839 0.018386168 0.24639685 -0.56667775 0.11659193 0.80517477 -0.329966 -0.27937257 0.016377239 -0.4962838 0.039059196 0.1801919 0.1644537 -0.21974516 0.2038878 -0.25778916 -0.035687882 -0.8003452 0.07290646 0.08244338 0.32500225 -0.19611597 0.016464362 0.19639356 -0.30897868 -0.1781408 -0.2097503 0.2581167 0.5009973 -0.15127397 0.27738494 -0.16206044 -0.12463014 0.53149486 0.07794096 -0.27717456 -0.14890625 -0.55132693 0.074548244 -0.22501923 -0.13292022 0.14246003 0.07882009 -0.11280253 -0.22509037 -0.09674392 0.18785705 0.08274815 0.33973354 -0.27997467 -0.21040937 -0.034822475 -0.21233596 0.05443148 0.18682803 -0.061101727 -0.2734778 0.011892452 -0.05107163 -0.046861056 0.16690655 -0.16443966 -0.48869747 0.39709648 0.07818916 0.30149946 -0.51519835 0.3288486 -0.38967568 0.32952183 0.21914445 0.048598327 0.3588029 0.0817225 0.017287154 0.051492877 -0.21564819 0.12911473 -0.34271505 0.08031009 -0.16442081 0.45335126 -0.2310268 -0.006290519 0.046560172 0.13828854 0.26516914 0.14036626 0.3511341 0.20524143 0.09405475 -0.019127045 0.6269179 0.23669596 0.386732 -0.32808527 0.082321875 -0.068984605
les -0.1278263 0.27839902 0.13659947 0.013840589 0.25015146 -0.5486067 0.11837159 0.79423225 -0.31752107 -0.28234577 0.016550438 -0.48716697 0.03488255 0.1769075 0.16265649 -0.2012165 0.20056212 -0.25984222 -0.047688015 -0.79799074 0.08607439 0.082651995 0.32365403 -0.1860318 0.020291632 0.20419717 -0.29595858 -0.19034086 -0.21183735 0.26083088 0.49605393 -0.14803697 0.26731262 -0.17959139 -0.11678516 0.52018857 0.07578623 -0.26620668 -0.1470582 -0.55990106 0.061587296 -0.22470045 -0.13179614 0.13667724 0.0816183 -0.11490028 -0.22162399 -0.09003164 0.19038051 0.09834107 0.32958663 -0.28471982 -0.21587083 -0.03983803 -0.20411135 0.050228138 0.16427885 -0.07145005 -0.28777608 0.0050795386 -0.044446535 -0.03504065 0.17377514 -0.15472236 -0.4857893 0.4008943 0.07079382 0.301952 -0.50240666 0.3253323 -0.36075646 0.33504373 0.21466912 0.04945419 0.3431831 0.06280768 0.025930922 0.04176601 -0.2000549 0.122825325 -0.32492426 0.064071 -0.17284134 0.434349 -0.22524174 -0.0107670445 0.04152726 0.13517298 0.24070244 0.119479164 0.35696086 0.2042363 0.108866505 0.00039946314 0.6159062 0.23564431 0.35761017 -0.33445105 0.063391425 -0.07247427
una -0.13163328 0.31792328 0.13918984 0.004395665 0.27106592 -0.5935079 0.14027044 0.8412811 -0.3429566 -0.30640787 0.019682286 -0.51557094 0.05802694 0.17724152 0.18680932 -0.23544931 0.22340105 -0.27779424 -0.033271402 -0.8500195 0.087575756 0.073138945 0.34118652 -0.21069644 0.018592617 0.204151 -0.3262766 -0.20385785 -0.21778539 0.2813152 0.52927023 -0.14900054 0.28011185 -0.18186866 -0.11962855 0.5577437 0.062379003 -0.274357 -0.14036036 -0.59365386 0.07593732 -0.24058068 -0.12154317 0.14601462 0.079166904 -0.13324848 -0.23120663 -0.09666398 0.19685876 0.099694885 0.37020415 -0.27725092 -0.223491 -0.04922265 -0.21072564 0.049314555 0.19236955 -0.05709485 -0.29939392 0.00886095 -0.05908057 -0.052953962 0.17280069 -0.16807438 -0.5128986 0.42301634 0.085107416 0.3093025 -0.53628665 0.329241 -0.39846498 0.33890292 0.22724105 0.065887235 0.37359616 0.0839866 0.02669123 0.06331023 -0.21993102 0.1520758 -0.35424244 0.093019515 -0.16407216 0.46746722 -0.22318032 -0.00623864 0.06531302 0.15542851 0.2780044 0.13937058 0.38079268 0.21495041 0.11139132 -0.014341657 0.6691201 0.24830799 0.39639235 -0.3553832 0.08277845 -0.08886533
, -0.14502953 0.31950355 0.16514337 0.02554975 0.28185594 -0.65364975 0.14703311 0.9351544 -0.38698494 -0.3360763 0.017694838 -0.563361 0.05024462 0.20687658 0.22098657 -0.2587937 0.23256277 -0.29288706 -0.06328862 -0.91752344 0.10648895 0.07570542 0.36926126 -0.2320575 0.022175187 0.2132803 -0.3714032 -0.19324219 -0.24040918 0.2998278 0.5704049 -0.16490884 0.30678678 -0.20611034 -0.14963974 0.5918831 0.08018358 -0.29610997 -0.15556686 -0.6494675 0.069525376 -0.25804165 -0.1305632 0.16529487 0.0892607 -0.12688018 -0.25226328 -0.092530824 0.21907926 0.11773511 0.37683383 -0.35386583 -0.24650794 -0.057220273 -0.22892377 0.067295074 0.19267635 -0.07889894 -0.31504712 0.0131683145 -0.048801675 -0.029559216 0.207404 -0.18953548 -0.5776725 0.4756782 0.10554596 0.37629136 -0.58798116 0.3785574 -0.40623412 0.3704898 0.2739142 0.067360364 0.42182314 0.093823425 0.019631885 0.06293747 -0.24408269 0.11588561 -0.3827992 0.08000288 -0.19941938 0.53622407 -0.24187265 -0.0059029013 0.06353749 0.16570513 0.2793452 0.12370858 0.42788735 0.23311009 0.116156645 0.016040368 0.7239549 0.28154588 0.4050863 -0.39768898 0.08067054 -0.098219976
els -0.13295604 0.31877404 0.14666116 0.022676215 0.25534782 -0.5892819 0.14245301 0.8514874 -0.34771785 -0.31332365 0.025261806 -0.51712567 0.05618654 0.18578206 0.18998028 -0.23141167 0.23578733 -0.28749827 -0.057452083 -0.85881144 0.0830955 0.08502924 0.3411336 -0.2110434 0.0133568905 0.21686412 -0.32953838 -0.2069652 -0.22248831 0.2959231 0.52947783 -0.16545898 0.29221505 -0.18650214 -0.14234741 0.5690105 0.06566167 -0.29067317 -0.15281473 -0.60242355 0.06924599 -0.22464022 -0.12858115 0.15358482 0.081362344 -0.1254789 -0.23610295 -0.102750786 0.20149405 0.103829734 0.35486442 -0.30709025 -0.2454054 -0.0551367 -0.22003661 0.060308266 0.19049644 -0.06362599 -0.29420522 0.0049421554 -0.055339843 -0.053015117 0.18604666 -0.1779609 -0.5299618 0.43791124 0.08044758 0.31732863 -0.5594768 0.34344 -0.40254968 0.35612407 0.23737876 0.050451204 0.37054852 0.082151555 0.025963664 0.061680373 -0.23133454 0.13142595 -0.36014867 0.081682384 -0.17472404 0.48191047 -0.22634839 -0.014909646 0.054200795 0.14769721 0.26898772 0.12481981 0.3792917 0.21946184 0.09687866 0.0018824248 0.6659303 0.23914701 0.38956195 -0.3569358 0.083255954 -0.075322084
molt -0.113198236 0.25851738 0.11586035 0.020038461 0.22324242 -0.48982427 0.10568676 0.71173364 -0.28097796 -0.25040835 0.024230817 -0.43367252 0.046858463 0.15692249 0.1616864 -0.20140226 0.17834838 -0.22350436 -0.04943212 -0.71070164 0.07298411 0.06593162 0.27975112 -0.16295728 0.011378154 0.16496947 -0.26789653 -0.165309 -0.19769159 0.22926937 0.43792412 -0.13775386 0.24416459 -0.14964692 -0.116038226 0.4650079 0.059412584 -0.22839364 -0.12554325 -0.49076986 0.06031635 -0.19643795 -0.118289195 0.13250995 0.06768362 -0.115868464 -0.1954596 -0.08084247 0.16633248 0.08948095 0.30527028 -0.26311442 -0.18788224 -0.043040562 -0.18656293 0.05092509 0.15876412 -0.058615144 -0.25502586 -0.0036568767 -0.045921125 -0.027976405 0.15761426 -0.15486318 -0.45459303 0.36734977 0.06769792 0.26399976 -0.44890437 0.277858 -0.32566467 0.2896678 0.18796453 0.0484849 0.32023218 0.07917879 0.020739047 0.049124263 -0.19672321 0.108492956 -0.30133638 0.06915893 -0.14649124 0.39597395 -0.1989281 0.00092921534 0.049259514 0.12596263 0.22189717 0.1176878 0.31070733 0.18364426 0.08832595 0.007887773 0.5644121 0.20381083 0.32849562 -0.30226523 0.0533597 -0.07505574
més -0.11305014 0.2654571 0.12899883 0.021900117 0.21130511 -0.4884641 0.10434025 0.70735705 -0.28655556 -0.24494344 0.024031363 -0.42464727 0.048762597 0.15345871 0.14852592 -0.19796625 0.19134076 -0.23694542 -0.04309798 -0.7034666 0.06619861 0.06007122 0.28903377 -0.17061031 0.020611042 0.17994142 -0.27779466 -0.15777378 -0.17899726 0.23850681 0.44885603 -0.13577323 0.24792701 -0.15972987 -0.10392967 0.45153967 0.05886081 -0.24555159 -0.12533835 -0.5008733 0.051267277 -0.19193088 -0.10566168 0.11632673 0.057958 -0.111723 -0.19024298 -0.07835887 0.15356523 0.0832209 0.3094542 -0.24290062 -0.20456247 -0.03721461 -0.19036381 0.03201331 0.15581411 -0.053258553 -0.2578819 -0.002276944 -0.047492284 -0.029590074 0.1445024 -0.13495708 -0.4398704 0.35774627 0.08041485 0.2705045 -0.4591035 0.28907105 -0.32920203 0.29847074 0.19117242 0.042442136 0.3110066 0.06016378 0.018299775 0.05325278 -0.18321376 0.12348897 -0.30097574 0.060748026 -0.13794635 0.40042776 -0.2013143 -0.007093684 0.049206477 0.1248137 0.21772717 0.11816525 0.32516733 0.17156215 0.08738176 -0.009580245 0.549776 0.20253772 0.3237774 -0.28970352 0.058948513 -0.065843716
es -0.10611384 0.25458223 0.11389932 0.020927968 0.21354878 -0.4824783 0.10398369 0.683064 -0.28022143 -0.2515375 0.011644343 -0.42113465 0.042985477 0.1508283 0.15365618 -0.17374957 0.17381348 -0.22343577 -0.025367264 -0.6822595 0.06820528 0.07148657 0.27052918 -0.15439631 0.026615962 0.17817219 -0.26926503 -0.15095267 -0.17062995 0.22676776 0.42510265 -0.11760455 0.22382446 -0.15303268 -0.09748071 0.4523748 0.07056991 -0.23341827 -0.13032433 -0.4678979 0.061692964 -0.19131044 -0.11802095 0.10690464 0.05881158 -0.10550595 -0.1847171 -0.07473766 0.1546459 0.07497441 0.30394056 -0.2421632 -0.19673482 -0.025417227 -0.17621785 0.050127704 0.14625227 -0.05696558 -0.24175358 0.0032977324 -0.055347335 -0.039285958 0.15060073 -0.12919246 -0.41387922 0.34802106 0.06450809 0.24482977 -0.44461367 0.28163013 -0.33205917 0.2833741 0.18085895 0.03750318 0.2896422 0.06738895 0.0053815874 0.044553958 -0.1795494 0.124078594 -0.2874171 0.07127072 -0.12943876 0.37297663 -0.19387233 -0.004756613 0.050413143 0.123640634 0.22408758 0.111133814 0.30235678 0.1699079 0.07556919 -0.0045331283 0.5399625 0.18358834 0.32045937 -0.28492114 0.06559915 -0.05663859
al -0.12503384 0.27819884 0.13132809 0.0025412675 0.2321758 -0.53915566 0.10885873 0.7687003 -0.30858612 -0.27794626 0.014405728 -0.4671445 0.041024826 0.17013693 0.17223948 -0.197329 0.21550824 -0.26361933 -0.026508447 -0.771831 0.08234779 0.07660975 0.32112077 -0.19607444 0.0114054205 0.20098427 -0.29687384 -0.17441007 -0.19294734 0.25799292 0.49631548 -0.14282537 0.24925928 -0.17348069 -0.115648694 0.49299207 0.07593163 -0.2545772 -0.1446193 -0.526973 0.07015419 -0.20591742 -0.11453795 0.11686651 0.07039024 -0.123944975 -0.21319644 -0.085304186 0.17683473 0.09213005 0.33485973 -0.26207557 -0.20894016 -0.03179619 -0.20953232 0.05380424 0.1766202 -0.043655254 -0.26870465 0.0011292148 -0.054633547 -0.043538354 0.16437419 -0.14470328 -0.47354466 0.391299 0.08261664 0.2686984 -0.488228 0.31832424 -0.36701202 0.31943005 0.19801858 0.04382776 0.34305942 0.06526327 0.02301006 0.053429354 -0.20915309 0.13496493 -0.32367152 0.075038254 -0.15443556 0.431609 -0.21423072 -0.011191503 0.042356398 0.14705302 0.23713465 0.13273306 0.34110498 0.18656452 0.09156547 -0.017740257 0.6004928 0.2272913 0.37546209 -0.32030705 0.07325452 -0.06253647
La -0.10173167 0.22397089 0.10122814 -0.0026609686 0.18285534 -0.4437437 0.10577962 0.6243432 -0.2539371 -0.23158106 0.021697072 -0.3709061 0.033229288 0.1342094 0.12339633 -0.15916573 0.16594003 -0.19398884 -0.039483458 -0.62240297 0.04863551 0.05686363 0.24485521 -0.141228 0.008692483 0.14589073 -0.22597042 -0.1508391 -0.1587535 0.19653262 0.40409175 -0.1034452 0.21152976 -0.12644449 -0.082380846 0.39346144 0.064607784 -0.21986052 -0.09569869 -0.42814058 0.045513097 -0.17186591 -0.085042246 0.09652213 0.06813051 -0.09892082 -0.15729791 -0.06568332 0.15413952 0.06931823 0.27180973 -0.1985126 -0.16867849 -0.03323096 -0.15339303 0.045480043 0.14636138 -0.03357241 -0.21123742 0.013767932 -0.030733265 -0.034802943 0.13414007 -0.121173434 -0.37859315 0.31118408 0.052970853 0.21343817 -0.40177342 0.25894982 -0.29724005 0.24448583 0.16982871 0.040077396 0.27078918 0.06076222 0.015469597 0.048947457 -0.1653602 0.10487791 -0.24662183 0.06394018 -0.13095789 0.35404283 -0.1630992 -0.0048727584 0.039234772 0.11506631 0.2049562 0.10842043 0.27063498 0.14548455 0.077730075 -0.0074591045 0.4902814 0.1623527 0.30523685 -0.26800188 0.067364715 -0.071412645
Ell -0.06403393 0.17822854 0.07679692 0.0022239513 0.1440077 -0.3254924 0.0637672 0.47026923 -0.18485847 -0.16368105 0.0048688557 -0.27298856 0.024913514 0.10035948 0.08950553 -0.1184106 0.13073856 -0.14768106 -0.028790759 -0.4742872 0.037829533 0.0449241 0.18199073 -0.119317144 0.011550167 0.11622043 -0.18597715 -0.11020574 -0.11895895 0.16245966 0.29631892 -0.08363389 0.14919898 -0.107258335 -0.06888488 0.31032157 0.04835191 -0.15915845 -0.080932744 -0.3355435 0.035061486 -0.1324412 -0.0683357 0.073753156 0.03860742 -0.0793186 -0.1287081 -0.057667147 0.10725332 0.04992671 0.19835967 -0.16064394 -0.13797012 -0.02436337 -0.11972995 0.02343254 0.09480371 -0.03822175 -0.17447187 0.0019839243 -0.0253721 -0.028019167 0.103562064 -0.087145455 -0.27632242 0.24067542 0.056937005 0.15649143 -0.30802393 0.18091872 -0.23019727 0.18441257 0.1151678 0.026936231 0.20380147 0.03880584 -0.00011430851 0.03582047 -0.12275401 0.08536149 -0.18360154 0.054699022 -0.095165625 0.26299822 -0.13402669 -0.004469755 0.034957625 0.09411737 0.1447739 0.079328656 0.19766702 0.11501833 0.0677844 -0.009597263 0.36627415 0.121053115 0.21135923 -0.18553953 0.038469337 -0.03914128
ha -0.12852032 0.27818385 0.11222028 0.021444364 0.24858359 -0.5203346 0.12883998 0.7524301 -0.32056233 -0.25720716 0.015425814 -0.44791982 0.04876698 0.16289294 0.15270533 -0.20437816 0.20698151 -0.25866714 -0.033702433 -0.768115 0.08622477 0.0685346 0.32953382 -0.19038245 0.009910584 0.17508605 -0.29751447 -0.17173165 -0.19772843 0.26677227 0.48495498 -0.13529675 0.2652439 -0.15090694 -0.116505824 0.50509083 0.049420457 -0.24849583 -0.12961937 -0.5299463 0.06734213 -0.2142909 -0.11802105 0.12816589 0.07053461 -0.11818493 -0.19903617 -0.092743926 0.18345988 0.090740144 0.33088484 -0.2545821 -0.21149871 -0.041067176 -0.20553263 0.051618505 0.17111848 -0.058954194 -0.2809712 -0.009338826 -0.048223685 -0.050114926 0.16232422 -0.15712431 -0.48245266 0.383678 0.08538689 0.2765512 -0.4999501 0.30939388 -0.36279255 0.30377817 0.20116435 0.05121992 0.32511318 0.05437587 0.025951007 0.058514837 -0.20811741 0.13790524 -0.31501317 0.08039803 -0.15422855 0.43341002 -0.2086966 -0.015413593 0.044255834 0.14648595 0.24158777 0.123340055 0.3463544 0.18114512 0.091153555 -0.0222498 0.58952713 0.2084009 0.36248204 -0.31545705 0.074586175 -0.06852132
del -0.09924097 0.24206412 0.09955047 0.011310575 0.21168417 -0.44812676 0.105757296 0.63766396 -0.25381526 -0.22519685 0.024127346 -0.40154263 0.036598783 0.14325023 0.13148165 -0.17718974 0.178652 -0.22045022 -0.034755632 -0.6356128 0.053616993 0.069498226 0.26843297 -0.15087661 0.013024649 0.15556653 -0.25406477 -0.14950886 -0.17376895 0.21299875 0.41776547 -0.12707679 0.21244928 -0.14335328 -0.10204806 0.41122115 0.05367163 -0.20595744 -0.10267584 -0.45610693 0.043743685 -0.18063763 -0.11065438 0.102383055 0.051818956 -0.09452591 -0.18298805 -0.0674937 0.15230787 0.08084363 0.2756963 -0.23095937 -0.17369507 -0.039350387 -0.16294156 0.039831273 0.15326416 -0.042785957 -0.22996521 0.011570742 -0.05023357 -0.044747174 0.14340374 -0.13132288 -0.40157866 0.32380226 0.05524445 0.23385932 -0.41762885 0.255726 -0.30347535 0.27092287 0.17681149 0.031313367 0.27572086 0.048423845 0.0048426487 0.040429674 -0.17501909 0.10079854 -0.27193043 0.062087465 -0.12344642 0.36068538 -0.17021787 -0.018787332 0.03795484 0.116953716 0.2159998 0.10888662 0.28679246 0.16212162 0.08309823 -0.018420378 0.5090709 0.18796407 0.31216127 -0.26632172 0.054306075 -0.06684369
: -0.10702226 0.26622793 0.110850595 0.019449933 0.21920994 -0.50356424 0.12112836 0.7237644 -0.29396278 -0.2524281 0.0136405155 -0.44630435 0.0529665 0.16684365 0.1455446 -0.18919829 0.2027403 -0.2441417 -0.038486876 -0.73634356 0.084733404 0.0680107 0.30740806 -0.16784728 0.02417383 0.16925918 -0.2851917 -0.16792534 -0.19072795 0.24569282 0.46751902 -0.1268871 0.2631514 -0.1666977 -0.12044073 0.48105758 0.06658574 -0.2453276 -0.13850293 -0.51521456 0.047548603 -0.19053468 -0.10795259 0.11185002 0.07365835 -0.103716426 -0.20665005 -0.08766605 0.17048737 0.10118091 0.29743263 -0.25698122 -0.20625083 -0.042971496 -0.18581556 0.037081394 0.15645464 -0.05329216 -0.26544324 0.015613273 -0.03997678 -0.050397072 0.15385509 -0.1463372 -0.46381292 0.36156508 0.06439526 0.26634154 -0.4582366 0.3019821 -0.3389273 0.28808436 0.20597346 0.05424415 0.31912675 0.058293883 0.014813368 0.04643458 -0.2038114 0.11906985 -0.29958582 0.06256246 -0.1604576 0.41854858 -0.21099932 -0.015873075 0.057184383 0.12914027 0.22780314 0.10950223 0.32529902 0.19062085 0.08054256 -0.012556403 0.5680149 0.20833631 0.32723072 -0.32260492 0.0759495 -0.0600377
Tom -0.09544107 0.19538563 0.08899659 0.0028619554 0.19282597 -0.39235744 0.07840741 0.56613135 -0.24404936 -0.200972 0.008436441 -0.34931752 0.039044835 0.1333354 0.12761475 -0.16204955 0.16165768 -0.19922364 -0.03618064 -0.5782683 0.0522662 0.054947734 0.22978048 -0.13493532 0.028149799 0.1502619 -0.21687898 -0.121424735 -0.14830796 0.18945698 0.35065013 -0.09641808 0.18164688 -0.12227536 -0.0748442 0.36715758 0.04978004 -0.20128912 -0.095023 -0.3882565 0.032209374 -0.15993008 -0.079814516 0.10039688 0.05025396 -0.08425763 -0.1655877 -0.050320663 0.12756465 0.05886539 0.2540883 -0.19714507 -0.16859512 -0.024602352 -0.15466413 0.024610577 0.13606839 -0.033812676 -0.19147341 0.001989375 -0.040736284 -0.040704425 0.13002594 -0.10230062 -0.3535256 0.28459135 0.052955937 0.2052512 -0.38042384 0.23403779 -0.2688711 0.24838284 0.14338306 0.030383136 0.24085835 0.041442033 0.016189573 0.046150252 -0.15305573 0.10136523 -0.24953087 0.055311587 -0.12578453 0.32125267 -0.16271794 0.0040802965 0.03357262 0.110295795 0.18603383 0.096591756 0.25332507 0.15539534 0.0743318 0.0024257042 0.45311567 0.16746314 0.27878016 -0.24594992 0.047726426 -0.053512037
entre -0.13476326 0.29268712 0.14273301 0.024394207 0.2387036 -0.5699571 0.13648783 0.8143636 -0.32248008 -0.28258696 0.022648692 -0.5030146 0.04597879 0.16027896 0.17972124 -0.23710074 0.20599687 -0.27363837 -0.050699662 -0.8186921 0.09774712 0.06169537 0.3227149 -0.19759488 0.011811113 0.19301254 -0.32020718 -0.18335128 -0.22400825 0.25388247 0.50164217 -0.14245918 0.2821854 -0.18809116 -0.12773916 0.51393616 0.074371405 -0.26419467 -0.15043941 -0.55285656 0.05945772 -0.23040125 -0.119612165 0.13984275 0.07391917 -0.12805678 -0.20492668 -0.08312406 0.18532413 0.10514396 0.33280292 -0.2973859 -0.21119912 -0.0363497 -0.21152826 0.050919585 0.18046619 -0.075520776 -0.29441547 0.018404923 -0.03638641 -0.044065867 0.17965712 -0.16929936 -0.5114692 0.41057414 0.075626425 0.32545146 -0.5128277 0.31531668 -0.36983177 0.3259791 0.23916034 0.05474908 0.36764494 0.08516467 0.013663938 0.05661468 -0.20673996 0.11215128 -0.33835968 0.06602579 -0.17663126 0.4692117 -0.22605991 -0.012941366 0.06238976 0.14416264 0.25629455 0.11541386 0.36481985 0.21294868 0.10279068 0.0026322284 0.64687467 0.24973978 0.35150218 -0.35113758 0.061110135 -0.08854501
vaig -0.113380186 0.2453641 0.1221771 0.012846863 0.215199 -0.4930093 0.096432745 0.6837424 -0.2702885 -0.25273684 0.026444374 -0.42598435 0.05107124 0.15542203 0.14860721 -0.18921752 0.18730111 -0.23279615 -0.024264788 -0.6905093 0.06701408 0.06859746 0.29172647 -0.17711017 0.030408585 0.17339271 -0.27314886 -0.14786427 -0.18269114 0.24138261 0.4387905 -0.11886777 0.23954742 -0.15363935 -0.106331594 0.46444488 0.061340764 -0.2387359 -0.11947116 -0.48806205 0.057204224 -0.20259583 -0.09964086 0.11634495 0.07200606 -0.10027154 -0.19400206 -0.07228888 0.1606003 0.07121393 0.30874807 -0.2263586 -0.18108101 -0.04220981 -0.19317909 0.046654403 0.14460896 -0.040264193 -0.24317566 0.010349131 -0.035794184 -0.03759694 0.14790766 -0.13932347 -0.4177967 0.341523 0.07068071 0.25143746 -0.44305572 0.28936833 -0.33341974 0.29115388 0.17828135 0.048118465 0.3125582 0.06687778 0.008098756 0.04272412 -0.17605758 0.1293817 -0.2823463 0.066134885 -0.14499052 0.38146356 -0.1974887 -0.007730933 0.037659384 0.11840182 0.23015179 0.122829065 0.31643537 0.1747278 0.077509165 -0.018675454 0.54816145 0.18768223 0.3206598 -0.29085487 0.060408186 -0.075858206
meva -0.07865403 0.18738197 0.07916374 0.0025089823 0.17547445 -0.38597423 0.07838615 0.5579958 -0.21149677 -0.20614122 0.03023984 -0.32335788 0.022806866 0.11737543 0.12078456 -0.13479772 0.14338969 -0.19273092 -0.01848355 -0.55922365 0.04331061 0.050088637 0.234806 -0.13951704 0.019746996 0.13673912 -0.20407213 -0.11957437 -0.14375044 0.19524051 0.350296 -0.11095517 0.19800562 -0.12508866 -0.071176484 0.35308748 0.037203964 -0.19303504 -0.087777436 -0.38500553 0.042562652 -0.16253391 -0.093893535 0.083940566 0.06126526 -0.09163795 -0.14569163 -0.05700905 0.1276122 0.0756641 0.23314539 -0.19637235 -0.15308674 -0.01985072 -0.1301043 0.029260073 0.12803105 -0.030860364 -0.2000698 0.014065575 -0.046664264 -0.026603239 0.126453 -0.10218948 -0.34156573 0.27950752 0.06322341 0.20858644 -0.3659863 0.22815847 -0.25272208 0.22362642 0.15684812 0.027673066 0.2375383 0.037681695 0.005206513 0.036214046 -0.1524422 0.087543376 -0.2194547 0.0486762 -0.11928774 0.3167578 -0.14091451 -0.0052656387 0.036055673 0.10126701 0.17560291 0.1031463 0.23321381 0.13784823 0.07509943 -0.011050746 0.43477404 0.15998955 0.27432677 -0.22944297 0.067915216 -0.061261818
En -0.0910092 0.22010702 0.0933003 0.011415763 0.1876991 -0.43125793 0.09753212 0.6158466 -0.25656867 -0.22848967 0.010284223 -0.36026338 0.021884298 0.14392155 0.12731266 -0.16170223 0.15917967 -0.207312 -0.026176794 -0.6026011 0.04880979 0.05798254 0.25469247 -0.14236994 0.029987756 0.14749365 -0.22281991 -0.14822234 -0.16306427 0.21461743 0.39213976 -0.118205525 0.20427361 -0.13877584 -0.09378931 0.40281615 0.043271407 -0.19757389 -0.09750337 -0.43167543 0.035015985 -0.16875738 -0.09741446 0.107352935 0.06691896 -0.08597179 -0.16766348 -0.06522633 0.13497049 0.06782348 0.26156858 -0.198139 -0.1778861 -0.044498235 -0.16005014 0.039209608 0.12664595 -0.05195794 -0.22169036 -0.001542643 -0.05169743 -0.03733528 0.12975183 -0.11380155 -0.37665138 0.3068595 0.062781885 0.21612976 -0.39159662 0.24648064 -0.28423622 0.25200242 0.15216443 0.042097643 0.27622497 0.046489965 0.008127087 0.039600827 -0.15202262 0.10366176 -0.24063581 0.04750608 -0.11284644 0.32623574 -0.15976506 -0.007577877 0.043508157 0.09971768 0.20389158 0.107008144 0.2630159 0.14299178 0.08608584 -0.016902706 0.46912527 0.1761064 0.28398314 -0.2646501 0.06875051 -0.059286725
ennuvolat -0.10687192 0.22463152 0.099490196 0.0042895195 0.18324386 -0.4439676 0.08772143 0.646649 -0.243273 -0.22070585 0.024800334 -0.39950708 0.050214227 0.1435669 0.14322421 -0.19020735 0.15208952 -0.18914402 -0.047192786 -0.62903506 0.082360156 0.054782584 0.24763626 -0.14620823 0.00021676578 0.13795085 -0.23450053 -0.15925989 -0.17090358 0.20496 0.3688616 -0.11679938 0.23090073 -0.14779389 -0.11288413 0.41584167 0.042217318 -0.22193076 -0.118249685 -0.43585402 0.06356917 -0.17080513 -0.084400386 0.10085619 0.07239601 -0.08881437 -0.16282775 -0.07353126 0.14059445 0.07618393 0.24919195 -0.24113043 -0.15778191 -0.036613144 -0.1438305 0.03771874 0.14431073 -0.053062007 -0.20601922 -0.0074347076 -0.034285624 -0.032646056 0.13478366 -0.13325386 -0.41280088 0.3359878 0.055883743 0.25126076 -0.4112239 0.25339383 -0.27697778 0.25330967 0.19279794 0.05014188 0.29277873 0.077731974 0.0209706 0.033171985 -0.18181355 0.10459216 -0.2689295 0.062516645 -0.13192783 0.36776996 -0.15491132 -0.004324457 0.045399673 0.12498324 0.20022278 0.09971061 0.28515273 0.16250876 0.08289593 1.2059034e-05 0.49489766 0.20238832 0.2690803 -0.27436006 0.04959827 -0.059886612
Ella -0.071829595 0.18121523 0.08811901 0.007011134 0.15028428 -0.36013094 0.07638989 0.50535715 -0.20595598 -0.18958615 0.020089988 -0.29926413 0.025436921 0.113317564 0.107196935 -0.13528445 0.12884738 -0.16861501 -0.019817414 -0.5052851 0.055095285 0.053346906 0.2139471 -0.1299792 0.013511326 0.12050564 -0.18816772 -0.10934025 -0.1364926 0.172198 0.32846034 -0.08979635 0.17356192 -0.116876364 -0.06481668 0.3271577 0.03933992 -0.17843369 -0.09633504 -0.3614035 0.030105347 -0.13981502 -0.08395228 0.08166197 0.053646788 -0.07310429 -0.13719416 -0.05691644 0.12997493 0.06067678 0.22602566 -0.16459435 -0.15243308 -0.035319176 -0.1230952 0.033225153 0.11051681 -0.032566573 -0.18682048 -0.0048262174 -0.043184586 -0.020446837 0.107747294 -0.109817326 -0.32011703 0.26302105 0.04999933 0.17776394 -0.33156088 0.205477 -0.24765415 0.20862174 0.14007883 0.03408703 0.21845688 0.049094927 0.0148418825 0.024107177 -0.14489925 0.09426523 -0.21939108 0.05196078 -0.1133194 0.29432684 -0.14590144 -0.013625396 0.031896107 0.09148541 0.17005633 0.09355324 0.22500603 0.1318905 0.069976725 -0.006150926 0.39693195 0.14373848 0.24408269 -0.20493925 0.04526835 -0.059142035
o -0.12277942 0.30165738 0.12523724 0.00949928 0.23905191 -0.545889 0.1340822 0.79243594 -0.31446987 -0.2715222 0.027783172 -0.49396902 0.05034918 0.16820148 0.17190808 -0.21356444 0.20083933 -0.24388744 -0.047577154 -0.7964202 0.07994664 0.061824374 0.31247216 -0.18842585 0.007940313 0.19421846 -0.30194834 -0.19265898 -0.21235502 0.2591773 0.48111674 -0.14323002 0.2869361 -0.17790474 -0.12862475 0.5262938 0.07524346 -0.25595996 -0.15258019 -0.54744637 0.057979695 -0.20886473 -0.11302652 0.13100849 0.08428767 -0.13103755 -0.20740849 -0.079104066 0.18622778 0.10113848 0.33151302 -0.2803645 -0.21728875 -0.051498756 -0.19913365 0.039037183 0.1728418 -0.060153987 -0.2684985 -0.002117262 -0.05186502 -0.04732243 0.16306566 -0.16299127 -0.49270412 0.39769924 0.07629991 0.3116063 -0.51288265 0.31147048 -0.36254603 0.32633215 0.21780555 0.06745511 0.35906732 0.08139635 0.024788149 0.044243515 -0.20366128 0.13087888 -0.33724484 0.0692637 -0.16270661 0.43974993 -0.2099026 -0.019229844 0.0508561 0.1491058 0.2544069 0.12716432 0.3452894 0.20738174 0.10266147 -0.00063023664 0.6316497 0.23523976 0.37400687 -0.32683963 0.07283252 -0.080907285
meu -0.10845594 0.24537173 0.11786241 0.003973625 0.21227646 -0.4823841 0.11439439 0.6918562 -0.28112203 -0.247616 0.015695974 -0.41817257 0.034495797 0.14493552 0.14867733 -0.17909628 0.18505459 -0.22026697 -0.031178864 -0.6933279 0.058170635 0.07147575 0.2919413 -0.1744391 0.02444894 0.18041831 -0.27223212 -0.16306143 -0.1901861 0.23312473 0.43266398 -0.12248649 0.24380001 -0.15442073 -0.1118906 0.45145682 0.05147682 -0.24247305 -0.13263708 -0.48260275 0.052476898 -0.18797661 -0.109662205 0.124219336 0.07192298 -0.110062845 -0.17725395 -0.08536517 0.15726641 0.083530486 0.2983419 -0.24281105 -0.19179386 -0.034743518 -0.19060719 0.032669507 0.1449261 -0.044169523 -0.246764 -0.005739332 -0.04034057 -0.03660871 0.14838594 -0.13178338 -0.43151638 0.35531184 0.060780954 0.24548025 -0.45212826 0.27820945 -0.33491763 0.2921308 0.18837865 0.037318975 0.30710462 0.069913186 0.0066651083 0.05191345 -0.19213706 0.12770808 -0.28100872 0.06941054 -0.14935476 0.38283578 -0.19180074 -0.009080954 0.055568483 0.12042605 0.21244693 0.10261446 0.30348656 0.1734654 0.08680533 -0.0091588255 0.5521069 0.1959454 0.33485827 -0.28378248 0.057158653 -0.06791977
hi -0.10935193 0.22628815 0.098962314 0.018389579 0.2000497 -0.42877036 0.09759044 0.6164551 -0.25411478 -0.22244908 0.015861183 -0.38317996 0.025218846 0.14170955 0.12641107 -0.17844526 0.15243901 -0.19591369 -0.02705804 -0.6196181 0.07600785 0.048763055 0.26804328 -0.15082975 0.028691243 0.15171972 -0.22933108 -0.1538735 -0.15444031 0.21886218 0.3975733 -0.10921794 0.2240461 -0.13241585 -0.08278721 0.41513804 0.05114266 -0.1974405 -0.100576214 -0.44535682 0.05184641 -0.17399581 -0.0900313 0.1036325 0.052894317 -0.09686142 -0.1640991 -0.07866472 0.15452003 0.07155138 0.2782151 -0.21042281 -0.1653864 -0.040043436 -0.17145391 0.042564724 0.13764976 -0.035303365 -0.23120824 0.0070313965 -0.040854137 -0.035181865 0.1364873 -0.13096908 -0.39698613 0.30362642 0.0674883 0.237908 -0.41473538 0.2659783 -0.29849854 0.2493925 0.16418466 0.046540882 0.26496005 0.06135625 0.019521404 0.052811094 -0.1626746 0.11109603 -0.26543075 0.055929907 -0.114781216 0.3402306 -0.17560446 -0.010643216 0.050216526 0.10736 0.20186286 0.10349179 0.272215 0.14771056 0.064164445 -0.0069350908 0.4845924 0.18850957 0.29355776 -0.27459368 0.050352473 -0.051275894
fins -0.13064188 0.2843282 0.12651166 0.0052724625 0.22587031 -0.5340198 0.10696887 0.7557829 -0.32004347 -0.27340937 0.030785996 -0.476182 0.036046177 0.1653751 0.17502268 -0.22026521 0.20739514 -0.25573894 -0.04650836 -0.7533307 0.08456666 0.0759833 0.3186105 -0.18141308 0.0076856925 0.19099903 -0.3050737 -0.1787829 -0.19618979 0.2441017 0.46385375 -0.14319168 0.26019824 -0.16186215 -0.11774327 0.5039719 0.063137434 -0.24940382 -0.1417838 -0.5310437 0.052742828 -0.20811194 -0.11246359 0.13596837 0.06946317 -0.108132906 -0.19651833 -0.08989977 0.17069061 0.09188735 0.31471965 -0.2656788 -0.19454299 -0.035116345 -0.18557046 0.03909976 0.164135 -0.07182356 -0.27449977 -0.0054417774 -0.04171833 -0.034925096 0.15854071 -0.1523003 -0.47387156 0.3845683 0.07669146 0.2892375 -0.48979452 0.31859675 -0.34663007 0.30492935 0.21874203 0.057580046 0.33618635 0.086118296 0.013489896 0.056233115 -0.20381993 0.105896935 -0.32058558 0.0679496 -0.15971377 0.4291249 -0.19994682 -0.0020795474 0.0458551 0.14139268 0.236113 0.11202969 0.33922157 0.1949943 0.09164674 -0.005713558 0.6003529 0.22676468 0.33548093 -0.31876406 0.06241416 -0.08393569
com -0.105738044 0.22780503 0.097671665 -0.0022152103 0.19597615 -0.44966242 0.0931228 0.6192744 -0.24405439 -0.22758143 0.008635994 -0.37420613 0.025859911 0.13168932 0.13961059 -0.17665923 0.15653741 -0.21543753 -0.02360734 -0.6193966 0.06312999 0.06346597 0.26423663 -0.15672415 0.029047167 0.1634883 -0.23599407 -0.13526115 -0.17374516 0.2092758 0.40641686 -0.11400127 0.20634057 -0.13748907 -0.096565776 0.40671828 0.053129606 -0.20399013 -0.10912768 -0.43516394 0.046532217 -0.16398168 -0.10614715 0.093993895 0.053547617 -0.101891264 -0.17562191 -0.06838364 0.15004015 0.07457961 0.2785264 -0.21891126 -0.17233095 -0.034376584 -0.15645677 0.046886906 0.13672163 -0.04321217 -0.22990716 -0.0020418747 -0.048694573 -0.034282044 0.13119021 -0.13027392 -0.3850518 0.32043555 0.053726714 0.23200181 -0.40272227 0.25842604 -0.30384108 0.27158356 0.17769656 0.039703343 0.27567074 0.046966147 0.008065194 0.04278188 -0.16384684 0.10403497 -0.27047992 0.06905517 -0.13620558 0.36160922 -0.16669488 -0.015042434 0.04495231 0.12221198 0.19367173 0.095350616 0.28903684 0.159857 0.090031885 -0.019012457 0.49595144 0.18747509 0.29710892 -0.2670118 0.049201798 -0.06861123
Em -0.11229633 0.2509297 0.10472134 0.0008128572 0.21361634 -0.4599125 0.09855299 0.65222484 -0.26233527 -0.23866466 0.01687257 -0.39932552 0.04605076 0.14945829 0.14213008 -0.18245621 0.17825815 -0.21441488 -0.03972698 -0.661661 0.060305085 0.06417657 0.25914824 -0.1623924 0.027827844 0.15851952 -0.24286364 -0.15081395 -0.1772238 0.21339379 0.41217 -0.11391019 0.2145618 -0.14729409 -0.104649805 0.43535355 0.052703433 -0.21537188 -0.116298504 -0.46634063 0.050024092 -0.180593 -0.097460926 0.10021265 0.052828547 -0.107324965 -0.17479028 -0.07584478 0.15313366 0.0828363 0.28752884 -0.22316381 -0.18603438 -0.035016056 -0.17874964 0.033378873 0.15357094 -0.05127272 -0.24297403 0.0068589645 -0.033086307 -0.035840344 0.14308669 -0.13622248 -0.40991223 0.31985623 0.05907829 0.23130369 -0.42779002 0.2751771 -0.29921982 0.26896837 0.17219551 0.050702345 0.28747064 0.05450655 0.015691025 0.04524858 -0.17884672 0.10443911 -0.26099357 0.07333901 -0.14415395 0.35950816 -0.1797578 -0.008319892 0.033301096 0.1281981 0.20230119 0.1097914 0.29852045 0.16397661 0.08753755 -0.010762773 0.5045498 0.18845622 0.3081158 -0.28559557 0.06734507 -0.07117617
em -0.098616235 0.24419776 0.09555818 -0.0037992825 0.22119786 -0.47880644 0.10855452 0.67262185 -0.26336536 -0.23436801 0.031446237 -0.3996938 0.028395388 0.13645498 0.13663483 -0.17923929 0.18639219 -0.217451 -0.0347795 -0.67114705 0.059269015 0.054890122 0.285667 -0.17474578 0.022371003 0.1611592 -0.24716339 -0.1625341 -0.16982508 0.21911542 0.4400226 -0.12830812 0.236693 -0.13931122 -0.08960255 0.43598232 0.052742593 -0.23596762 -0.109924726 -0.48268434 0.059966654 -0.19023691 -0.09812444 0.10466126 0.058127556 -0.10446021 -0.19300096 -0.064010255 0.15214051 0.08690678 0.29263642 -0.22517328 -0.18675634 -0.026104013 -0.18892106 0.051225796 0.15837821 -0.047674365 -0.23563269 0.0047245105 -0.0381938 -0.041791618 0.14766721 -0.1345813 -0.41374543 0.3512819 0.06164534 0.24541451 -0.44925952 0.27294093 -0.3339061 0.28371656 0.17332552 0.042505294 0.30262265 0.051848743 0.01407154 0.04300511 -0.18558608 0.10877749 -0.28784597 0.07617605 -0.14838839 0.38239375 -0.19136286 -0.012678539 0.046445925 0.110742696 0.20741622 0.101504594 0.28555715 0.16218805 0.0810513 -0.009960278 0.53182876 0.18123062 0.31920344 -0.28779504 0.05727177 -0.07218154
cel -0.09047934 0.18419231 0.07658404 -0.002410511 0.16510108 -0.3728367 0.075504 0.53769034 -0.20469067 -0.1890999 0.025716234 -0.33149463 0.03508296 0.12183188 0.11710396 -0.13940535 0.13257553 -0.15902947 -0.029296191 -0.53981185 0.050849386 0.034637917 0.20996492 -0.13595898 0.0038585009 0.11546818 -0.20234233 -0.12512869 -0.1331635 0.16420455 0.31541026 -0.08704421 0.1949985 -0.11802276 -0.08398736 0.33596843 0.037210472 -0.18805496 -0.10573655 -0.36322266 0.044589322 -0.13897447 -0.09193478 0.09566076 0.05761619 -0.0891611 -0.13839735 -0.05149786 0.11099485 0.062054805 0.22326218 -0.18987112 -0.13069263 -0.02055471 -0.121088125 0.03781252 0.122650206 -0.051736068 -0.17145075 0.0075229644 -0.038202062 -0.031772695 0.11704902 -0.10363334 -0.34708005 0.27404657 0.05152498 0.20510696 -0.3297842 0.20048444 -0.23193125 0.20155317 0.15710324 0.05169141 0.23149219 0.044723846 0.02175079 0.019860845 -0.14998254 0.07869526 -0.22755808 0.06068028 -0.09535111 0.29909942 -0.12852138 0.0042225653 0.04076633 0.10329209 0.17342542 0.08571785 0.2432179 0.14428392 0.057215326 0.012435409 0.4250544 0.16796035 0.23005301 -0.22906052 0.044095777 -0.05064447
vent -0.095787674 0.17513451 0.10795177 0.027389066 0.1435051 -0.3517427 0.089759655 0.49754623 -0.20408422 -0.19595623 0.013397536 -0.2968415 0.029461157 0.09002281 0.11458656 -0.13838758 0.1239695 -0.17797165 -0.0434253 -0.4999138 0.046613436 0.059626915 0.19416836 -0.13213016 0.020302085 0.11560576 -0.20891467 -0.10127854 -0.14347431 0.15279703 0.29063556 -0.07936821 0.156387 -0.10671398 -0.09104731 0.3308814 0.039364897 -0.16828942 -0.08362162 -0.3567987 0.041050654 -0.1435119 -0.08244351 0.07556296 0.06282108 -0.07199405 -0.12862612 -0.05858703 0.11249223 0.07150434 0.19752981 -0.19734344 -0.14369519 -0.03493387 -0.12962934 0.026478052 0.09710094 -0.05473852 -0.17263244 0.002561365 -0.016402982 -0.01613365 0.118942335 -0.1177609 -0.31413957 0.25251946 0.047712393 0.21313821 -0.30865094 0.20428239 -0.2081374 0.21564768 0.15710527 0.03937086 0.23420344 0.05711594 0.00096756517 0.017620828 -0.12370981 0.056123417 -0.18878627 0.028508456 -0.11414794 0.30218762 -0.13868634 -0.011554157 0.03665371 0.07596021 0.14257151 0.06277774 0.23147099 0.13918868 0.06433819 0.017716764 0.40208897 0.16444097 0.20158142 -0.20553605 0.027600413 -0.061358433
està -0.084023654 0.22108676 0.08861728 0.0009387521 0.1917625 -0.4100912 0.085873984 0.5913921 -0.23141311 -0.20381436 0.016045703 -0.3442137 0.04198137 0.13304076 0.13434596 -0.16093093 0.15705772 -0.19426022 -0.02228993 -0.57234216 0.0598886 0.059708152 0.24807341 -0.13638125 0.015787126 0.13664582 -0.22489673 -0.1259079 -0.15893994 0.1968453 0.3732884 -0.11541062 0.20758033 -0.12288024 -0.08461194 0.38887134 0.05084388 -0.19575475 -0.11104753 -0.397406 0.03574845 -0.15144685 -0.085512646 0.097854994 0.04630077 -0.076769575 -0.16116245 -0.0563266 0.13010079 0.06397798 0.2510839 -0.21183406 -0.16971563 -0.04199191 -0.14624757 0.03346453 0.12822104 -0.037069228 -0.20966735 -0.0045513357 -0.03587255 -0.036419727 0.12779865 -0.10758532 -0.36221 0.30089143 0.06289729 0.21110739 -0.3826881 0.24310416 -0.2720376 0.24013169 0.15722235 0.032297056 0.25923213 0.048170052 0.017838394 0.033624787 -0.15772049 0.1012653 -0.2500251 0.053770803 -0.12899539 0.32757345 -0.15771072 -0.0066772816 0.03971539 0.10474651 0.18793446 0.0936099 0.2629874 0.14451034 0.06818576 -0.010461445 0.45040244 0.1589339 0.2776652 -0.24179754 0.05047629 -0.06752804
seu -0.097073525 0.2140535 0.082055785 0.014426368 0.1850484 -0.39268088 0.07903513 0.5737113 -0.23806062 -0.19465499 0.011129222 -0.3485537 0.037876103 0.12346426 0.12550251 -0.1560279 0.15909925 -0.19973797 -0.01833057 -0.5732064 0.048499368 0.05597415 0.23347346 -0.1366004 0.0143382335 0.13230138 -0.22659193 -0.14016958 -0.15820953 0.18542181 0.37304723 -0.10630271 0.18606816 -0.12728547 -0.078332014 0.3692825 0.049281824 -0.19883288 -0.09605525 -0.40642202 0.037225034 -0.14755768 -0.09873565 0.096818425 0.051814113 -0.07411985 -0.15089944 -0.059757628 0.1355216 0.06906195 0.24990705 -0.19850886 -0.15475342 -0.021931749 -0.13994996 0.030787138 0.12626529 -0.034131877 -0.21145667 0.001839127 -0.046129737 -0.024016201 0.11274274 -0.110634655 -0.3431784 0.2844278 0.04857996 0.19650121 -0.3660051 0.22414988 -0.2646367 0.23301874 0.16023085 0.03647437 0.24251355 0.045265477 0.012746043 0.03439119 -0.14664255 0.095809884 -0.24359198 0.05939774 -0.12016327 0.30963066 -0.16538027 -0.01094224 0.039112326 0.10748091 0.19179033 0.10140103 0.25769395 0.14432736 0.06668595 0.0043982607 0.44958705 0.16477892 0.270766 -0.23144595 0.060661875 -0.060863867
té -0.08486166 0.19122139 0.087473564 -0.0030585902 0.17160825 -0.36230522 0.08127923 0.51938397 -0.22067167 -0.1794299 0.006133047 -0.32638994 0.034406424 0.104667306 0.10852506 -0.14170143 0.13801017 -0.18015353 -0.022142682 -0.52321976 0.05172196 0.047460485 0.22361939 -0.1376307 0.021184564 0.1252899 -0.19703756 -0.12896422 -0.13982351 0.16769244 0.32800302 -0.08449848 0.1817867 -0.10839577 -0.08495082 0.34679195 0.035634376 -0.18070713 -0.09837695 -0.37376556 0.04533539 -0.14720188 -0.07845617 0.09104635 0.04087308 -0.08075509 -0.14532866 -0.0664963 0.10823078 0.062005885 0.23056118 -0.18148758 -0.15238516 -0.023259364 -0.13680652 0.020227127 0.1229348 -0.029080618 -0.19362344 0.00018108042 -0.027962063 -0.0327241 0.113745466 -0.10879822 -0.3173753 0.27260336 0.05561042 0.18617034 -0.3425792 0.20588729 -0.2591215 0.22562699 0.13859077 0.0322415 0.2365524 0.03641162 0.018710852 0.027006315 -0.14680094 0.093417615 -0.22145683 0.047448806 -0.11373389 0.28826004 -0.14716525 -0.012129547 0.046236165 0.10337835 0.16637726 0.08565111 0.22356482 0.13999061 0.059499595 -6.4566055e-05 0.42166585 0.15548465 0.24862438 -0.2138558 0.057388626 -0.05443001
fluix -0.10903398 0.21917672 0.13595681 0.023829041 0.17649077 -0.445042 0.091184765 0.60817283 -0.26068047 -0.22717643 0.01116684 -0.37004772 0.036967903 0.13427891 0.1614473 -0.17319863 0.14410119 -0.20818116 -0.070845135 -0.6308 0.08373673 0.047681104 0.25277767 -0.16243899 0.0023481746 0.13985112 -0.25931156 -0.11306699 -0.1806242 0.1860633 0.36823037 -0.09393557 0.20590952 -0.13739331 -0.111758545 0.3890343 0.05422778 -0.18807028 -0.118050225 -0.4271637 0.04899124 -0.16321512 -0.09438467 0.096749365 0.06903626 -0.074541226 -0.15634173 -0.04871556 0.124828056 0.104321964 0.24418084 -0.24953248 -0.17251255 -0.0476829 -0.14369723 0.037235107 0.11563832 -0.055437922 -0.22765125 -0.0036572234 -0.022248538 -0.020222684 0.13602456 -0.1335243 -0.36659804 0.3036113 0.076016724 0.26649016 -0.3828733 0.26358393 -0.26852483 0.24675266 0.19272955 0.05001606 0.27459908 0.080732375 0.0071243015 0.02140212 -0.1537522 0.05525775 -0.23327743 0.0397232 -0.14699548 0.36966163 -0.17296217 0.0024274765 0.051878672 0.092406355 0.17507984 0.07606762 0.2921543 0.15351808 0.060454346 0.024637116 0.47550452 0.20863159 0.23658982 -0.25783822 0.040486496 -0.08063547
component -0.107968405 0.20610063 0.12152594 0.020740319 0.1632413 -0.4328729 0.09566352 0.61228436 -0.2424373 -0.22396234 0.007987084 -0.3577461 0.016931595 0.12590691 0.15160082 -0.17534639 0.13940564 -0.21605416 -0.07369687 -0.5941549 0.07860347 0.054749485 0.25555357 -0.16480523 0.008948223 0.13419458 -0.25514245 -0.1328694 -0.16288786 0.18591739 0.3492275 -0.09023212 0.1929008 -0.14259622 -0.10331284 0.38434398 0.042339325 -0.19672774 -0.1205003 -0.41663384 0.040183485 -0.16634732 -0.08194136 0.09588321 0.079439886 -0.06743905 -0.16294828 -0.053520184 0.13329251 0.103009604 0.25121582 -0.23877257 -0.15978464 -0.04227253 -0.14837301 0.026506197 0.12002728 -0.070442036 -0.21354768 0.0075291223 -0.019586533 -0.024856145 0.14067693 -0.14860198 -0.35473973 0.30264705 0.07226158 0.25905263 -0.37824693 0.25183523 -0.25510138 0.23199737 0.18257558 0.036252014 0.2603406 0.07475839 0.01865047 0.03035984 -0.13701059 0.056851856 -0.23796749 0.052991435 -0.14967053 0.34594616 -0.15635751 -0.008815223 0.054419365 0.10483921 0.16712248 0.09000504 0.28852102 0.14686646 0.055442464 -0.00071064825 0.47381058 0.20475611 0.23689975 -0.2591208 0.033006698 -0.075900204
seva -0.08065141 0.19036607 0.07920849 0.0078359535 0.1625432 -0.39183947 0.08956582 0.5569011 -0.22897126 -0.18941437 0.026202058 -0.32879084 0.024861015 0.12906125 0.10843962 -0.14945436 0.14984837 -0.19101857 -0.036295228 -0.54538274 0.05982936 0.048192356 0.22219352 -0.12868465 0.015234043 0.12892233 -0.20131885 -0.13042462 -0.1406289 0.18766478 0.35885653 -0.09199575 0.19395956 -0.12812689 -0.079180054 0.3580028 0.04890471 -0.17595942 -0.0905503 -0.3910199 0.052731644 -0.15253355 -0.08630457 0.095599934 0.045631215 -0.081423335 -0.14861104 -0.05123383 0.13239461 0.06399322 0.22798803 -0.1925091 -0.14382094 -0.038053483 -0.13206187 0.032966953 0.12089279 -0.030178921 -0.18468533 0.012860278 -0.027237246 -0.039872732 0.12723409 -0.12048504 -0.34420633 0.26608837 0.057229865 0.20650686 -0.36085963 0.21981165 -0.2616683 0.2212229 0.14508101 0.038817186 0.24265587 0.04645524 0.007190915 0.03365372 -0.15049684 0.09769177 -0.2166951 0.06318357 -0.119926155 0.29926896 -0.16172701 -0.015485259 0.039264284 0.09261953 0.17853475 0.101874106 0.2461816 0.13888745 0.07966216 0.00048677874 0.4312336 0.14967652 0.2588461 -0.22306518 0.061093014 -0.057260927
cap -0.08535285 0.21534276 0.1073111 0.007837045 0.18697496 -0.4062682 0.07922208 0.5874521 -0.25038317 -0.2147442 0.018859914 -0.3424046 0.028000858 0.1364605 0.13503945 -0.15593551 0.14512676 -0.18426679 -0.04442835 -0.58703136 0.068647295 0.043698028 0.24834886 -0.14656968 0.015796036 0.13315268 -0.23231433 -0.13635911 -0.14480431 0.2009604 0.35141137 -0.11296631 0.202998 -0.13627727 -0.08157263 0.38902056 0.039036494 -0.18140984 -0.093726784 -0.40714055 0.047039427 -0.16825528 -0.08299485 0.10961473 0.06090181 -0.09342188 -0.15301809 -0.06733772 0.13272195 0.077323034 0.25167945 -0.20133398 -0.16708893 -0.028462999 -0.15775055 0.03511084 0.13401899 -0.040757105 -0.19832171 -0.0018692154 -0.031144302 -0.020400463 0.123497896 -0.116244 -0.37366956 0.30201057 0.06799782 0.22784264 -0.37139714 0.24371736 -0.27409363 0.23265575 0.15702301 0.04177962 0.25442758 0.045379806 0.008165383 0.049357735 -0.14411871 0.09710266 -0.24895795 0.05702758 -0.12982994 0.33553967 -0.16065174 0.0017024192 0.032031152 0.100963004 0.18492612 0.09113093 0.25449628 0.13956285 0.07266493 -0.014979601 0.4629931 0.17537189 0.26155904 -0.25437498 0.03980867 -0.05888102
li -0.08590963 0.22273119 0.08682867 0.019152816 0.1831915 -0.41869143 0.09893378 0.60735846 -0.25692815 -0.21239927 0.006913054 -0.37570524 0.04246326 0.12433501 0.118783586 -0.16665651 0.1680498 -0.19869912 -0.034393504 -0.6103598 0.06575249 0.069887094 0.26207626 -0.14367464 0.023249738 0.15319574 -0.22688769 -0.1375937 -0.15556881 0.20496088 0.3834583 -0.11995257 0.21373491 -0.13750063 -0.08574643 0.39554957 0.048276708 -0.20980299 -0.1016721 -0.43145204 0.040325377 -0.16995704 -0.09055689 0.108536005 0.05365813 -0.08207331 -0.17427632 -0.07255644 0.13373855 0.06496211 0.27131942 -0.21696484 -0.17944515 -0.045456037 -0.14960589 0.034196466 0.13652258 -0.048644677 -0.22047178 0.0052272216 -0.042979967 -0.04101254 0.12622559 -0.11749502 -0.384491 0.3053023 0.06019702 0.2275325 -0.3938765 0.2526192 -0.29607597 0.24224345 0.16650333 0.038681902 0.25880414 0.050350934 0.023055494 0.031261735 -0.16672273 0.1051423 -0.25114098 0.07161212 -0.1255206 0.3277631 -0.17789887 -0.021173978 0.030527879 0.1006774 0.18817426 0.099253975 0.2651609 0.14730379 0.07914779 -0.0028116675 0.48980743 0.16610743 0.29333735 -0.2470836 0.053961456 -0.06474338
moderat -0.10120703 0.18338573 0.12151097 0.029387163 0.16592772 -0.39863217 0.09471588 0.5529776 -0.21908371 -0.21310364 0.013550513 -0.33852312 0.0151738105 0.11261018 0.14557384 -0.15127353 0.12506704 -0.18452725 -0.061751314 -0.53944355 0.055564053 0.061994758 0.21219617 -0.14588675 0.01083422 0.1237449 -0.23142336 -0.11189929 -0.15133044 0.16842744 0.3296947 -0.08738483 0.18831821 -0.11814572 -0.10273174 0.35873687 0.054077063 -0.17005685 -0.09328849 -0.38458195 0.047129206 -0.15155454 -0.07938902 0.08597728 0.06302097 -0.06460317 -0.1535805 -0.04154304 0.12276762 0.0818451 0.2176221 -0.21714303 -0.13777782 -0.028899273 -0.14299987 0.038824856 0.11162566 -0.062517576 -0.18583524 0.00966507 -0.018698812 -0.008001326 0.11362736 -0.13375765 -0.33598337 0.27089718 0.05999666 0.2292562 -0.3534898 0.2283884 -0.2313291 0.22434993 0.1732422 0.038607135 0.2542038 0.062515624 0.020730032 0.028899016 -0.12635173 0.05095813 -0.21298501 0.044531867 -0.12389631 0.33022788 -0.15782197 0.009748147 0.038400955 0.08891402 0.15469591 0.06167245 0.25293636 0.14483051 0.07177504 0.02233599 0.41834307 0.18509993 0.21180095 -0.23075199 0.048416205 -0.06471902
Els -0.0959317 0.18720777 0.08981575 0.009029098 0.15491818 -0.3702096 0.08538446 0.53782463 -0.21318717 -0.1882578 0.003727056 -0.31756252 0.034063596 0.10585488 0.11213891 -0.14241178 0.14115582 -0.17855504 -0.03606899 -0.5341907 0.058791205 0.051283646 0.21902832 -0.12877509 0.009812471 0.122601464 -0.19389975 -0.13489282 -0.14369582 0.17560475 0.32523295 -0.09461079 0.18990798 -0.11676231 -0.07093661 0.35036188 0.0408694 -0.18086167 -0.09395234 -0.36619022 0.050099365 -0.14119019 -0.09095317 0.08031642 0.05750592 -0.0754131 -0.1404073 -0.05634957 0.13262394 0.053173304 0.23674242 -0.19677849 -0.14978929 -0.022238683 -0.1490841 0.03849873 0.10788844 -0.04749776 -0.18508607 0.006389253 -0.036826894 -0.01776414 0.108383566 -0.10864354 -0.3188995 0.26991156 0.045676187 0.20201184 -0.35033554 0.21543086 -0.24573918 0.2291223 0.1540712 0.028556323 0.24373037 0.04094455 0.020267433 0.02351335 -0.15186764 0.085090354 -0.22982886 0.04699829 -0.110417195 0.299604 -0.15811622 -0.015022451 0.0253923 0.09384582 0.17411637 0.08455684 0.24767555 0.13078344 0.073388696 0.0019804786 0.4284876 0.15556945 0.24865599 -0.2245396 0.036642455 -0.041993357
són -0.08248089 0.19560649 0.08633832 0.012927803 0.15534782 -0.36485788 0.08006415 0.50981754 -0.21672532 -0.18662836 0.010777107 -0.31427515 0.032857284 0.11140777 0.1135604 -0.14393191 0.12672469 -0.16072492 -0.021010462 -0.50094324 0.05509444 0.039531454 0.21601573 -0.13144471 0.0049826805 0.13441813 -0.19735415 -0.12858364 -0.13636084 0.17440642 0.31324574 -0.08701039 0.17144927 -0.10416987 -0.07520601 0.31884104 0.03946415 -0.15979734 -0.08632177 -0.36217305 0.049352553 -0.12995791 -0.0711759 0.08499652 0.037018795 -0.078872986 -0.13188022 -0.06054812 0.1279876 0.048554506 0.20530345 -0.18444288 -0.13209833 -0.03806948 -0.12183269 0.020991238 0.11554094 -0.033524793 -0.17870061 0.015231497 -0.026449356 -0.026366772 0.1140901 -0.09548568 -0.30917338 0.2654267 0.04981714 0.17927304 -0.3323892 0.20027164 -0.246137 0.20639025 0.14668055 0.026364038 0.22813466 0.05101539 0.011707095 0.032632504 -0.13010956 0.073537715 -0.20501071 0.059785713 -0.107071556 0.2769763 -0.15029404 -0.018020345 0.037754726 0.09437461 0.16865909 0.07805942 0.22566089 0.13148704 0.04954093 -0.01462083 0.40525973 0.13687028 0.23088917 -0.22008307 0.053670704 -0.053047914
aquest -0.09185104 0.23661365 0.09860435 0.0067223725 0.20410298 -0.45218363 0.108616635 0.6483878 -0.2570778 -0.23697928 0.011254511 -0.38739774 0.03478906 0.1332203 0.14571047 -0.16507623 0.16487616 -0.20834412 -0.026382478 -0.6388391 0.07159378 0.05915043 0.25919458 -0.15712802 0.010121442 0.1674218 -0.25406817 -0.15116283 -0.1708833 0.21827812 0.40926507 -0.12632325 0.21572381 -0.13586603 -0.09027116 0.42394608 0.05242129 -0.2145778 -0.118894756 -0.4444832 0.042074937 -0.17396763 -0.102698535 0.10023585 0.06706496 -0.09621353 -0.18487747 -0.08033994 0.14997612 0.06701045 0.2793482 -0.21581657 -0.1738088 -0.041620716 -0.15972091 0.028174458 0.14849459 -0.047274217 -0.22983098 0.0077059832 -0.042763397 -0.04074055 0.13560605 -0.1361039 -0.39853305 0.31541455 0.070835985 0.226034 -0.41983438 0.24969834 -0.3136764 0.26318592 0.16127035 0.035151172 0.28138214 0.056592803 0.017563691 0.052438628 -0.18318722 0.11389306 -0.27382135 0.0701741 -0.12219752 0.36773175 -0.18547009 -0.0038036508 0.03443416 0.11433618 0.19796345 0.09552159 0.29000965 0.16476406 0.07417261 -0.017045617 0.50756395 0.18012822 0.29228052 -0.27530128 0.057073656 -0.05229304
És -0.08749931 0.19474849 0.08766449 0.0014234434 0.15705197 -0.3563015 0.08163087 0.5053286 -0.20750742 -0.19058524 0.020990103 -0.31723344 0.019290742 0.11105636 0.110818334 -0.13488793 0.13462234 -0.16340725 -0.023814317 -0.4971826 0.044402085 0.04091938 0.20043716 -0.114719056 0.0155503 0.11947743 -0.18664679 -0.10924254 -0.123815015 0.16210698 0.3145684 -0.09498175 0.16619723 -0.103813335 -0.070499726 0.32289824 0.049650434 -0.17905857 -0.08146602 -0.3610793 0.04287623 -0.14327441 -0.07530175 0.09281636 0.045866575 -0.08167288 -0.14673316 -0.051750712 0.12057055 0.0665371 0.21209435 -0.1853483 -0.13291822 -0.032297753 -0.12792209 0.038054023 0.10709706 -0.03592943 -0.18274628 -0.0055869324 -0.037805244 -0.028045133 0.101216145 -0.10366658 -0.31691638 0.26291227 0.053273913 0.19177885 -0.32339996 0.20121057 -0.24550925 0.21929662 0.1415712 0.02310278 0.22836179 0.053574186 0.020605652 0.025181215 -0.13731869 0.08507505 -0.20785543 0.048406027 -0.10815334 0.29005906 -0.13074654 -0.007838071 0.027831912 0.08707969 0.15471976 0.08696365 0.22489585 0.123736985 0.054133926 -0.007016565 0.40431377 0.15123539 0.24286951 -0.21657698 0.055716004 -0.04813919
aquesta -0.11221546 0.2667607 0.106966846 0.01790757 0.23219277 -0.4877881 0.113582894 0.70649743 -0.28818518 -0.26001716 0.02134585 -0.4256221 0.032483917 0.15413427 0.15697704 -0.19720154 0.18890828 -0.22372729 -0.043950982 -0.7013302 0.059629746 0.05761354 0.2987233 -0.18020861 0.018885896 0.16495508 -0.27859682 -0.17179175 -0.18497872 0.23747921 0.4356436 -0.13744448 0.2366615 -0.15262993 -0.11151047 0.45590514 0.0628485 -0.2330331 -0.1156983 -0.4891729 0.055221904 -0.19102171 -0.099111356 0.120276146 0.0665092 -0.104863726 -0.20098194 -0.07097147 0.16777839 0.08292507 0.31272346 -0.2503039 -0.19081484 -0.046888962 -0.1944335 0.043485586 0.16108416 -0.044400007 -0.2593269 0.007995153 -0.042492542 -0.03377111 0.14997251 -0.13770458 -0.4296758 0.34499297 0.061608244 0.26732457 -0.4562189 0.2739505 -0.3391804 0.29145664 0.19699809 0.04476447 0.30642918 0.057491776 0.0073053143 0.04894247 -0.18965045 0.109683946 -0.29150027 0.060387123 -0.14636149 0.3987993 -0.19169457 -0.00045866755 0.053139787 0.12595963 0.23029102 0.1204569 0.32119375 0.18700497 0.092274986 -0.0031293489 0.56169873 0.20175837 0.32616308 -0.28857148 0.06696115 -0.073728375
sud -0.090127856 0.1686441 0.11653694 0.021430675 0.14927076 -0.350597 0.09338892 0.50171906 -0.21648364 -0.19043402 0.0075577158 -0.312181 0.02101339 0.09540809 0.13418055 -0.14909221 0.1119874 -0.18062985 -0.05461859 -0.5162482 0.060438953 0.05300716 0.20025834 -0.117469534 0.0057209996 0.107018106 -0.20615117 -0.105683625 -0.14915664 0.15150794 0.29281345 -0.087096356 0.17087021 -0.122265875 -0.09214849 0.32640418 0.041825376 -0.15682784 -0.092533864 -0.34345102 0.047908574 -0.14777373 -0.06866385 0.091666415 0.05715156 -0.057301976 -0.14103197 -0.050846707 0.10324182 0.08705519 0.19145761 -0.20378862 -0.13351272 -0.03936347 -0.11485033 0.021923184 0.09537955 -0.036499828 -0.1866436 0.015706345 -0.025606316 -0.010887244 0.1104543 -0.12280432 -0.31860954 0.24561965 0.06615335 0.22097129 -0.3168072 0.21413045 -0.209203 0.20961545 0.15999635 0.02385739 0.23936602 0.048695993 0.00739824 0.030372659 -0.115028806 0.040761102 -0.19809113 0.04658104 -0.12230204 0.30569133 -0.14297946 0.009933747 0.026793903 0.09012205 0.1578886 0.0527509 0.234092 0.12264022 0.067098826 0.0204555 0.38695922 0.1619345 0.20024525 -0.22631039 0.037190583 -0.06745484
dia -0.09595932 0.20448685 0.1103679 0.021993803 0.17505658 -0.41459984 0.0811227 0.5995327 -0.23887126 -0.19589517 0.01862716 -0.36138555 0.035698466 0.13861418 0.14184184 -0.1537392 0.13966475 -0.20292144 -0.031462267 -0.59661597 0.06572446 0.06374767 0.23742202 -0.1337193 0.0018618755 0.1484547 -0.2200746 -0.1268793 -0.16906847 0.20572725 0.37307623 -0.109506175 0.20369224 -0.121679395 -0.09237636 0.38903233 0.047034126 -0.19715461 -0.10526482 -0.4127704 0.046711624 -0.1688312 -0.08421348 0.11254766 0.063509345 -0.07832863 -0.16616108 -0.05368803 0.12777573 0.066494755 0.25715366 -0.20694208 -0.16453819 -0.040347695 -0.14188185 0.03701996 0.13819613 -0.056106754 -0.20638403 0.00654671 -0.033231463 -0.025749817 0.11590592 -0.118320495 -0.37003857 0.30888253 0.060210396 0.2356711 -0.37625986 0.24584256 -0.2770935 0.22994198 0.16427726 0.036488958 0.27294523 0.06111167 0.008385788 0.045978628 -0.15254702 0.075395435 -0.23499389 0.053049363 -0.13172781 0.343791 -0.15319206 0.0054435753 0.040928926 0.11480993 0.18812993 0.07829817 0.27595168 0.1452601 0.057825852 0.007620622 0.45467213 0.18059386 0.25609362 -0.24022378 0.044350155 -0.052036233
temperatures -0.09133288 0.23523425 0.1038184 0.0076615587 0.18318367 -0.4327553 0.11056892 0.6223021 -0.24803828 -0.21468619 0.0060865064 -0.38022134 0.027092785 0.12748691 0.13770945 -0.17549609 0.1575126 -0.21324477 -0.04496466 -0.6377849 0.075158015 0.06752135 0.25634566 -0.15969853 0.023124307 0.15492691 -0.2525586 -0.15109138 -0.16552432 0.22036067 0.39520633 -0.103329286 0.22283788 -0.13467011 -0.08663628 0.42324775 0.06783883 -0.19596463 -0.12293788 -0.43543395 0.039954502 -0.18157247 -0.10642095 0.10849493 0.05819013 -0.10415241 -0.16399124 -0.05699478 0.1504204 0.08298491 0.26029897 -0.22936924 -0.16445024 -0.03893497 -0.17196113 0.041419987 0.13219392 -0.053885225 -0.21938927 0.011794154 -0.031538956 -0.033877026 0.14484973 -0.12428784 -0.38105324 0.3172162 0.064050585 0.24740757 -0.41811553 0.2593676 -0.29322496 0.26685172 0.16831598 0.038935415 0.2673656 0.05642324 0.01199558 0.032241073 -0.16402821 0.11036983 -0.2519901 0.045686387 -0.13886634 0.35011306 -0.16833763 -0.017876431 0.04754532 0.114403926 0.19397086 0.110779986 0.28954074 0.16067816 0.08142952 -0.016813915 0.4839411 0.1798014 0.30382815 -0.25979382 0.06562564 -0.06934789
si -0.12392278 0.29226407 0.12793623 0.00947442 0.25439072 -0.56684434 0.12869303 0.7993807 -0.32442102 -0.28792426 0.013229976 -0.49012744 0.038162947 0.17326716 0.16615762 -0.21510272 0.19759591 -0.26607233 -0.042075012 -0.8037364 0.08051793 0.0864786 0.33304012 -0.18969716 0.016970785 0.19532092 -0.30361694 -0.18183286 -0.19836013 0.26499143 0.50887054 -0.13899866 0.27521306 -0.16330692 -0.123045266 0.51531917 0.07587212 -0.25580844 -0.13373303 -0.55987865 0.07301086 -0.21607044 -0.12358435 0.14285927 0.07979893 -0.115315735 -0.21533464 -0.09579205 0.18269 0.09536456 0.33652085 -0.26600036 -0.20788625 -0.05409213 -0.21349971 0.04285218 0.17516106 -0.061763003 -0.28308356 0.0021696382 -0.04731095 -0.031340286 0.16597079 -0.17175837 -0.48849416 0.3924221 0.088874 0.29682255 -0.5216951 0.31260148 -0.38664958 0.33063665 0.2164388 0.055580195 0.34728554 0.07439334 0.020722358 0.05022172 -0.22081497 0.130911 -0.32594115 0.07444699 -0.16441514 0.44277948 -0.21026511 -0.012926722 0.06045166 0.13932659 0.24057369 0.11928691 0.34769008 0.2022036 0.10418739 -0.007318784 0.636305 0.2298614 0.38005504 -0.3352318 0.0696674 -0.0702805
Vaig -0.098432496 0.23631379 0.09239627 -0.0005807014 0.19156496 -0.4362928 0.0929549 0.61737376 -0.25619406 -0.2304603 0.025416907 -0.3802167 0.03256375 0.13163695 0.13148066 -0.17526813 0.16413435 -0.20604073 -0.022616973 -0.62903243 0.05424004 0.056443095 0.2575926 -0.1579631 0.010531831 0.14551628 -0.23328014 -0.15250729 -0.1650314 0.20715488 0.392496 -0.12226427 0.21965064 -0.1341201 -0.092944756 0.39487326 0.04551613 -0.205601 -0.104524545 -0.42942813 0.05681689 -0.17768702 -0.09631605 0.09992433 0.055768915 -0.08773487 -0.16641411 -0.07523964 0.14577481 0.07996809 0.25777158 -0.21138586 -0.1751828 -0.023658048 -0.15799664 0.03992119 0.13490263 -0.054635722 -0.21078038 0.0014829537 -0.031196855 -0.029085679 0.123592764 -0.1266207 -0.3787989 0.30914113 0.07246369 0.22196442 -0.4054536 0.25336084 -0.29656398 0.24791975 0.16835232 0.046354253 0.26606083 0.05294426 0.0055920696 0.041696165 -0.16971004 0.111413345 -0.25646263 0.06341068 -0.1290972 0.35520864 -0.17194739 -0.01749015 0.032304812 0.11163953 0.20590477 0.102714665 0.26946208 0.1490196 0.06685702 -0.0023042185 0.47703704 0.18150339 0.2936787 -0.2617902 0.04645864 -0.0523068
tot -0.115486495 0.24822615 0.110720724 0.020654332 0.22023503 -0.5039365 0.10785713 0.7145461 -0.29790714 -0.2575438 0.019197723 -0.44060397 0.04001844 0.15444759 0.16577318 -0.19181533 0.18635681 -0.22343872 -0.046729606 -0.7002033 0.07038627 0.062604144 0.2782782 -0.1718591 0.022285204 0.1737407 -0.27984327 -0.16565017 -0.19229007 0.24157141 0.43234995 -0.12343099 0.23473723 -0.15953124 -0.11623672 0.46243182 0.052188367 -0.24283752 -0.13137613 -0.49715617 0.051095325 -0.19183871 -0.10190287 0.11725296 0.0592155 -0.10327532 -0.1851999 -0.08080898 0.15639073 0.08983974 0.3079656 -0.25941145 -0.18321346 -0.05177678 -0.1908759 0.037380733 0.15764031 -0.05410401 -0.24471569 0.012967438 -0.0395918 -0.04003208 0.14474909 -0.15264776 -0.44208932 0.3680431 0.061615452 0.26913145 -0.4499559 0.2808318 -0.33711416 0.2839565 0.1850206 0.039917126 0.31654117 0.05970286 0.012143052 0.051785626 -0.18781212 0.103064865 -0.29745492 0.07160466 -0.14248127 0.3957471 -0.19462635 -0.0043513966 0.046310794 0.125188 0.22887714 0.10116663 0.32109264 0.1683036 0.08503108 0.0010348881 0.55206597 0.21172866 0.33419317 -0.30725998 0.06337784 -0.07542924
fa -0.13926683 0.29919413 0.13894604 0.021425832 0.24811174 -0.57440513 0.118581414 0.81602925 -0.327968 -0.3025882 0.025526693 -0.5046884 0.046249263 0.18090859 0.1685833 -0.21683441 0.21573977 -0.27939376 -0.043759663 -0.8134593 0.066672966 0.070958324 0.33673558 -0.18929724 0.025590317 0.21215136 -0.32232654 -0.18013826 -0.21747802 0.26547712 0.50764966 -0.14358541 0.27599835 -0.16568637 -0.12241975 0.5372444 0.07588213 -0.28573707 -0.14450304 -0.58024323 0.053707413 -0.22324507 -0.12624767 0.13214013 0.0720366 -0.13133165 -0.2264274 -0.087338276 0.19775215 0.104405016 0.34806174 -0.2763594 -0.22932766 -0.049491838 -0.2171679 0.042544626 0.18267338 -0.069356546 -0.29921466 -0.0025696307 -0.045045882 -0.04237816 0.18185323 -0.15685576 -0.51223433 0.40637025 0.09190107 0.3034463 -0.5234232 0.34051293 -0.37711462 0.33440143 0.21863165 0.059751198 0.3645715 0.08583853 0.009317944 0.0476211 -0.21326448 0.13810442 -0.33657843 0.08797685 -0.15924682 0.44940045 -0.22895175 -0.02243637 0.061396822 0.15106615 0.25595054 0.13494833 0.37053072 0.21386366 0.10947339 -0.007794592 0.6454281 0.24355191 0.3882773 -0.34258288 0.064938135 -0.07625614
fer -0.11730654 0.25603706 0.10426008 0.008061274 0.21353753 -0.4753112 0.095055856 0.67890495 -0.2814476 -0.25127184 0.023618652 -0.41143715 0.043616697 0.13940802 0.14636397 -0.180538 0.1870455 -0.23370819 -0.029609429 -0.68725514 0.05659836 0.06497033 0.27590337 -0.16764913 0.014040386 0.17181674 -0.26918313 -0.1556929 -0.17234877 0.2259388 0.4262796 -0.11590439 0.22043644 -0.15438229 -0.09610848 0.4503621 0.04945426 -0.23633328 -0.11866054 -0.48353586 0.05619334 -0.1775679 -0.11184585 0.10590984 0.07173657 -0.10250939 -0.18901321 -0.0769346 0.14703938 0.07655065 0.28614983 -0.23245086 -0.18652263 -0.028624287 -0.17139845 0.038910896 0.13792408 -0.04756473 -0.24698944 0.012468643 -0.039774463 -0.03784802 0.1526783 -0.14030804 -0.42148882 0.34017965 0.07870569 0.2539527 -0.4349977 0.2770656 -0.32347685 0.289203 0.17335351 0.041714728 0.29010093 0.07108641 0.011369203 0.04127603 -0.17302652 0.10313742 -0.2827696 0.06948021 -0.1450676 0.38688666 -0.18408969 -0.014623876 0.04868695 0.12967822 0.21622977 0.11629467 0.29103088 0.16594298 0.095810235 -0.0014201791 0.53350216 0.19078775 0.3245565 -0.28209043 0.07213082 -0.06544885
ser -0.09171454 0.22936034 0.096698776 0.0089409305 0.20437728 -0.45195764 0.10378426 0.6312125 -0.2692513 -0.22092319 0.024850026 -0.39282322 0.02913152 0.13537142 0.13631965 -0.16084655 0.17392607 -0.21670742 -0.03507 -0.64624286 0.050831746 0.06961715 0.25393167 -0.15677747 0.011588378 0.16861917 -0.23986651 -0.14807925 -0.1627578 0.21414617 0.41698253 -0.121011615 0.22209486 -0.14311275 -0.083767556 0.43045124 0.064606726 -0.21631652 -0.11401238 -0.45942014 0.060606938 -0.18699779 -0.110323064 0.11094972 0.056478515 -0.087951176 -0.1844574 -0.060490113 0.15201296 0.06750974 0.28147772 -0.22702192 -0.17217262 -0.024351425 -0.17724179 0.046398323 0.1465712 -0.04102936 -0.23665074 -0.003292705 -0.052734204 -0.028949866 0.13378796 -0.12453511 -0.38938785 0.33217254 0.06902006 0.23256947 -0.41303912 0.26412708 -0.3133766 0.25881422 0.17119499 0.04676844 0.27844116 0.04588631 0.012247753 0.048837025 -0.16413346 0.11237821 -0.26960245 0.05974904 -0.13492803 0.35362053 -0.18834636 -0.011173954 0.043476257 0.12044865 0.20770633 0.114419416 0.27456093 0.17072071 0.07860987 -0.008387022 0.50163764 0.17714141 0.30247608 -0.2770883 0.0710668 -0.057312965
cops -0.113513134 0.23449162 0.13401702 0.01211507 0.19726813 -0.45838362 0.10560324 0.6477436 -0.27944472 -0.23319854 0.01531494 -0.40331385 0.032800652 0.12852605 0.16535431 -0.19220887 0.15991925 -0.21613568 -0.059338413 -0.65430903 0.081840664 0.06338654 0.2518433 -0.16316102 0.001148137 0.14866829 -0.25493908 -0.13490991 -0.1844486 0.21525206 0.3995886 -0.124809526 0.21366522 -0.15004347 -0.12065034 0.42496067 0.060274955 -0.20747682 -0.11103489 -0.4536886 0.05172776 -0.191607 -0.09577339 0.120898865 0.070535526 -0.089549944 -0.16387884 -0.06142794 0.13579619 0.10119975 0.28169614 -0.2610785 -0.16351411 -0.052330952 -0.1659873 0.046608716 0.12858433 -0.06731509 -0.24283165 -0.007756338 -0.04052293 -0.011872702 0.14514099 -0.15705308 -0.39058846 0.33759713 0.08234331 0.27641708 -0.42658174 0.26529416 -0.28429487 0.26939735 0.19707455 0.033452474 0.29959133 0.08549986 0.0052744946 0.050469298 -0.15800689 0.07285135 -0.26819697 0.04385417 -0.1519923 0.38205856 -0.18264869 0.006035646 0.032854628 0.102079906 0.20360488 0.10045144 0.30313966 0.17523803 0.088296935 0.0019221137 0.51846707 0.19225207 0.27352482 -0.2837612 0.060423184 -0.07805549
nord -0.08002221 0.1601882 0.098043114 0.011140237 0.12933475 -0.3358556 0.07795586 0.47293463 -0.19871923 -0.17002274 0.0068816724 -0.2723106 0.021110822 0.090138756 0.1132628 -0.12670046 0.11143123 -0.16558805 -0.05756793 -0.4794913 0.054107755 0.0526652 0.1823213 -0.117571734 0.005924821 0.11061596 -0.19866684 -0.08658181 -0.13530116 0.15526685 0.26734075 -0.07313502 0.14678131 -0.11142827 -0.081166066 0.3011949 0.039588198 -0.15168989 -0.080155484 -0.32562244 0.033542015 -0.13758108 -0.061176278 0.084156886 0.06415458 -0.05582346 -0.1299782 -0.036474332 0.09608617 0.0729439 0.1848771 -0.1853331 -0.12020339 -0.034508795 -0.120417945 0.024762167 0.09654412 -0.037405264 -0.17256123 0.010008075 -0.023615934 -0.024803929 0.09721976 -0.1072271 -0.27928036 0.2458123 0.06531074 0.20715658 -0.29893583 0.19148335 -0.19120538 0.19801481 0.15300351 0.039696272 0.21596654 0.054576937 0.0007824154 0.032783028 -0.10356661 0.041112892 -0.18621814 0.04484212 -0.10144014 0.2855607 -0.12092121 -0.0026477284 0.04328697 0.083893515 0.1344834 0.058274917 0.22838815 0.12845583 0.047228962 0.0051915944 0.36392134 0.15396966 0.19053204 -0.21138893 0.03518622 -0.04315184
Per -0.08589075 0.21350725 0.09150804 0.01847607 0.18913436 -0.39028034 0.08542232 0.56646514 -0.23747501 -0.19248141 0.010120672 -0.32690772 0.019498622 0.118154585 0.1332933 -0.156006 0.14587711 -0.18088894 -0.014879644 -0.56498444 0.045964103 0.06659723 0.22266094 -0.13495706 0.022506716 0.12929666 -0.22098076 -0.14146744 -0.14917397 0.19483738 0.34507018 -0.108140975 0.2013523 -0.12453689 -0.08000243 0.37291726 0.044352498 -0.19480126 -0.0882178 -0.39483836 0.05551681 -0.15831853 -0.08451976 0.10037008 0.054287113 -0.07798805 -0.16269389 -0.052135993 0.12850206 0.06005353 0.24663717 -0.18220548 -0.16267061 -0.029051747 -0.14143308 0.028233277 0.123957284 -0.031396724 -0.1899189 -0.008008415 -0.04206194 -0.021104543 0.12284405 -0.1265699 -0.34890518 0.27587095 0.058542263 0.20676196 -0.37157488 0.22178161 -0.2561939 0.24003269 0.15370932 0.03939171 0.25365114 0.04503939 0.020872112 0.034558896 -0.1620408 0.08065871 -0.23609458 0.06494768 -0.11292398 0.30483067 -0.15245482 -0.011323266 0.031410426 0.11217763 0.18570974 0.09294659 0.25162867 0.14410025 0.0574359 -0.003841888 0.45324647 0.168656 0.2705634 -0.24237745 0.056063645 -0.06484526
Aquest -0.059044648 0.1535946 0.06458391 0.0037228698 0.13108824 -0.28443897 0.06560742 0.41789424 -0.1620715 -0.14472936 0.008456148 -0.253723 0.013398962 0.08482134 0.09211433 -0.10170578 0.108907595 -0.1406433 -0.015660314 -0.41408247 0.038098503 0.048108447 0.17758456 -0.09919657 0.0046398276 0.10479803 -0.1458842 -0.08656538 -0.10871307 0.14427145 0.269749 -0.08450271 0.14827766 -0.08730878 -0.06592475 0.27076423 0.045910724 -0.14542611 -0.06402297 -0.2937185 0.023473771 -0.106517464 -0.06885029 0.073736906 0.04635771 -0.050896987 -0.105374925 -0.05413515 0.099216804 0.03868519 0.17601393 -0.12899788 -0.11901088 -0.017441891 -0.111910366 0.015330064 0.09903131 -0.025029467 -0.13783818 0.005076089 -0.025908966 -0.019645818 0.078480676 -0.075245395 -0.25672093 0.21088995 0.035539843 0.14900501 -0.26037493 0.16101164 -0.204291 0.16209328 0.097830616 0.037393756 0.17359464 0.03603078 -0.0012447373 0.024656862 -0.11564721 0.07309741 -0.16340536 0.044881783 -0.07199792 0.23137565 -0.10222551 0.0025768653 0.030152341 0.077098355 0.12380658 0.06523573 0.18769175 0.09534357 0.05350681 -0.012903704 0.3327804 0.11587133 0.1954226 -0.1776789 0.045767803 -0.047759876
què -0.09295453 0.20622842 0.08127263 0.0061185462 0.17737813 -0.36558428 0.0925982 0.5413141 -0.20906945 -0.20314242 0.020678617 -0.30722803 0.02512773 0.11625979 0.11220973 -0.14496651 0.15093453 -0.17623726 -0.019935742 -0.53928214 0.058095865 0.047959886 0.21472462 -0.12592979 0.026938919 0.12302267 -0.19736637 -0.12832631 -0.1493365 0.17249179 0.32553375 -0.09250239 0.1780486 -0.12026846 -0.07460428 0.3543464 0.059194468 -0.18971647 -0.09174693 -0.37347132 0.038197894 -0.1474328 -0.07242042 0.088014774 0.06252802 -0.079780586 -0.14967911 -0.04779206 0.13432246 0.059600536 0.22739717 -0.1729697 -0.15157348 -0.02549067 -0.13660446 0.022240678 0.1254829 -0.042967573 -0.18414524 -0.0056945044 -0.03131748 -0.02282208 0.122889966 -0.11975812 -0.33607548 0.27654934 0.057102624 0.19469595 -0.35451502 0.21279116 -0.2683846 0.22161824 0.13373947 0.036210805 0.2374073 0.050366767 0.0019438592 0.03713476 -0.15401486 0.08493626 -0.21820498 0.06293754 -0.11504718 0.30113742 -0.13459034 0.0074701253 0.044305615 0.08710122 0.17592412 0.09978848 0.24124339 0.1367533 0.06354851 -0.0023885549 0.4268866 0.16321866 0.248906 -0.2373308 0.05923427 -0.05970968
Va -0.08619643 0.20041937 0.085806794 0.003411146 0.16736948 -0.38633713 0.08347558 0.5325163 -0.22461416 -0.18796417 0.016288398 -0.32270914 0.030577026 0.10603246 0.12653986 -0.14781044 0.14251755 -0.17029953 -0.027014429 -0.5359643 0.053205747 0.053296812 0.2284796 -0.12114835 0.013959802 0.12921642 -0.20224534 -0.13304041 -0.13254134 0.1806041 0.34503663 -0.095097 0.18057677 -0.114843495 -0.08640696 0.36087313 0.05195439 -0.17736965 -0.099223904 -0.38470367 0.051926307 -0.1447321 -0.08763472 0.07918739 0.0452381 -0.07866857 -0.15654941 -0.058730192 0.12654202 0.05322274 0.2302978 -0.1934539 -0.15207554 -0.030026289 -0.1513052 0.029676134 0.11108506 -0.046827618 -0.18926516 0.006502863 -0.023720756 -0.01955152 0.10855858 -0.11852237 -0.32270208 0.27661923 0.06183305 0.1937693 -0.3517817 0.21172222 -0.26211753 0.22753206 0.14088856 0.043904413 0.22891065 0.05905679 0.0057585505 0.043021753 -0.14902146 0.08200287 -0.21490125 0.042167373 -0.11882129 0.30642438 -0.15893622 -0.0032381834 0.038831864 0.08973022 0.17530404 0.08856671 0.24681985 0.13848881 0.06235271 -0.008406785 0.4307181 0.1476419 0.2626177 -0.23025347 0.04464616 -0.056009922
Què -0.07029072 0.15780023 0.07856298 0.0021422303 0.15263198 -0.32284805 0.062341366 0.45794383 -0.17590784 -0.15927203 0.008864926 -0.2726937 0.01527451 0.094277635 0.09378055 -0.12059194 0.113387406 -0.15814024 -0.029735977 -0.4510028 0.048328955 0.0526554 0.1903423 -0.10473205 0.018635135 0.11672772 -0.17982237 -0.10486337 -0.11979138 0.15794039 0.27925387 -0.08325739 0.15929462 -0.10175036 -0.07735812 0.30398571 0.038473126 -0.15203409 -0.08611519 -0.30962175 0.037044413 -0.12308195 -0.07045477 0.07745435 0.04891525 -0.07865855 -0.12144865 -0.055624153 0.11597327 0.058813542 0.18987787 -0.15971297 -0.13216712 -0.016181514 -0.11025968 0.030140532 0.110405564 -0.037863757 -0.15975462 -0.0032906805 -0.038590312 -0.028427273 0.096567646 -0.09908788 -0.28721732 0.22883585 0.045768302 0.15963024 -0.28752142 0.18581685 -0.22549804 0.18659323 0.11380833 0.03798664 0.19798908 0.050626896 0.016054977 0.025844617 -0.13128865 0.069871575 -0.17961715 0.04336781 -0.09256436 0.2546956 -0.13431193 -0.0016693164 0.020939881 0.09249965 0.13733351 0.08158224 0.20080154 0.11282709 0.053447533 -0.004048982 0.36109394 0.13386874 0.21447723 -0.1839615 0.036226653 -0.052102815
anar -0.10433316 0.22692704 0.09611276 0.0036593482 0.18958193 -0.42507356 0.09287329 0.60352486 -0.2332104 -0.21670975 0.01836955 -0.35638684 0.042713575 0.1261554 0.13068652 -0.1631778 0.15702668 -0.19547735 -0.029251026 -0.6013751 0.062360536 0.050851114 0.24008344 -0.15370616 0.02291226 0.15344968 -0.23036043 -0.12828185 -0.15396363 0.18810262 0.36706775 -0.11394037 0.19239767 -0.1207629 -0.08413807 0.3914689 0.051671285 -0.20756787 -0.099255346 -0.4206727 0.044690773 -0.16899571 -0.09552537 0.088763654 0.0580738 -0.09741085 -0.15413138 -0.0737167 0.13142294 0.06995715 0.24619296 -0.20050909 -0.16946673 -0.031232005 -0.14751378 0.039227635 0.13105227 -0.034815073 -0.21104763 0.007824156 -0.030709079 -0.039297543 0.13062623 -0.13053896 -0.36870328 0.30793434 0.058627993 0.21300924 -0.3801336 0.24896704 -0.27277312 0.23836352 0.16654527 0.048098944 0.25392953 0.053589705 0.012057036 0.02855715 -0.1601676 0.1096498 -0.24983007 0.051004834 -0.12646076 0.32160392 -0.16270804 -0.0027047559 0.03889369 0.10277023 0.20035623 0.08547996 0.25622395 0.13888963 0.085349135 -0.008107314 0.46195045 0.16253205 0.28874356 -0.25330573 0.04725511 -0.052253388
final -0.06637671 0.1302463 0.07276827 0.0020535234 0.09468576 -0.23454337 0.0397383 0.34557292 -0.13432793 -0.11081089 -0.00038381535 -0.20307109 0.00912745 0.08013253 0.09097766 -0.09495957 0.07469392 -0.10467814 -0.028021635 -0.3327214 0.030683221 0.029827628 0.13094148 -0.07275099 -0.0064843986 0.074311696 -0.13166575 -0.0730398 -0.0846784 0.112537466 0.19921018 -0.07139941 0.100728884 -0.0738276 -0.054385018 0.20389362 0.03695515 -0.10050454 -0.05104125 -0.23303385 0.024461646 -0.081125304 -0.05644275 0.048552427 0.026486637 -0.040764853 -0.10197101 -0.031519834 0.08698451 0.048099596 0.12530509 -0.11522968 -0.07939639 -0.032942217 -0.07476392 0.02823022 0.07916952 -0.03312202 -0.10911259 0.0006381934 -0.026795192 -0.009026282 0.06424756 -0.07506353 -0.21488278 0.16105853 0.03438186 0.13534784 -0.20714915 0.14428583 -0.14290413 0.12270868 0.08831207 0.020571426 0.14834385 0.026356684 0.020042295 0.025351148 -0.09253765 0.049880292 -0.13883571 0.022740752 -0.06979536 0.2003101 -0.09657877 -0.0037807291 0.018044153 0.066264674 0.10759875 0.03613445 0.14091243 0.08466717 0.04671058 0.0061265775 0.2654147 0.09875954 0.14318116 -0.14148189 0.027191745 -0.028799273
puc -0.072364315 0.18578042 0.071569085 0.011697116 0.15722053 -0.33788177 0.085770525 0.4784509 -0.18810607 -0.17255801 0.025175598 -0.28308412 0.02554976 0.107434966 0.106280446 -0.11786001 0.12627226 -0.15173842 -0.025249097 -0.47975525 0.03575237 0.042365335 0.19227108 -0.113323614 0.013981701 0.1194324 -0.17408334 -0.11711912 -0.11695989 0.16699536 0.3060976 -0.08720561 0.16350985 -0.0997906 -0.0772042 0.3030845 0.04254648 -0.15901633 -0.07611584 -0.33958158 0.044509456 -0.1360152 -0.065504745 0.077605456 0.04111301 -0.070232965 -0.13030672 -0.05634533 0.105958514 0.06347217 0.19643033 -0.15510724 -0.134417 -0.015855374 -0.12184349 0.030101245 0.1006633 -0.03446312 -0.17329885 -0.0011602929 -0.022377634 -0.03740761 0.106174484 -0.09039056 -0.28778893 0.23435202 0.055507485 0.16337803 -0.3094191 0.20180951 -0.22392118 0.19062532 0.12076058 0.019774891 0.20847982 0.046153266 0.0030458095 0.03760657 -0.13407004 0.08633153 -0.19173378 0.050833225 -0.09803598 0.2532959 -0.13638748 -0.0054215714 0.02144577 0.09599749 0.15494351 0.07876901 0.21891204 0.112210445 0.05894017 -0.0057448554 0.38297477 0.13658442 0.22113253 -0.20609978 0.03532337 -0.037875112
ho -0.086886875 0.22228651 0.099909164 -0.00052193756 0.19414352 -0.41462472 0.091885015 0.58001816 -0.2284801 -0.21682252 0.018278366 -0.35959068 0.032569766 0.13248508 0.115488686 -0.14476444 0.14404765 -0.183718 -0.038145106 -0.58901054 0.045755427 0.0626109 0.23794381 -0.13922612 0.008069938 0.15536791 -0.22008176 -0.14122616 -0.15559448 0.20312738 0.37085643 -0.11646731 0.20205107 -0.1287164 -0.08469706 0.38958758 0.04787525 -0.19540362 -0.09442085 -0.41440716 0.05077346 -0.15710138 -0.10098343 0.09340655 0.061399426 -0.08568386 -0.14874199 -0.06529478 0.14271472 0.05966102 0.25649726 -0.21075508 -0.15952289 -0.023537654 -0.15673806 0.043608192 0.11771938 -0.043311186 -0.2034056 -0.004172993 -0.029429292 -0.039463505 0.12531194 -0.108292215 -0.3532645 0.29251078 0.06839341 0.20310654 -0.380279 0.23818393 -0.279932 0.24648298 0.1622361 0.033148676 0.2521757 0.06355892 0.0073021837 0.028203068 -0.15814771 0.089763805 -0.24124773 0.058784593 -0.12617563 0.32347623 -0.16607918 -0.011280937 0.03939242 0.109949745 0.18218182 0.10365838 0.2576265 0.15399271 0.07544433 -0.0024782075 0.46930766 0.16261771 0.27673632 -0.2487571 0.05906049 -0.0629093
A -0.095204204 0.22423047 0.09200373 0.014154399 0.18421496 -0.40913978 0.09187704 0.5778691 -0.23110656 -0.20243521 0.0049955565 -0.36517748 0.03502218 0.12721086 0.12136043 -0.14985144 0.1485163 -0.19936208 -0.021656103 -0.58991015 0.052221823 0.06772019 0.25026333 -0.14512897 0.009017548 0.14488196 -0.21513435 -0.1409495 -0.14943388 0.19568318 0.3781059 -0.11080766 0.20606929 -0.11642277 -0.096069016 0.3908896 0.041971426 -0.20824654 -0.09582958 -0.4086613 0.050036255 -0.17197679 -0.08216565 0.08939496 0.04723307 -0.08516782 -0.16559815 -0.061411317 0.13032901 0.06434684 0.2591893 -0.20593855 -0.15734051 -0.035505824 -0.15551865 0.039942995 0.13791855 -0.044630796 -0.22118841 0.0009403139 -0.031695027 -0.0245757 0.12158022 -0.11600074 -0.35446292 0.2858548 0.060262952 0.21705832 -0.38744524 0.23172513 -0.26987475 0.23796865 0.15315524 0.041089095 0.26736227 0.060703088 0.007849542 0.0365267 -0.14771128 0.09867861 -0.2487689 0.04886126 -0.12527618 0.33305803 -0.16031365 -0.016610451 0.04513421 0.10360907 0.18656999 0.09222417 0.26430464 0.14997634 0.076267295 -0.010689025 0.46105868 0.16944613 0.2731663 -0.24906468 0.06482744 -0.054092407
ell -0.08105874 0.20575099 0.09037914 0.009525682 0.18097724 -0.37651792 0.07688394 0.5544438 -0.22782938 -0.1958153 0.0043295617 -0.34180525 0.027260313 0.12399835 0.11918676 -0.14694902 0.14035225 -0.17418373 -0.019779803 -0.5395523 0.051418543 0.043623913 0.2338045 -0.1341036 0.018202636 0.14141993 -0.19922917 -0.12865177 -0.14760123 0.18231764 0.34788325 -0.10151069 0.18431723 -0.106399775 -0.080338486 0.35180464 0.056854792 -0.1902451 -0.09875309 -0.3772353 0.0365419 -0.14323 -0.09108068 0.08231616 0.040935885 -0.07992268 -0.14317839 -0.052433293 0.12994601 0.068873 0.23574996 -0.19604376 -0.1410908 -0.037487026 -0.13639286 0.03093783 0.12019655 -0.04138291 -0.18570328 -0.00265616 -0.033982735 -0.029913228 0.119635165 -0.11706985 -0.34793165 0.26554018 0.050967023 0.20003481 -0.36062342 0.22931042 -0.25608528 0.218441 0.13962495 0.028694129 0.22970742 0.049881693 0.011098673 0.046570744 -0.14319573 0.09095991 -0.21820895 0.048322063 -0.119855866 0.30655995 -0.15771982 -0.01091079 0.038214367 0.09021941 0.17183329 0.09172307 0.24401052 0.13674633 0.06628518 0.00244868 0.4350453 0.15432754 0.25290945 -0.2381106 0.049859732 -0.055858407
però -0.106155165 0.21872188 0.09169007 0.004176256 0.18403198 -0.41598538 0.0989452 0.59752214 -0.23198882 -0.20755413 0.020363688 -0.3573198 0.037752327 0.12682544 0.13724639 -0.16653508 0.15834904 -0.19254242 -0.019910838 -0.5993789 0.064871535 0.0613551 0.23951831 -0.13354914 0.01290817 0.15412365 -0.2374784 -0.14175093 -0.15005709 0.19732594 0.36719614 -0.108989134 0.19351445 -0.12089643 -0.079561025 0.38532323 0.05784971 -0.20267618 -0.098765865 -0.4133817 0.03730148 -0.16166827 -0.09986306 0.10538238 0.048534922 -0.08072811 -0.16038686 -0.057295747 0.143672 0.08084774 0.2567774 -0.20393017 -0.16209021 -0.033666767 -0.15831399 0.039951574 0.13973372 -0.03470917 -0.20922376 0.006868295 -0.040279027 -0.029957948 0.12358577 -0.12651138 -0.3746481 0.30269054 0.05388968 0.2255036 -0.39061278 0.2389747 -0.28877556 0.25260836 0.16420822 0.040194508 0.2577007 0.04899833 0.005791388 0.05022136 -0.1684576 0.103749864 -0.24290183 0.067980215 -0.11814021 0.33535734 -0.15939008 -0.0030772844 0.029036699 0.10305229 0.18890123 0.097855434 0.26797557 0.14688 0.073217764 -0.0038913048 0.47241554 0.17885429 0.2899344 -0.24818178 0.05687761 -0.0682291
dir -0.070897125 0.17351355 0.08094754 0.008878724 0.16094057 -0.32940975 0.082884915 0.48046398 -0.19928025 -0.17867132 0.005318314 -0.28911033 0.03388562 0.111995004 0.1006761 -0.12713884 0.12131495 -0.15348028 -0.01597804 -0.48031834 0.055129062 0.03758041 0.18700129 -0.10549234 0.02051184 0.10967789 -0.17548287 -0.11474018 -0.12319634 0.16475794 0.29516932 -0.082146265 0.15623966 -0.1100154 -0.06345055 0.32318613 0.051569294 -0.15652342 -0.0819796 -0.34550178 0.036520295 -0.1342297 -0.073874064 0.086960785 0.052248333 -0.07420116 -0.13701609 -0.04501963 0.12137547 0.050692745 0.21274905 -0.15646392 -0.13457823 -0.019578194 -0.13449702 0.01839332 0.09915825 -0.042872593 -0.17990701 0.006250709 -0.03751481 -0.01913211 0.10569219 -0.09908542 -0.30548286 0.23650824 0.053230066 0.183692 -0.31386483 0.2035941 -0.23317124 0.21121632 0.12583147 0.023658713 0.2125062 0.04345132 0.017704299 0.023538716 -0.12647656 0.08619072 -0.19012626 0.044995192 -0.1026909 0.25842643 -0.12804934 -0.014657355 0.037235186 0.09426258 0.16010684 0.08797211 0.20530277 0.12965728 0.053099573 0.0025495999 0.37631056 0.13653079 0.2267952 -0.20086238 0.053819586 -0.04443853
Quan -0.08413935 0.17824084 0.08043022 0.00041348446 0.15258344 -0.32951698 0.077759504 0.4654403 -0.18348093 -0.16071379 0.009119171 -0.2928576 0.024008539 0.10355119 0.09227645 -0.13437322 0.12544787 -0.15441963 -0.027978254 -0.47561505 0.054044858 0.05509614 0.18399277 -0.12064942 0.014285153 0.111856185 -0.18080418 -0.1151804 -0.1305039 0.15127084 0.29927972 -0.08002925 0.1502384 -0.1091447 -0.0766035 0.30859846 0.031951103 -0.15684582 -0.07258538 -0.33669126 0.0329919 -0.12040066 -0.06532412 0.078350216 0.03900564 -0.07963746 -0.13252881 -0.049836434 0.11667058 0.053523116 0.21124473 -0.16919054 -0.12404008 -0.018660525 -0.12750901 0.035744857 0.09680168 -0.029405199 -0.17720138 0.002188362 -0.03181555 -0.018534817 0.10377983 -0.10531061 -0.2919655 0.22912689 0.040189255 0.17363244 -0.2950513 0.1828312 -0.2115878 0.196501 0.11807819 0.030772764 0.20708035 0.050278094 0.009409544 0.040459234 -0.1297421 0.068646125 -0.20288752 0.05159014 -0.10093017 0.25267953 -0.13571726 -0.005382225 0.040839277 0.081822336 0.15327547 0.07574166 0.21787933 0.12295262 0.050683465 -0.015921604 0.3653273 0.13850127 0.22643715 -0.18960871 0.048200797 -0.0373336
tarda -0.067260094 0.1533056 0.08186791 0.013322399 0.12827364 -0.3061667 0.055525586 0.42290014 -0.18233998 -0.14012994 0.0039562606 -0.27198297 0.02535043 0.10186938 0.105263226 -0.12442401 0.11724945 -0.13705973 -0.036636017 -0.4309788 0.043856513 0.029060364 0.17378874 -0.09464604 0.0018524765 0.10568327 -0.1599544 -0.08717833 -0.12438231 0.14217427 0.2580882 -0.0721747 0.14026175 -0.1044067 -0.066862345 0.2651919 0.04512677 -0.15187469 -0.07663651 -0.28395304 0.029521633 -0.1270592 -0.0707577 0.06495664 0.050771613 -0.06849068 -0.120047964 -0.05519547 0.10965721 0.048854385 0.1696604 -0.15418088 -0.11037993 -0.015752288 -0.108032666 0.019414868 0.08778822 -0.047159377 -0.13528354 0.01401937 -0.021564595 -0.025471771 0.08898336 -0.0858151 -0.27081951 0.22525267 0.050831098 0.16448776 -0.27750927 0.18368968 -0.19089396 0.16792224 0.124948144 0.023554347 0.17999944 0.051670913 0.010954843 0.029259253 -0.09828367 0.055605993 -0.18131256 0.03106372 -0.07861187 0.2385301 -0.107363924 -0.0015745386 0.018580414 0.079871766 0.1432865 0.055516187 0.19348162 0.107311614 0.05974153 -0.0027392772 0.32965672 0.11909973 0.18531507 -0.17939964 0.032137915 -0.044326793
s -0.07053764 0.19953877 0.095005974 0.019893797 0.16866763 -0.35584876 0.08097813 0.51492614 -0.2185983 -0.17579874 0.0092329485 -0.2985556 0.03810173 0.104101725 0.11525224 -0.14062227 0.118695006 -0.17149892 -0.03294904 -0.5258194 0.05524194 0.048529845 0.19348933 -0.13390636 0.010734359 0.13228387 -0.18767382 -0.10506573 -0.13824679 0.1580698 0.31862718 -0.074446514 0.18537869 -0.10156441 -0.07983196 0.34003192 0.038648672 -0.18020137 -0.091231145 -0.3625395 0.052147303 -0.1326875 -0.07496057 0.070921 0.05097747 -0.08843634 -0.1567915 -0.054013398 0.123612426 0.053404156 0.19475415 -0.17730038 -0.13177066 -0.023383716 -0.12107237 0.029606745 0.093743265 -0.026622321 -0.16251607 -0.007938604 -0.0120262075 -0.025336742 0.104952544 -0.10192469 -0.30389166 0.26714596 0.0614923 0.18048584 -0.32663918 0.19460958 -0.249118 0.2035312 0.1318997 0.024979668 0.22432686 0.038347047 0.015635356 0.02486329 -0.1328875 0.08626966 -0.19005316 0.047372833 -0.11005979 0.29855525 -0.13240428 -0.0012517005 0.05433092 0.081912965 0.16770333 0.07173434 0.23222794 0.13980816 0.042074878 -0.0022723507 0.40649226 0.14080627 0.22691451 -0.22460839 0.04798024 -0.04402178
