de -0.15540648 0.23459582 -0.2102126 -0.024845997 0.07416323 -0.49842563 0.2916358 0.59995514 -0.24337158 -0.20122346 0.022912001 -0.3488822 0.0701916 0.20186892 0.19445303 -0.15002738 0.18555199 -0.17585362 -0.15971665 -0.6560091 0.20889018 0.011557277 0.14780115 -0.09238361 -0.053327482 0.044795725 -0.11140305 -0.15690283 -0.15562248 -0.036004767 0.34616587 -0.1087409 0.1706016 -0.39289588 -0.10291011 0.32729274 0.2732857 -0.06511823 0.05706548 -0.33792695 0.085949175 -0.27794912 -0.22780189 0.07890906 0.1721405 0.10104838 -0.20153534 0.015482011 0.25933343 0.13567665 0.09345798 -0.16415003 0.120321 -0.1284862 -0.0702785 0.052172057 0.25630793 0.008455657 -0.29203287 0.117774606 0.1583739 -0.0072369734 0.19409822 -0.02208334 -0.2310356 0.40029287 0.15049683 0.42263412 -0.5332159 0.373199 -0.03582923 0.24174756 0.3003536 0.10769583 0.33943972 0.10329131 -0.079019524 0.15845601 -0.2772654 0.07596907 -0.17426652 0.043295164 -0.29273978 0.2860983 -0.14401257 -0.09751071 0.38467163 0.14554317 0.3496343 0.17944007 0.33131567 0.27019307 0.19980626 0.061600327 0.45536605 0.21649715 0.10101746 -0.23390967 0.14264804 -0.13769141
a -0.18099496 0.25192875 -0.22918516 -0.031065596 0.090217605 -0.5339773 0.3064876 0.6396393 -0.25502285 -0.21098633 0.018933324 -0.3856527 0.08067334 0.21876545 0.21438898 -0.14772193 0.2024299 -0.18468197 -0.168564 -0.6939909 0.21419081 0.0035408947 0.15980506 -0.11088161 -0.058806784 0.056807023 -0.1227719 -0.17361078 -0.15773256 -0.033064198 0.3994971 -0.11731202 0.17811349 -0.41714817 -0.10395835 0.35711044 0.29104123 -0.062993504 0.06969665 -0.34934586 0.10785638 -0.3143093 -0.24874026 0.08159031 0.177978 0.12043642 -0.19480702 -9.369526e-06 0.27113798 0.13955426 0.11254338 -0.19361041 0.13325468 -0.13350451 -0.0826446 0.07270981 0.2765136 0.021903982 -0.30865404 0.1209246 0.16671023 -0.009621184 0.20379251 -0.020374805 -0.24480045 0.43218827 0.16533853 0.43902138 -0.5613497 0.41187373 -0.048342556 0.23916635 0.33094436 0.1349884 0.35418013 0.102715306 -0.10457212 0.16586678 -0.2911025 0.09938251 -0.19177671 0.046104033 -0.3204694 0.29320067 -0.15299174 -0.11252251 0.40006456 0.1474788 0.38506943 0.18316859 0.34757268 0.28492358 0.21406 0.053949907 0.47309887 0.23036411 0.124593906 -0.24520591 0.14183465 -0.15298206
el -0.15803592 0.23411666 -0.22388363 -0.034760967 0.08609307 -0.47977707 0.2790156 0.5891764 -0.24543872 -0.18601146 0.010653162 -0.35299402 0.08832415 0.19537577 0.20471278 -0.15183087 0.18609254 -0.16335765 -0.16148597 -0.64900815 0.19176511 0.0043172897 0.13622962 -0.101640895 -0.048726715 0.04406232 -0.100776844 -0.15821278 -0.15403676 -0.03234429 0.36285833 -0.11302452 0.15669663 -0.38470584 -0.10883518 0.32814667 0.2654412 -0.057859946 0.056210328 -0.33370978 0.08714347 -0.28039122 -0.22472079 0.08584696 0.17206363 0.10875597 -0.18478641 0.00045972306 0.2478379 0.12598959 0.098971 -0.17327777 0.115779385 -0.13805509 -0.08721409 0.05283296 0.24458894 0.008534755 -0.29027322 0.10023945 0.16632028 -0.012089046 0.20512107 -0.013468911 -0.23878239 0.4067325 0.15510346 0.42113984 -0.5361122 0.38010788 -0.03800504 0.23776355 0.30766857 0.12157903 0.32503173 0.11279594 -0.079219386 0.16225836 -0.27876124 0.09363004 -0.16800535 0.030673353 -0.30934167 0.2780238 -0.14174992 -0.10663461 0.36730015 0.13413319 0.3630484 0.17469071 0.3164479 0.27420256 0.20650569 0.055370502 0.44925892 0.21833618 0.116874546 -0.22412772 0.14984377 -0.153051
. -0.19027989 0.27340692 -0.2437605 -0.040916067 0.095219605 -0.5571088 0.325006 0.6724451 -0.26159808 -0.22768939 0.031416964 -0.389633 0.09421708 0.20787229 0.23796687 -0.17039202 0.20961767 -0.21545228 -0.1819136 -0.7285749 0.22207247 0.008109155 0.1671401 -0.09814502 -0.07977201 0.052940305 -0.112972096 -0.18250735 -0.16180041 -0.044697843 0.40035072 -0.12249608 0.17767249 -0.42867178 -0.10912669 0.38209853 0.30586115 -0.08544848 0.054424994 -0.3657714 0.10544508 -0.32096657 -0.23752868 0.091258496 0.202639 0.11767711 -0.20396326 0.001401809 0.28088385 0.14733633 0.11567923 -0.19115482 0.12894294 -0.15192877 -0.09232204 0.0691765 0.2846164 0.026456242 -0.3213799 0.11252016 0.18432634 -0.0015691913 0.23474142 -0.020213872 -0.25561506 0.4408605 0.16159615 0.4834347 -0.60614157 0.41459924 -0.035773437 0.26163897 0.34259054 0.14370756 0.3681117 0.11011503 -0.10575749 0.18286055 -0.3205769 0.10437414 -0.19501933 0.05079109 -0.34522006 0.32214662 -0.15529676 -0.10930612 0.4283166 0.17628454 0.40408218 0.19177859 0.3594709 0.29909635 0.22316985 0.06960441 0.51514024 0.24335952 0.13489196 -0.26151025 0.15972617 -0.1780043
i -0.1985684 0.27447522 -0.25918013 -0.042546444 0.094824456 -0.5646623 0.3344096 0.6903903 -0.28323492 -0.21792401 0.009399774 -0.4027786 0.08504485 0.22341846 0.22754031 -0.17578134 0.20337215 -0.20516509 -0.17131397 -0.7617038 0.22886041 0.002045883 0.1714399 -0.10173779 -0.07401409 0.054817222 -0.12840809 -0.18866883 -0.17904486 -0.04655312 0.419138 -0.11675263 0.19178899 -0.45070156 -0.1078118 0.38068783 0.30075088 -0.069826156 0.06327331 -0.3861356 0.109271035 -0.34129688 -0.26478687 0.105998896 0.20312865 0.11179971 -0.20887706 0.0038359333 0.29530612 0.14634116 0.12193573 -0.1929886 0.15576263 -0.1546302 -0.093548276 0.06113552 0.27956533 0.005421883 -0.3393272 0.112503886 0.1933573 -0.014902387 0.2332523 -0.01644882 -0.26877546 0.45965582 0.17944285 0.49855667 -0.6240543 0.44561088 -0.049582053 0.28016004 0.35062534 0.1433602 0.3895504 0.12569992 -0.106316626 0.18977723 -0.30991694 0.09785564 -0.2042484 0.038936548 -0.3533204 0.3207412 -0.16803662 -0.12305855 0.44320685 0.17649843 0.4079288 0.20238271 0.38316894 0.30485308 0.23506135 0.06675828 0.5231026 0.24204826 0.13592824 -0.25663942 0.16693187 -0.17052351
, -0.18117152 0.25214395 -0.2315204 -0.04418432 0.0753503 -0.52004987 0.30859402 0.63185936 -0.26145792 -0.21431114 0.010241686 -0.3741082 0.07670226 0.19221921 0.21077757 -0.16635337 0.18273257 -0.1974053 -0.16216823 -0.69027644 0.19887562 0.008954406 0.1565966 -0.09022517 -0.0721076 0.044104844 -0.113276094 -0.18789428 -0.15322328 -0.033205744 0.37771237 -0.11940883 0.1684531 -0.41264626 -0.10735603 0.3626362 0.28360868 -0.062305354 0.06616234 -0.35813078 0.109970406 -0.3115327 -0.23580684 0.08781102 0.1799582 0.10462742 -0.20019357 0.013888313 0.26569602 0.13680273 0.110285036 -0.18766977 0.14047322 -0.12878956 -0.09218024 0.06454498 0.27632913 0.00682526 -0.3156 0.10213492 0.18081091 -0.0067860447 0.22007352 -0.02688514 -0.23993894 0.42363438 0.15501107 0.45304412 -0.5728379 0.38641566 -0.036309738 0.25759465 0.33229953 0.13210486 0.35426697 0.117781386 -0.10471261 0.17094986 -0.29122272 0.098849736 -0.17311752 0.035569627 -0.31810397 0.28511247 -0.14348733 -0.11269744 0.39369163 0.17242543 0.37924987 0.19002636 0.3586231 0.29236633 0.19892162 0.06540401 0.48605824 0.23420876 0.11576309 -0.24813698 0.15491685 -0.16480677
la -0.16738263 0.24832824 -0.2395458 -0.03641892 0.08517354 -0.5372921 0.31960663 0.6472355 -0.2669097 -0.21076359 0.02536856 -0.38427758 0.08752271 0.22358519 0.21366891 -0.15855111 0.20588848 -0.1914424 -0.16789764 -0.7247472 0.21819782 0.009286855 0.1622618 -0.10099627 -0.06638365 0.055723444 -0.1218335 -0.18972649 -0.15963976 -0.045291163 0.4045486 -0.10469065 0.18299703 -0.41704085 -0.115729496 0.36684752 0.28267452 -0.08510685 0.0540445 -0.3787504 0.107157126 -0.32323354 -0.23478669 0.07960828 0.19194168 0.12695959 -0.21139786 -0.008851206 0.2712576 0.13954875 0.10698254 -0.19572014 0.12657306 -0.13476852 -0.091053285 0.05708021 0.2672989 0.0055007525 -0.32267353 0.10569712 0.17917927 -0.013211538 0.22192253 -0.015064263 -0.2581024 0.4420078 0.15406033 0.45167342 -0.5924616 0.4118284 -0.048345976 0.26373217 0.33197665 0.13649353 0.36990732 0.10525153 -0.09479262 0.1774617 -0.30781206 0.110429615 -0.17657793 0.035756707 -0.3438798 0.31236637 -0.15958482 -0.11491325 0.41728804 0.15527861 0.38671723 0.19588822 0.35035485 0.29544026 0.21460661 0.06733941 0.48769745 0.2351848 0.13146134 -0.25731254 0.15541622 -0.1568425
amb -0.1433768 0.21778773 -0.19285125 -0.024542887 0.07194976 -0.4592555 0.2715 0.5501381 -0.2291547 -0.19163048 0.012093213 -0.327553 0.079705335 0.17347991 0.19057314 -0.13758305 0.17179315 -0.17187628 -0.14858288 -0.6194795 0.18392736 0.015428168 0.13221437 -0.09696001 -0.067270204 0.050385 -0.108069025 -0.1484813 -0.14402439 -0.025423033 0.32192653 -0.09467337 0.14957483 -0.36378512 -0.10003321 0.3101794 0.23992606 -0.0615669 0.044475198 -0.30751047 0.09658913 -0.27145645 -0.20262237 0.083386585 0.1695396 0.08754117 -0.18363434 0.00036231303 0.24562246 0.12378216 0.088164605 -0.16147867 0.12554356 -0.12990476 -0.07881882 0.06546993 0.22550328 0.017663745 -0.27261156 0.10510203 0.16027303 -0.007938535 0.1824868 -0.005963141 -0.20975845 0.3790695 0.12762286 0.40627158 -0.5009462 0.34240767 -0.031865045 0.22251268 0.29201624 0.10731951 0.30889997 0.10041752 -0.074573226 0.1422435 -0.25374928 0.07494325 -0.16713442 0.035876855 -0.2970622 0.26704168 -0.1243408 -0.091930605 0.35724035 0.15415506 0.3442164 0.16381153 0.31284887 0.24870098 0.17652312 0.0656099 0.4188233 0.19973639 0.10289552 -0.2146864 0.1389056 -0.14424405
: -0.1459517 0.20116013 -0.16801858 -0.01795363 0.07384842 -0.3920823 0.24305159 0.47450286 -0.20201446 -0.15059459 0.018813567 -0.29221725 0.07774517 0.14859785 0.17784098 -0.1185967 0.13569717 -0.15458322 -0.13638863 -0.53490055 0.15861009 0.017814945 0.11899087 -0.08757647 -0.04570616 0.03814728 -0.08650963 -0.14891224 -0.11629583 -0.04351586 0.29720008 -0.09228073 0.14178284 -0.2939692 -0.08377073 0.2762738 0.212508 -0.05142301 0.050436355 -0.28243783 0.0661762 -0.23225403 -0.1736311 0.062843695 0.13872032 0.081219375 -0.14419931 0.008419829 0.19503646 0.1046983 0.07812384 -0.13837738 0.09911405 -0.1052367 -0.054406118 0.0452948 0.2028456 0.008996609 -0.22932634 0.076143995 0.122996956 -0.006404082 0.17284614 -0.019288836 -0.19521406 0.32003802 0.11177559 0.34892035 -0.44596076 0.31086585 -0.041028675 0.19623305 0.25455102 0.10207388 0.2599802 0.0764978 -0.08002816 0.11434541 -0.23609428 0.07067957 -0.13593118 0.02163804 -0.24633151 0.22866942 -0.10371982 -0.07329604 0.29841417 0.11585388 0.29196164 0.15073986 0.2554857 0.22072928 0.16604403 0.050743055 0.37723482 0.18683636 0.09381571 -0.17575304 0.12663992 -0.13045748
entre -0.14360195 0.186693 -0.18695827 -0.020378657 0.061654154 -0.41554686 0.23196143 0.4974106 -0.20091875 -0.164802 0.014318687 -0.29459155 0.06548257 0.15794006 0.16413726 -0.111812145 0.15091878 -0.16183878 -0.12143085 -0.5513958 0.1628201 0.012482737 0.109140635 -0.08082611 -0.04342799 0.03461073 -0.100006334 -0.13063928 -0.12335605 -0.041062288 0.3038486 -0.07979282 0.14319329 -0.30473754 -0.092808455 0.2833584 0.21999079 -0.051456027 0.048216026 -0.27389345 0.079839855 -0.23190895 -0.18593393 0.062603384 0.14101459 0.086323224 -0.15368593 0.009854294 0.21282543 0.11944722 0.083647035 -0.13233538 0.10245736 -0.0971806 -0.059578624 0.04155094 0.20218852 0.008329784 -0.23393007 0.08487105 0.13223594 0.0032370659 0.17490427 -0.015266732 -0.19594888 0.32579282 0.11266309 0.34049827 -0.4420507 0.30864903 -0.029445311 0.20355858 0.25011456 0.089908704 0.27804023 0.07806127 -0.07230913 0.12329187 -0.22117117 0.07706175 -0.13460383 0.030792525 -0.25952706 0.24251938 -0.11346155 -0.08578747 0.3013093 0.12561303 0.30640858 0.15575974 0.26159632 0.23077217 0.16886905 0.06171581 0.3822118 0.1723509 0.08220577 -0.18089256 0.12918933 -0.1221601
ennuvolat -0.14260186 0.21110271 -0.18722998 -0.04309449 0.06114385 -0.46279553 0.26060107 0.550547 -0.22759487 -0.18377608 0.022849414 -0.32770056 0.08305373 0.17168812 0.19086401 -0.12772228 0.1626907 -0.16977443 -0.14445432 -0.61552906 0.17630014 0.009701487 0.13550071 -0.09221145 -0.061578084 0.048687164 -0.09970597 -0.16088016 -0.1277891 -0.038185854 0.32864705 -0.09166219 0.16748387 -0.34048095 -0.08418788 0.3170154 0.2474694 -0.069364995 0.039328758 -0.31301945 0.081043966 -0.2699917 -0.21462345 0.08183746 0.15356544 0.08452797 -0.16915825 0.0020136423 0.22272061 0.1230546 0.082337074 -0.160604 0.105119765 -0.11192217 -0.068550095 0.058977526 0.21798629 0.010970141 -0.25616518 0.09915705 0.14715466 -0.009381543 0.18787155 -0.011685388 -0.22298124 0.37295154 0.11994171 0.38033095 -0.4898197 0.35065717 -0.035156675 0.23154835 0.27875587 0.119938366 0.30815065 0.10824478 -0.07805842 0.12829614 -0.26049036 0.09615074 -0.14097425 0.04318925 -0.2819391 0.27016237 -0.14362617 -0.08390168 0.33528367 0.13559303 0.34022376 0.17167191 0.30647403 0.24867155 0.18152726 0.06535124 0.40662563 0.19980435 0.115360126 -0.2156842 0.13795353 -0.15046623
en -0.16901784 0.26585242 -0.23115472 -0.032420985 0.08915697 -0.54402727 0.31130782 0.65253514 -0.26809207 -0.21459712 0.023916902 -0.3801241 0.086783774 0.20250969 0.2294298 -0.16675657 0.1892771 -0.2093391 -0.17506573 -0.7233761 0.20584655 0.0012936711 0.14897664 -0.115148835 -0.08041422 0.03857396 -0.1254653 -0.1787844 -0.15501201 -0.045972835 0.38508892 -0.11960589 0.18097976 -0.4103731 -0.11026067 0.3685938 0.28540373 -0.07976049 0.050159477 -0.37468597 0.08812671 -0.31734264 -0.2338624 0.09867907 0.18576467 0.108999774 -0.18602592 0.0023875823 0.27028778 0.15604347 0.10944543 -0.193233 0.14418486 -0.12904625 -0.09161566 0.06644727 0.2699066 0.02094126 -0.3184849 0.10966783 0.18043573 -0.005404167 0.21909083 -0.023847241 -0.25605774 0.44089934 0.1644267 0.46925202 -0.5927525 0.4156292 -0.045477375 0.27020305 0.33649993 0.13422574 0.36227036 0.11860751 -0.103059076 0.17512676 -0.3056541 0.09302548 -0.1835892 0.055888213 -0.34599912 0.3062903 -0.1408241 -0.103754714 0.39656278 0.15778019 0.40623498 0.20528166 0.36266443 0.28511837 0.20340852 0.07611862 0.4983379 0.23144053 0.113061935 -0.2519055 0.15243852 -0.1685826
vent -0.099490374 0.14053364 -0.121381596 -0.031271268 0.0573466 -0.290659 0.16976008 0.36940145 -0.13478072 -0.12769987 0.0016401254 -0.21794465 0.038152047 0.110938005 0.11809321 -0.10232752 0.11094147 -0.10849031 -0.08326497 -0.39515132 0.11528536 0.0039435746 0.087327816 -0.049010668 -0.036517058 0.037135046 -0.075969025 -0.08926519 -0.0926889 -0.009752162 0.20422801 -0.063415535 0.096229754 -0.23324507 -0.06839512 0.18811989 0.14986442 -0.0427916 0.037483167 -0.19875826 0.056239717 -0.16493401 -0.13037921 0.05337373 0.09501977 0.048979137 -0.10844412 -0.00277322 0.14650474 0.084036246 0.0714905 -0.11086934 0.07562122 -0.088807695 -0.044876907 0.030929372 0.15128429 0.012348434 -0.16931541 0.07032175 0.08671322 -0.008400987 0.13215022 -0.006052616 -0.1412926 0.24206251 0.101244695 0.25751066 -0.33306107 0.22498071 -0.014322221 0.15107273 0.1912767 0.06582233 0.20444824 0.06297843 -0.0467033 0.090454556 -0.17337887 0.05029916 -0.11657988 0.028964605 -0.18504566 0.18148479 -0.08539594 -0.0579656 0.24113365 0.09312562 0.20985913 0.10748019 0.20808677 0.16236351 0.1285104 0.030984025 0.27677888 0.13057986 0.07752945 -0.12755218 0.092895545 -0.080467135
fluix -0.12900417 0.18597177 -0.16566323 -0.028091647 0.056770127 -0.36424866 0.19809197 0.4250557 -0.18150373 -0.15012984 0.0014720502 -0.248289 0.044822797 0.13057885 0.15810268 -0.10517957 0.14043945 -0.13001937 -0.10892549 -0.4810668 0.15217862 0.008192676 0.11488316 -0.062190954 -0.03599739 0.04613706 -0.09464238 -0.12574056 -0.10845447 -0.015354547 0.2624873 -0.07110353 0.12528543 -0.28813994 -0.07080621 0.2348764 0.17877015 -0.030648341 0.04382945 -0.24429639 0.068681054 -0.21148814 -0.14913891 0.07008696 0.121318 0.06168138 -0.14764884 0.0019321912 0.19209243 0.09196919 0.07791759 -0.123824075 0.08349957 -0.098268665 -0.057743758 0.04422846 0.19260654 0.010409639 -0.21968693 0.08644105 0.12050566 0.0035773101 0.15314482 -0.0013067749 -0.15545496 0.2917925 0.120458364 0.31572887 -0.38478065 0.26582295 -0.028195776 0.17050493 0.21668348 0.090180725 0.25750387 0.08452619 -0.064140946 0.12522498 -0.19430469 0.05375014 -0.1281025 0.024133831 -0.21241015 0.21245603 -0.09356554 -0.066092916 0.2924629 0.12461944 0.25699252 0.11905342 0.2580894 0.2077063 0.1483344 0.04388601 0.32402384 0.15237856 0.09050917 -0.16622359 0.0966752 -0.09354582
component -0.08914154 0.16070937 -0.13101533 -0.030348323 0.063363016 -0.3049878 0.18117331 0.3693754 -0.136663 -0.13679366 0.016187511 -0.222356 0.037799362 0.10406146 0.11847508 -0.08740779 0.121009745 -0.116347305 -0.08681404 -0.4008947 0.13131168 0.011811506 0.09053607 -0.061940927 -0.045879748 0.034804355 -0.06870639 -0.100752845 -0.08481339 -0.021638723 0.2007838 -0.06793806 0.09388723 -0.24413908 -0.07083303 0.19173338 0.16921172 -0.02110622 0.036309954 -0.19211735 0.07054101 -0.17353588 -0.121188655 0.062137753 0.11212252 0.066453755 -0.1278314 0.002319249 0.15724744 0.08244324 0.0707551 -0.0991926 0.08135564 -0.09547752 -0.053283777 0.026437227 0.16959947 0.015929403 -0.18236984 0.07055078 0.088587955 -0.009516105 0.12954912 -0.002295334 -0.13165866 0.25001714 0.092549816 0.25861403 -0.32532617 0.21731888 -0.02676854 0.1379593 0.19480741 0.07223824 0.20673522 0.05649573 -0.040738355 0.10160692 -0.16344924 0.049172275 -0.11850635 0.026858203 -0.18076712 0.1628014 -0.07486454 -0.05557732 0.24776632 0.10567542 0.21157934 0.097260654 0.2181415 0.17094529 0.12756774 0.045177337 0.28030872 0.12320902 0.069321394 -0.12576805 0.0801281 -0.07732668
molt -0.13499814 0.1848518 -0.16512124 -0.019734936 0.05674291 -0.38974518 0.21653081 0.4657833 -0.19283117 -0.13881736 0.007769621 -0.28452602 0.058524124 0.15872245 0.15312403 -0.12100383 0.12967417 -0.13541727 -0.119179904 -0.5110263 0.14948379 0.0142006455 0.10095451 -0.07662456 -0.054458056 0.034575302 -0.08594374 -0.124392726 -0.115123644 -0.044671312 0.27560306 -0.086830266 0.13373905 -0.28735927 -0.08464269 0.27194685 0.21718797 -0.063205995 0.0332344 -0.2525507 0.081153005 -0.23293097 -0.18145795 0.072012484 0.13884269 0.08814317 -0.15096019 -0.0054846536 0.19917373 0.09262554 0.071091555 -0.1388742 0.10784958 -0.08879309 -0.06403634 0.054946788 0.20233728 0.009495063 -0.21462736 0.08954349 0.13382082 -0.008370358 0.15046762 -0.016423635 -0.17124023 0.3053508 0.10758083 0.34050086 -0.41444194 0.3043708 -0.03957928 0.18531924 0.24597491 0.08833725 0.26993364 0.09212458 -0.07089221 0.117846385 -0.21747157 0.06800387 -0.13615225 0.028378563 -0.2480897 0.22573407 -0.11759298 -0.0696957 0.2843169 0.10705188 0.2938085 0.14994621 0.25118646 0.21510233 0.14815462 0.041937076 0.34591183 0.17772655 0.096064225 -0.16820802 0.12039287 -0.113394834
cel -0.1353191 0.18395163 -0.17323862 -0.030363541 0.07052424 -0.41163754 0.23729447 0.5039594 -0.19988136 -0.15891358 0.00799612 -0.30389932 0.06005557 0.16951376 0.16050929 -0.11143175 0.13662453 -0.15191264 -0.13344736 -0.55980825 0.17353055 0.018648315 0.11793286 -0.0737255 -0.051469974 0.04897451 -0.08097808 -0.1528502 -0.12639081 -0.03930607 0.30539453 -0.08945481 0.14527923 -0.32316926 -0.081059374 0.28892875 0.22985727 -0.06518831 0.034339044 -0.292749 0.07502747 -0.25199473 -0.1943324 0.07449987 0.1519234 0.08778838 -0.16040346 -0.0020106728 0.21794541 0.11486423 0.07344427 -0.15251294 0.10461459 -0.10124011 -0.061566237 0.057048995 0.19894516 0.0014328859 -0.24649054 0.08547018 0.1463206 0.00066057756 0.16937156 -0.009057939 -0.19387406 0.33831665 0.10767518 0.36164486 -0.44177082 0.3263994 -0.026679192 0.20853117 0.25769314 0.09895362 0.2794294 0.07996599 -0.06754727 0.1193869 -0.22529575 0.07707956 -0.13340612 0.02213872 -0.27326605 0.22926101 -0.1275594 -0.07947339 0.3027666 0.11478235 0.2992905 0.14708768 0.27808335 0.23060682 0.17394944 0.06217978 0.36796337 0.19009368 0.085461415 -0.19424689 0.11450489 -0.124862954
moderat -0.1065716 0.16805741 -0.1419576 -0.030331634 0.0634463 -0.33192903 0.19724461 0.39643958 -0.16448563 -0.13797607 0.0033908489 -0.2387079 0.06085183 0.12215895 0.14265735 -0.11228979 0.12305749 -0.12271359 -0.09172183 -0.4405378 0.13900302 -0.00097388274 0.09032592 -0.0700082 -0.044086024 0.030179173 -0.080775164 -0.115675285 -0.09919602 -0.02127894 0.22972994 -0.06644448 0.09621319 -0.25961494 -0.06473893 0.22625856 0.16038388 -0.028938357 0.04445456 -0.22292595 0.07266202 -0.19794692 -0.13324223 0.06411329 0.114126705 0.060091905 -0.13342926 -0.0011044594 0.16986711 0.08850256 0.077741206 -0.10302474 0.091798164 -0.09455571 -0.04158846 0.036827017 0.17509781 0.014031015 -0.1970595 0.07515209 0.101093404 -0.010851714 0.12524953 -0.0072508696 -0.14129193 0.26606447 0.10213036 0.28496242 -0.3448494 0.23543236 -0.02220673 0.15039392 0.20663337 0.08816895 0.23121457 0.07599845 -0.048930813 0.1150726 -0.17208655 0.06393791 -0.12288182 0.036227014 -0.19608173 0.18443115 -0.079866864 -0.059328213 0.26560253 0.10760002 0.24474569 0.116654634 0.23357147 0.18289803 0.1383155 0.036648523 0.30530527 0.1490551 0.072365105 -0.14959788 0.097502284 -0.102805056
sud -0.087363996 0.1373177 -0.1418181 -0.018448634 0.05906265 -0.3113081 0.18021007 0.3794235 -0.15536444 -0.13090554 0.004205484 -0.22021371 0.049917486 0.1298714 0.13293421 -0.09519682 0.115453966 -0.10549847 -0.08529752 -0.39870074 0.13057642 -0.004727314 0.08506871 -0.064716764 -0.03195696 0.02656968 -0.0770362 -0.09275739 -0.083837 -0.023281477 0.22850092 -0.068512626 0.094536446 -0.24063699 -0.06484788 0.20154677 0.1665764 -0.030833589 0.042444315 -0.21551284 0.058375727 -0.18380196 -0.12551516 0.06211653 0.10328945 0.0644313 -0.12729234 0.0036017708 0.16804467 0.07767992 0.06073982 -0.11389328 0.07419198 -0.08510937 -0.045916475 0.046707 0.15530373 0.011172639 -0.17334586 0.067185335 0.10078052 0.006950855 0.13637243 -0.001358367 -0.14871027 0.2587727 0.10042394 0.2753619 -0.33535796 0.23423111 -0.015492227 0.14307524 0.19684885 0.07679385 0.22065154 0.06250389 -0.057175193 0.10871135 -0.18154785 0.04525578 -0.11566485 0.023518883 -0.19159348 0.18323672 -0.07415316 -0.060783934 0.23835218 0.09921042 0.22056156 0.10076731 0.21728264 0.16494837 0.1292123 0.048823927 0.2836173 0.13740554 0.073980436 -0.14197505 0.09224071 -0.09100958
temperatures -0.14305721 0.22215922 -0.18861486 -0.025609804 0.061199456 -0.42595255 0.26817405 0.51764196 -0.2092242 -0.17581092 0.017884677 -0.30855644 0.08191159 0.1663241 0.18537666 -0.12773646 0.16460809 -0.17396636 -0.14341325 -0.58612335 0.16460538 0.014805004 0.112293445 -0.088714756 -0.071739554 0.04515558 -0.09603591 -0.16622336 -0.12021579 -0.027283529 0.31186935 -0.09836552 0.14809424 -0.33102623 -0.10499917 0.30831677 0.2210042 -0.07424658 0.04899487 -0.30522755 0.0845585 -0.24989909 -0.17976244 0.08284324 0.1518965 0.09390804 -0.1640425 -0.009341798 0.22526753 0.122926325 0.0747799 -0.15523955 0.10011705 -0.11449836 -0.059550665 0.06589116 0.22417168 0.015247899 -0.25477877 0.08964335 0.14712526 -0.014239336 0.17475213 -0.01790044 -0.19609113 0.35519502 0.122618206 0.36805427 -0.4835995 0.33195832 -0.036280293 0.21156496 0.27262643 0.09752141 0.28803957 0.09656492 -0.07584378 0.14276965 -0.24630666 0.076293394 -0.15260457 0.035242714 -0.27537483 0.25334626 -0.109050974 -0.08936937 0.33014256 0.1345687 0.3211485 0.1507671 0.2887692 0.23466584 0.16538517 0.06676727 0.39016554 0.18162557 0.08707877 -0.19517589 0.13646296 -0.12415831
cops -0.106551416 0.16186564 -0.14801915 -0.013653769 0.05959497 -0.3257867 0.18968591 0.3992305 -0.15597707 -0.13571176 0.012337546 -0.2375802 0.05923307 0.12993838 0.140124 -0.10856942 0.11472911 -0.12065687 -0.108846426 -0.43926266 0.1323517 0.00913793 0.08609333 -0.056009877 -0.043207295 0.027181268 -0.07151882 -0.11144685 -0.10859624 -0.02863115 0.23564479 -0.08090679 0.107592896 -0.25637898 -0.073760524 0.22584587 0.17905094 -0.028656371 0.04052564 -0.21984859 0.06672083 -0.19596349 -0.15469183 0.067525074 0.11484197 0.055586167 -0.13407847 -0.00044825918 0.17357814 0.09284384 0.07806238 -0.12292957 0.08499884 -0.09211766 -0.060206108 0.047469366 0.17421228 0.006523745 -0.2080024 0.06505607 0.10770363 0.0058488236 0.14189003 -0.019305257 -0.16120964 0.27507165 0.09725923 0.28314286 -0.35285085 0.24294512 -0.019820347 0.16155608 0.19902702 0.07904911 0.23421279 0.08073807 -0.056938905 0.11275647 -0.18879993 0.056312643 -0.12242972 0.026531672 -0.20871967 0.1852667 -0.097663656 -0.054388184 0.25916696 0.10289826 0.23632148 0.12681386 0.21806818 0.18762514 0.13440286 0.051372014 0.3122335 0.14291777 0.07941094 -0.15245292 0.08671326 -0.10361634
nord -0.10684626 0.16612823 -0.13594984 -0.013755455 0.046744272 -0.32181957 0.18375024 0.39633527 -0.16165262 -0.12680817 0.0127729215 -0.22863188 0.060105607 0.12862581 0.12830108 -0.10796309 0.12909745 -0.12673597 -0.104121014 -0.4296658 0.13167927 -0.001706189 0.09470026 -0.061577298 -0.037505575 0.040056083 -0.08234706 -0.10633731 -0.09276252 -0.018881164 0.24314463 -0.07527822 0.11579366 -0.26780406 -0.06493016 0.21000312 0.17151631 -0.048005927 0.036451984 -0.22872198 0.059980053 -0.18969172 -0.14244878 0.05500583 0.1052913 0.060712863 -0.1280458 -0.0016508346 0.15959388 0.08550429 0.07717095 -0.108771496 0.072095826 -0.086984314 -0.058348432 0.028428255 0.1697384 0.009704984 -0.20270108 0.06553317 0.10484234 0.0027356008 0.1268184 -0.0010276883 -0.15271054 0.26966393 0.11100434 0.28738433 -0.36105293 0.25204733 -0.022491898 0.16538675 0.20422718 0.07566119 0.22723523 0.06250463 -0.05636349 0.11334355 -0.17687832 0.06712458 -0.12550212 0.02197004 -0.19626732 0.18951012 -0.09930845 -0.066328146 0.25957802 0.100116685 0.23212208 0.122939155 0.234431 0.17324118 0.13404362 0.037460726 0.29339337 0.1416032 0.069066525 -0.14128071 0.08873848 -0.092597894
fins -0.14128473 0.20993544 -0.18691778 -0.020468237 0.071011305 -0.44069725 0.25143644 0.52246165 -0.21580224 -0.1773464 0.009562274 -0.31835207 0.07658206 0.17619415 0.1857166 -0.119364895 0.15158817 -0.15812606 -0.12922329 -0.57602 0.17627396 0.015326426 0.11147369 -0.07455334 -0.048208088 0.051878586 -0.10588714 -0.1419973 -0.12236305 -0.03586158 0.31421453 -0.08749869 0.13980342 -0.34279245 -0.085414894 0.30408877 0.24311304 -0.066809595 0.03730645 -0.28818932 0.08652749 -0.26079535 -0.20500934 0.06518516 0.14898144 0.08751067 -0.162898 -8.10068e-05 0.22054799 0.10935022 0.09666613 -0.155214 0.10277315 -0.10057503 -0.06622199 0.06319402 0.21250995 0.0053821467 -0.2520475 0.09125494 0.13451906 -0.008053548 0.17683029 -0.005583037 -0.19776739 0.35464656 0.12651321 0.3639166 -0.4761837 0.34204796 -0.046068046 0.21049604 0.26686946 0.09786851 0.2838517 0.0988756 -0.089236334 0.13528632 -0.24265249 0.09111671 -0.15495704 0.03831611 -0.26161045 0.2432742 -0.13081945 -0.08151202 0.33228707 0.13136221 0.32526943 0.1605195 0.28693125 0.23652226 0.16593368 0.056918863 0.39616004 0.17927662 0.098103866 -0.20123963 0.12784624 -0.12246008
els -0.15766095 0.22965185 -0.2047032 -0.046793286 0.07196514 -0.49887598 0.27539518 0.59306467 -0.23747985 -0.19591336 0.00945008 -0.35776812 0.07911966 0.20207578 0.21365118 -0.13943695 0.1887856 -0.1923343 -0.14791724 -0.6605069 0.20846553 0.011571276 0.14054377 -0.103726454 -0.07704876 0.060212728 -0.112360165 -0.16454504 -0.14034514 -0.03537407 0.3746699 -0.11075487 0.15412845 -0.3947479 -0.10119237 0.32467887 0.27599284 -0.06660248 0.043956615 -0.32707903 0.10025951 -0.28598022 -0.2184888 0.067917645 0.17871964 0.09219572 -0.18955728 -0.0005432376 0.25559413 0.13078697 0.10426516 -0.16992085 0.13190542 -0.11321537 -0.085078225 0.07214118 0.2525496 0.020893324 -0.2781514 0.10271326 0.16263561 -0.008734908 0.194922 0.0008562225 -0.23304018 0.4056912 0.15474267 0.40373582 -0.53219146 0.39139742 -0.044052713 0.24023242 0.29968876 0.10729397 0.33921552 0.1044693 -0.08449553 0.15561809 -0.28201973 0.09620651 -0.17433164 0.035585117 -0.30636567 0.2910539 -0.1448088 -0.0966023 0.35906872 0.16111936 0.35105306 0.18804327 0.3314276 0.26212066 0.19553158 0.050867263 0.44316423 0.22053452 0.1227078 -0.22592491 0.14345495 -0.14072014
o -0.18043411 0.25163138 -0.2231675 -0.046075646 0.07456747 -0.53520024 0.31862468 0.6372087 -0.26471037 -0.21387982 0.020090126 -0.37258714 0.085053384 0.2026994 0.21559477 -0.15113501 0.18837501 -0.18885475 -0.18000865 -0.70807785 0.19507247 0.012883754 0.13703643 -0.099181764 -0.075311854 0.041420672 -0.108413264 -0.19262879 -0.15294814 -0.054671336 0.392383 -0.0998649 0.18036555 -0.39492008 -0.10396015 0.3558235 0.29207984 -0.090618506 0.065687604 -0.35988843 0.09278263 -0.31485638 -0.22320098 0.083035916 0.19537072 0.10296073 -0.18387389 0.0029787153 0.27454922 0.14130262 0.10728608 -0.1746338 0.13387258 -0.13005805 -0.075524315 0.07647474 0.26970652 0.024093017 -0.30209607 0.11899419 0.1885363 -0.0052171457 0.21277271 -0.01769662 -0.2423761 0.42465687 0.14413467 0.4400994 -0.57505715 0.41735843 -0.047472473 0.24857613 0.33103338 0.12664257 0.35376438 0.11646257 -0.09136622 0.1676692 -0.2952343 0.100450456 -0.16205011 0.04574645 -0.34294927 0.31049109 -0.14159389 -0.09879077 0.39277872 0.16353758 0.3952421 0.20169038 0.34758437 0.2759296 0.21020634 0.07104667 0.48516086 0.22264014 0.13097398 -0.2516194 0.16460842 -0.17508994
més -0.12941144 0.21193162 -0.18073237 -0.033921447 0.065968424 -0.4153227 0.23843685 0.507641 -0.20192987 -0.16097936 0.006577985 -0.28905323 0.06944837 0.15945089 0.16316068 -0.11945708 0.1576334 -0.14809904 -0.13891366 -0.56353927 0.15672138 0.0074565085 0.10744396 -0.09140735 -0.058278598 0.040377535 -0.10155511 -0.14996701 -0.1209653 -0.027572514 0.3028856 -0.08934044 0.13221659 -0.32789662 -0.08804665 0.29372683 0.22824179 -0.062602006 0.049629472 -0.29817623 0.07556185 -0.25045463 -0.1759082 0.066906564 0.14170147 0.07793036 -0.1570845 -0.0066209054 0.21087576 0.11096621 0.07793677 -0.14944577 0.096476145 -0.107603855 -0.06048545 0.04869067 0.20129476 0.007627217 -0.25811306 0.08821738 0.14727537 -0.008726866 0.17106147 -0.008701255 -0.18171665 0.34328002 0.13536328 0.34659046 -0.4631848 0.3148 -0.043231033 0.19251561 0.25114858 0.095543005 0.2815993 0.08663153 -0.08560322 0.13673402 -0.23166575 0.082352675 -0.1322927 0.04382076 -0.26595327 0.24460296 -0.12032453 -0.08125174 0.3220335 0.14052603 0.30360207 0.1549104 0.27026805 0.2227183 0.17608546 0.05024522 0.38113025 0.17281201 0.082675435 -0.18410406 0.11906716 -0.12212882
les -0.15861312 0.21722536 -0.20379145 -0.024417492 0.07987818 -0.44095117 0.27335358 0.536508 -0.22787084 -0.16639219 0.011147661 -0.31204826 0.08027334 0.17023805 0.17889813 -0.13414937 0.16738296 -0.17860848 -0.14065686 -0.6065922 0.1830004 0.007389462 0.135468 -0.093986064 -0.07113554 0.033436943 -0.101187654 -0.15327169 -0.1303916 -0.027550496 0.328036 -0.09199072 0.1530355 -0.33437318 -0.097174354 0.3143962 0.22796196 -0.06431549 0.05089841 -0.30719066 0.09009931 -0.2695679 -0.19575563 0.0754077 0.15664145 0.090616986 -0.16008468 -0.005413745 0.23543245 0.122490294 0.09066367 -0.15126455 0.11232614 -0.11043457 -0.070666246 0.060679365 0.22657083 0.009123706 -0.2779501 0.08356339 0.15105511 -0.011835825 0.18010722 -0.019561782 -0.21325105 0.3604784 0.14115554 0.3810759 -0.49718708 0.34915835 -0.035259858 0.21102463 0.27646112 0.10496372 0.29812258 0.08685002 -0.07517911 0.14436157 -0.25383425 0.08996874 -0.15148738 0.04262879 -0.28571308 0.26468277 -0.12312165 -0.095399 0.33378688 0.15206836 0.3299193 0.16466194 0.30503467 0.236371 0.17859899 0.0492309 0.40524763 0.18854441 0.10507021 -0.20527107 0.14022669 -0.13530608
final -0.07159041 0.11006634 -0.10119853 -0.012113233 0.0422551 -0.22133121 0.13588387 0.25879675 -0.09962031 -0.081524104 0.012594099 -0.16972974 0.03654208 0.09024641 0.08364343 -0.074167185 0.08725423 -0.08867147 -0.07367079 -0.28389737 0.081744075 0.013130467 0.063046746 -0.037478317 -0.032205965 0.01575109 -0.05739195 -0.07722285 -0.07120255 -0.022458704 0.17018564 -0.05461228 0.06803896 -0.17632882 -0.052338462 0.14058578 0.117365584 -0.01934692 0.034667537 -0.15646717 0.032842923 -0.13199723 -0.10987922 0.030817505 0.06985541 0.051627617 -0.09059403 0.0031595507 0.11605562 0.06578586 0.040158235 -0.08736338 0.06364341 -0.0636979 -0.02924558 0.029589243 0.122867204 0.007399233 -0.13259599 0.053561054 0.06796538 -0.012782678 0.09249491 -0.010501794 -0.109690204 0.17780448 0.052657265 0.19023882 -0.2405953 0.16822866 -0.014482054 0.109881565 0.1438903 0.04569843 0.14421336 0.036965106 -0.05230022 0.06732827 -0.12671578 0.03489431 -0.08128796 0.016370272 -0.1311188 0.12718081 -0.05294649 -0.054196578 0.16256788 0.06672163 0.17258975 0.081230246 0.1483142 0.12018933 0.091745764 0.018780258 0.2042033 0.1045391 0.05617208 -0.098152936 0.054559268 -0.07317987
tarda -0.10470061 0.16400327 -0.167278 -0.022198755 0.04938757 -0.34970218 0.2107485 0.42083916 -0.16717514 -0.13038658 0.009952048 -0.25607672 0.0650474 0.1529668 0.1324571 -0.09379375 0.1411167 -0.13159533 -0.11130458 -0.47267246 0.15321277 0.007857736 0.107076176 -0.05631555 -0.03941112 0.027773997 -0.07901655 -0.11961519 -0.10338135 -0.025274804 0.27507633 -0.07193246 0.13274726 -0.2863283 -0.07757717 0.24168216 0.19674757 -0.05245538 0.032178394 -0.24651358 0.057092123 -0.19818172 -0.15878893 0.046268694 0.12770543 0.08167441 -0.14113535 -0.004686894 0.18448713 0.10378217 0.05749987 -0.12345251 0.08226295 -0.09069139 -0.05093949 0.040190153 0.17533532 0.0113521395 -0.21017586 0.08390448 0.12462227 -0.016928615 0.13833106 -0.0067706923 -0.17821242 0.28154546 0.09538097 0.2927321 -0.37423205 0.28352594 -0.029712489 0.15687051 0.226313 0.09171622 0.23810747 0.06527478 -0.066740416 0.11193803 -0.2100172 0.07282887 -0.12026609 0.020154022 -0.22995673 0.21106091 -0.114850596 -0.07857194 0.27270958 0.10103658 0.2548557 0.123063155 0.22914918 0.19869407 0.1375425 0.03825336 0.3142672 0.1486627 0.07174776 -0.17621478 0.109530844 -0.09886145
s -0.1170509 0.14854714 -0.15247482 -0.027527647 0.06576763 -0.3341012 0.19023712 0.4033706 -0.17582056 -0.12931514 0.011476193 -0.24683358 0.061971214 0.13768251 0.14694294 -0.11187618 0.12799697 -0.14624695 -0.113904804 -0.46215653 0.13353552 0.005393931 0.09254523 -0.062994145 -0.031438768 0.0387602 -0.07224124 -0.10067536 -0.09862204 -0.03432218 0.24091993 -0.06681058 0.10735121 -0.26462343 -0.056862853 0.2211838 0.18556614 -0.06259219 0.045231022 -0.22106004 0.043450583 -0.20924197 -0.14086153 0.058181986 0.11942381 0.06834663 -0.13251932 0.014898621 0.171528 0.087500885 0.06933148 -0.11426224 0.07438861 -0.0766514 -0.051809926 0.035127636 0.18256773 0.018334698 -0.19035621 0.0725687 0.110732034 -0.012127422 0.14448349 -0.0006833462 -0.16329277 0.27274925 0.09387945 0.29170525 -0.3811883 0.2689818 -0.024661073 0.17472517 0.2068141 0.07556856 0.21618223 0.060238857 -0.06068262 0.11182907 -0.19393268 0.06739137 -0.12673484 0.02301476 -0.22776426 0.20260882 -0.098357156 -0.053719345 0.24929635 0.11231836 0.25727135 0.1280718 0.2192862 0.19567291 0.14434113 0.051626317 0.31687677 0.15768942 0.08753754 -0.16358563 0.09321687 -0.110287614
precipitacions -0.08475963 0.12069805 -0.114354685 -0.009748934 0.037106097 -0.2566958 0.15717374 0.31446397 -0.119943246 -0.09498846 0.010481682 -0.19711451 0.04576054 0.08980592 0.103821665 -0.090297654 0.091467395 -0.11322801 -0.0723408 -0.351372 0.11445412 -0.008485077 0.069841415 -0.048666164 -0.033685464 0.02624629 -0.0576549 -0.08347642 -0.0829845 -0.035623893 0.19764224 -0.056082673 0.097712055 -0.20987996 -0.044715542 0.15851118 0.14988314 -0.03603778 0.024321942 -0.16541547 0.03339104 -0.16808419 -0.11550656 0.043829363 0.08283392 0.041340537 -0.08218629 0.005417426 0.13395573 0.07415233 0.046064205 -0.08743085 0.06377926 -0.0510609 -0.043081082 0.035216752 0.13935818 0.0005725423 -0.1640205 0.06597468 0.090751894 -0.0080861505 0.11317559 -0.0073163733 -0.1305143 0.20888616 0.069679976 0.23002194 -0.28187123 0.1935726 -0.020109948 0.12329221 0.17132196 0.059360925 0.17843285 0.05389093 -0.052346967 0.08957974 -0.14575158 0.045034092 -0.09465024 0.013488512 -0.17444369 0.15695687 -0.083205946 -0.05606078 0.19687614 0.07899039 0.199406 0.09342805 0.16665427 0.14638467 0.11501423 0.033680867 0.25036544 0.120396204 0.05561757 -0.119388334 0.06678913 -0.091153264
forts -0.101684615 0.13561718 -0.12212542 -0.017970059 0.0490645 -0.30765775 0.16638939 0.35348716 -0.13875197 -0.12362367 0.014746494 -0.22117576 0.059765857 0.11955389 0.1254537 -0.09737631 0.11054326 -0.11556832 -0.0868766 -0.39559588 0.121626884 0.009117732 0.090286426 -0.06613371 -0.029080506 0.03205982 -0.07432369 -0.09303286 -0.09207049 -0.014416784 0.21522318 -0.057471346 0.10224889 -0.24005954 -0.06656219 0.21283795 0.16315007 -0.04499037 0.035978075 -0.20716703 0.05941888 -0.1847199 -0.12662034 0.052274007 0.113953106 0.065566495 -0.11987309 0.00658023 0.15468365 0.06916467 0.07133607 -0.09595063 0.08581303 -0.0840626 -0.056799892 0.041460115 0.14706108 0.018563354 -0.17696553 0.071444154 0.10564407 -0.00306828 0.11994001 -0.009306945 -0.12900804 0.23749453 0.088361785 0.25731358 -0.32208183 0.23585507 -0.028591705 0.14997678 0.18299752 0.07544594 0.21405843 0.0671266 -0.05967286 0.09358626 -0.16128318 0.064898245 -0.09875002 0.019909611 -0.19080831 0.16596018 -0.0887628 -0.05622898 0.22438277 0.08736612 0.22909428 0.11871912 0.21170618 0.16766319 0.11226178 0.030574437 0.27907732 0.12260084 0.061617397 -0.13584325 0.08468588 -0.10142082
no -0.10593912 0.15183777 -0.1598737 -0.025217626 0.05804239 -0.34252608 0.19400074 0.41816407 -0.15663205 -0.14251761 0.026500514 -0.2396965 0.047945764 0.1275485 0.147457 -0.09702389 0.11675851 -0.14484757 -0.10148373 -0.46811107 0.12937757 0.0047928807 0.10572069 -0.074129574 -0.03709418 0.030524004 -0.06860825 -0.1048571 -0.099923424 -0.02291016 0.25019452 -0.08491509 0.12933715 -0.26984334 -0.061691955 0.22319004 0.17669709 -0.06315128 0.046749398 -0.2344812 0.055395085 -0.2179098 -0.15707687 0.04907424 0.13172458 0.06062926 -0.11748931 0.0004144524 0.17665091 0.10447625 0.06262121 -0.12212917 0.08281169 -0.07404917 -0.039059307 0.038740948 0.1790346 0.016280264 -0.2102338 0.08063582 0.10512279 -0.00059160567 0.14482002 -0.006062855 -0.16867384 0.28060177 0.107600816 0.3031564 -0.38728732 0.2723446 -0.021802742 0.16433237 0.225252 0.07702457 0.22222906 0.061983295 -0.06921967 0.105542 -0.20051046 0.057046946 -0.107688956 0.019792093 -0.22866346 0.2105784 -0.08446208 -0.06053108 0.25621262 0.10719482 0.2523085 0.13538386 0.21468765 0.18773998 0.1472968 0.039526395 0.31816688 0.15722735 0.09398568 -0.15461195 0.11365411 -0.12023856
núvols -0.11809644 0.17803688 -0.17073792 -0.027556501 0.054785736 -0.38397875 0.2271479 0.46456942 -0.19411688 -0.15691575 0.008709067 -0.26242918 0.05090766 0.15818483 0.1551974 -0.10956521 0.13456504 -0.14766738 -0.12061479 -0.5032371 0.14571624 0.01011557 0.111253336 -0.067983635 -0.039969634 0.03246521 -0.07544966 -0.13842587 -0.113761924 -0.023347355 0.2833727 -0.089307934 0.12950736 -0.30501816 -0.07600589 0.2684928 0.19803567 -0.048139043 0.04833835 -0.2672026 0.05754192 -0.22942138 -0.17408721 0.06808921 0.14279102 0.08083601 -0.14261451 0.007599315 0.18476982 0.10243359 0.072212145 -0.12284219 0.08845468 -0.10391797 -0.056677163 0.051094756 0.18328902 0.004467549 -0.22467886 0.07523646 0.12073644 -0.01048326 0.15124036 -0.0029340617 -0.18003361 0.31166306 0.111570284 0.3250661 -0.41197765 0.29780078 -0.025174815 0.18476437 0.2268009 0.093249805 0.26577812 0.075087324 -0.07676428 0.1157712 -0.2064891 0.074638635 -0.11665111 0.021732973 -0.23134904 0.20680283 -0.09908854 -0.07205432 0.2902518 0.10798517 0.28979138 0.14801094 0.24448301 0.19464374 0.16206186 0.042830072 0.33791462 0.17216043 0.08296086 -0.1841787 0.12257 -0.121708445
que -0.18513457 0.2569614 -0.24606998 -0.043604318 0.077896446 -0.5495613 0.31240585 0.6649696 -0.25850156 -0.21506631 0.020048061 -0.39873606 0.09742672 0.22231545 0.22310966 -0.16761035 0.1927186 -0.19889604 -0.17524251 -0.7225358 0.22671345 0.01772929 0.1480126 -0.09573488 -0.07631297 0.043421365 -0.11027889 -0.20407264 -0.15794258 -0.048010215 0.3889917 -0.11527167 0.19091392 -0.42503494 -0.11975757 0.37937003 0.28753534 -0.089480065 0.06484933 -0.37502593 0.11071346 -0.32212797 -0.23186268 0.078397386 0.19233327 0.12486428 -0.20162506 0.0010307317 0.27985424 0.1480798 0.09661136 -0.19375128 0.14145972 -0.1403399 -0.072972395 0.06832692 0.28213003 0.016221356 -0.31343865 0.10405196 0.18758951 -0.009354316 0.22038902 -0.01769097 -0.26101393 0.44871047 0.1558933 0.46844873 -0.6014694 0.4269775 -0.032740213 0.25937974 0.34530306 0.13016239 0.37553102 0.12610792 -0.104312435 0.17004433 -0.31515667 0.11663416 -0.18681316 0.045671247 -0.34487525 0.31979913 -0.14357384 -0.10816464 0.41469944 0.17589085 0.4061954 0.2073813 0.35930476 0.29018372 0.22444108 0.066315286 0.49265596 0.2503893 0.11007054 -0.258245 0.15743971 -0.16163145
esperen -0.10427499 0.15035881 -0.145611 -0.023907026 0.045813926 -0.34166256 0.19544815 0.40358883 -0.16512148 -0.13760768 0.022407714 -0.23375924 0.054147106 0.13364829 0.14241496 -0.104582325 0.11159657 -0.1349353 -0.1029644 -0.44600317 0.14096418 0.00907295 0.10361231 -0.074786104 -0.042589817 0.024661325 -0.06306705 -0.10233421 -0.10518527 -0.030329812 0.25624713 -0.072265424 0.11990419 -0.2693149 -0.054234568 0.21715873 0.17813337 -0.060976222 0.03339321 -0.23454429 0.042843875 -0.20532219 -0.15516163 0.050751608 0.1276118 0.07197913 -0.120269485 0.0024558422 0.18579113 0.09304623 0.07080594 -0.10537032 0.06964604 -0.09286243 -0.036709905 0.044960693 0.17273922 0.015781853 -0.20626856 0.064579606 0.10123008 0.0048561534 0.13796729 -0.020370139 -0.17012884 0.28308696 0.09567399 0.28601214 -0.37657598 0.26281956 -0.030009812 0.16310649 0.21904995 0.08321576 0.21833025 0.070690036 -0.05907011 0.09494562 -0.20508286 0.070064805 -0.12407494 0.024003657 -0.23014288 0.21082959 -0.09991828 -0.072070315 0.25115845 0.10365501 0.26093498 0.13716266 0.2183672 0.19110705 0.14718331 0.04178821 0.30801246 0.15188727 0.08598574 -0.14601296 0.09748139 -0.12419594
pirineu -0.10767211 0.17183001 -0.15588364 -0.024190443 0.04961247 -0.3300152 0.20891519 0.40868467 -0.15969002 -0.12561747 0.015498754 -0.2526584 0.060121994 0.13001642 0.13604204 -0.095310226 0.12211614 -0.11538709 -0.107293196 -0.4493205 0.13262141 -0.004411987 0.083829604 -0.060558934 -0.05100134 0.034530986 -0.07146732 -0.1245542 -0.10470514 -0.034757525 0.23858663 -0.072750315 0.12614343 -0.26845735 -0.07490487 0.24017638 0.19349822 -0.035391934 0.02675075 -0.226289 0.054400112 -0.19195606 -0.14408565 0.05137447 0.12568977 0.062444247 -0.11997019 0.0075883484 0.17884924 0.097188026 0.06428134 -0.11320767 0.0792466 -0.09367419 -0.049904943 0.030831544 0.16940634 0.008667705 -0.19040376 0.063452914 0.10939568 -0.008850615 0.13090406 -0.012819305 -0.15307684 0.26771438 0.099750325 0.29953873 -0.37038156 0.25713784 -0.019117717 0.16464104 0.21023251 0.09168114 0.23770267 0.07498195 -0.058807835 0.104523994 -0.18196255 0.068429895 -0.12146656 0.01984301 -0.21436621 0.185446 -0.09318667 -0.07751899 0.2544789 0.106828436 0.2517919 0.12600261 0.21323277 0.18888366 0.1420853 0.047376864 0.31823596 0.15025876 0.08302213 -0.14599551 0.099527806 -0.104710095
mig -0.10166889 0.13819778 -0.12824884 -0.027239237 0.044668805 -0.3148799 0.19097452 0.3776116 -0.15601608 -0.12269471 0.0066878274 -0.2248591 0.044914756 0.1177261 0.12864116 -0.08642018 0.112780735 -0.10672893 -0.09986719 -0.42143705 0.11539375 0.015629007 0.094509825 -0.06796861 -0.0327926 0.03998204 -0.07506394 -0.1114294 -0.10307612 -0.026935192 0.22647515 -0.060992707 0.11923936 -0.24757545 -0.073084496 0.21598552 0.16058208 -0.05572154 0.022305317 -0.21530917 0.055866886 -0.18411253 -0.14583984 0.06071576 0.11816898 0.057538882 -0.104964204 -0.0063664876 0.15603057 0.08756653 0.059625607 -0.112973526 0.07843521 -0.07778392 -0.059604138 0.035734013 0.14516424 0.01137623 -0.18158554 0.056712683 0.11306366 -0.0035780019 0.12834814 -0.004926379 -0.1501246 0.26074314 0.07995246 0.26285684 -0.3464814 0.24458644 -0.03464539 0.16087896 0.1990239 0.06821037 0.21663158 0.07383723 -0.06564877 0.09980642 -0.18422411 0.07218564 -0.095334664 0.023518644 -0.20870565 0.17884143 -0.09261117 -0.060342617 0.24411565 0.086692676 0.22118805 0.10463851 0.20317346 0.17124103 0.12510854 0.038327202 0.2914408 0.1379978 0.07839991 -0.14026491 0.085439 -0.099283285
dia -0.09587444 0.116364606 -0.12057724 -0.011190198 0.040038314 -0.25337753 0.1510464 0.31157893 -0.12174498 -0.10029321 0.007967848 -0.19102095 0.03687382 0.108918086 0.09872837 -0.08884521 0.085559145 -0.08734954 -0.0779197 -0.3395903 0.1168271 -0.0018049723 0.078467354 -0.046216697 -0.026967883 0.021252027 -0.04749204 -0.097256914 -0.06936401 -0.013706306 0.1915695 -0.049694024 0.09661191 -0.2016271 -0.04586366 0.18281727 0.13937055 -0.02861633 0.03551388 -0.1838571 0.051178094 -0.15478048 -0.11206481 0.03650723 0.08663917 0.056089208 -0.09408989 -0.0057750335 0.14381488 0.0672664 0.056674656 -0.08851792 0.074482806 -0.072899416 -0.043613385 0.03679284 0.13093491 0.013340629 -0.16148508 0.058308806 0.088115394 -0.0054093357 0.10865928 -0.011863922 -0.12973729 0.20461772 0.07890679 0.23107406 -0.29158825 0.21376021 -0.015886728 0.11940607 0.16160923 0.068504035 0.17023998 0.057469547 -0.043795254 0.09049431 -0.14303562 0.054948542 -0.092193104 0.015155957 -0.15601197 0.14252935 -0.07534789 -0.056899328 0.20678316 0.07260719 0.1975024 0.09793582 0.16908939 0.13210236 0.096636534 0.036298245 0.22836825 0.12316411 0.05607315 -0.1327099 0.07103447 -0.07294339
es -0.15848212 0.23547897 -0.21760423 -0.042801928 0.070084035 -0.47069252 0.27057925 0.55639493 -0.23999482 -0.18533729 0.025124133 -0.3505321 0.074050106 0.18349497 0.19997847 -0.1481205 0.17706057 -0.19200867 -0.14317387 -0.6229482 0.19416416 0.017795783 0.14362721 -0.08618064 -0.07228108 0.04952477 -0.10967068 -0.1685225 -0.1297956 -0.04814174 0.33804 -0.10660448 0.16375503 -0.3578382 -0.095127344 0.32763782 0.25053555 -0.06922759 0.04817581 -0.3255657 0.07449681 -0.28265572 -0.20207933 0.08296339 0.16185226 0.10305519 -0.16584145 -0.0057330937 0.23845705 0.12922372 0.08893776 -0.15037675 0.12808955 -0.10781031 -0.062071815 0.050487634 0.2390646 0.004785192 -0.28550974 0.088431776 0.16142818 -0.0054053077 0.18129617 -0.005686953 -0.21986061 0.38000727 0.13728377 0.39977568 -0.5212785 0.3738716 -0.03630686 0.22178355 0.2972357 0.11277863 0.3109451 0.1092855 -0.09310131 0.15465626 -0.2707742 0.082758844 -0.16476023 0.033849712 -0.30051768 0.27037203 -0.12577465 -0.08672826 0.3517738 0.15161994 0.3452708 0.17378046 0.30826876 0.25256497 0.18637799 0.054337684 0.4333166 0.2104873 0.09720112 -0.2138774 0.14048967 -0.15021653
oest -0.094264604 0.12748444 -0.12400353 -0.029284427 0.044243492 -0.27831298 0.1511762 0.3189239 -0.124738045 -0.11154032 -0.0016201807 -0.18521595 0.03274602 0.10137691 0.11507167 -0.09146713 0.08931324 -0.10871737 -0.076562874 -0.34914184 0.11241814 0.005759197 0.084659584 -0.056044262 -0.022265183 0.033938166 -0.05713814 -0.08004018 -0.09070375 -0.017295405 0.20290177 -0.059249002 0.080575526 -0.21432756 -0.059479624 0.17755535 0.14061476 -0.025654117 0.031191358 -0.17839463 0.048529387 -0.14889346 -0.12387084 0.03897813 0.08979575 0.045119077 -0.11130303 0.002702656 0.14151886 0.07388742 0.062758945 -0.09614696 0.06957823 -0.073227145 -0.034836605 0.040569007 0.13737783 0.010841084 -0.16846438 0.053105548 0.08135599 -0.0026954731 0.10742076 -0.011745157 -0.12320117 0.22373177 0.0737421 0.23712297 -0.2888466 0.20776032 -0.022827487 0.14269319 0.17977151 0.06562638 0.1862193 0.048378553 -0.051694434 0.088537104 -0.14569622 0.046169795 -0.1044874 0.027810114 -0.17657372 0.16511256 -0.06785278 -0.060161207 0.21460202 0.094727874 0.18920751 0.090695746 0.19430786 0.1518593 0.11981733 0.024282714 0.24657835 0.12610242 0.061532646 -0.1252078 0.071756124 -0.08766284
general -0.11512637 0.16044638 -0.1402653 -0.031019427 0.059685457 -0.32210135 0.18353723 0.3827783 -0.15241073 -0.13069734 0.010119546 -0.2316286 0.062169515 0.13041213 0.1330663 -0.100085646 0.11659305 -0.11835059 -0.10723539 -0.4294441 0.12020407 0.008635185 0.076958716 -0.06939934 -0.03057844 0.024020262 -0.061881077 -0.11004448 -0.10075168 -0.033376846 0.22819644 -0.059310116 0.100793056 -0.2505173 -0.073614866 0.22535896 0.1642388 -0.042529594 0.034101654 -0.22707461 0.056824364 -0.18650287 -0.13756715 0.043055575 0.104425594 0.05698648 -0.11234158 -0.00081039936 0.16422053 0.09223814 0.07033209 -0.10857461 0.07832192 -0.07844682 -0.056990694 0.032385163 0.17008457 0.0029914426 -0.19834976 0.073239274 0.114727795 -0.0030622769 0.13182017 -0.015888823 -0.15319736 0.2465963 0.08108334 0.26323086 -0.3519037 0.25351235 -0.012042245 0.15177946 0.19701347 0.08439908 0.21609825 0.058986053 -0.05419032 0.09870386 -0.18204644 0.050903924 -0.09680243 0.03444204 -0.21011092 0.17666323 -0.08621802 -0.05961278 0.23038706 0.10885825 0.22990847 0.1233643 0.22384006 0.17263828 0.13165508 0.040614154 0.28028455 0.14074598 0.0705754 -0.15943944 0.102308825 -0.10658816
resta -0.09647935 0.14178474 -0.14345849 -0.03109115 0.05632637 -0.31222147 0.18403213 0.36736372 -0.14049388 -0.11429423 0.020079127 -0.2109993 0.04065083 0.110143736 0.11844381 -0.093826376 0.11680269 -0.110802576 -0.09938966 -0.401896 0.119495705 -0.0019295234 0.09353094 -0.06988928 -0.036392797 0.024794945 -0.060398012 -0.10726331 -0.089838855 -0.0312031 0.23350224 -0.071921885 0.10711141 -0.23671915 -0.05381445 0.20058757 0.16030364 -0.047177073 0.041466318 -0.2138794 0.0629698 -0.18072824 -0.1300354 0.04448946 0.10817348 0.06259626 -0.12411572 0.011522966 0.15575098 0.089777224 0.062811054 -0.101065025 0.07837775 -0.07067847 -0.058137465 0.045683205 0.1650474 0.009831218 -0.17769682 0.06993056 0.10480724 -0.006968753 0.12773013 -0.0087499 -0.1382395 0.25745642 0.083135456 0.2633482 -0.34233826 0.23454252 -0.033673197 0.15209939 0.18913093 0.07380448 0.21585804 0.055586968 -0.054912362 0.09496443 -0.17611599 0.04950001 -0.11416339 0.03223662 -0.20017286 0.18008211 -0.09226607 -0.06365112 0.23794484 0.08573698 0.21781799 0.10424281 0.194661 0.1636182 0.121759504 0.038364828 0.28002328 0.12653755 0.06683819 -0.1431265 0.08182274 -0.10164746
visibilitat -0.093447596 0.11213761 -0.12209587 -0.024871778 0.04264376 -0.26740143 0.14467902 0.3201824 -0.11594194 -0.10814822 0.014166735 -0.19394895 0.044910405 0.106173 0.10293909 -0.06747151 0.092478 -0.092433006 -0.07299217 -0.35507223 0.09541043 -0.005032253 0.067198165 -0.05767666 -0.033423133 0.013844472 -0.0564841 -0.09050234 -0.07020387 -0.03395974 0.18331872 -0.045783695 0.097890176 -0.19991936 -0.052409828 0.17068507 0.13814597 -0.046788834 0.01968823 -0.17479777 0.04699786 -0.14588708 -0.1269843 0.044785034 0.09137224 0.04784905 -0.090761855 0.007660578 0.12437442 0.07250595 0.058866072 -0.08805848 0.071148455 -0.056619693 -0.035823304 0.036106087 0.13746403 -0.0048855245 -0.14599362 0.058669176 0.07964812 -0.0064367307 0.11214423 -0.0044572284 -0.13274083 0.20862217 0.07106418 0.22457796 -0.27471218 0.19238321 -0.006786766 0.115391515 0.16912034 0.07360095 0.17238411 0.042637326 -0.041772928 0.071174465 -0.15489061 0.04714683 -0.096215986 0.030624745 -0.1552432 0.14873639 -0.06371332 -0.03963074 0.19941354 0.085139565 0.1987069 0.103176095 0.17881392 0.14604563 0.09705602 0.046237234 0.24618553 0.12458405 0.04742509 -0.12195628 0.07345301 -0.075207666
migdia -0.09580782 0.1284876 -0.11024877 -0.008911139 0.04079904 -0.26508543 0.16158882 0.31802776 -0.12859854 -0.11520896 0.010239158 -0.18704449 0.048275042 0.09368164 0.1038125 -0.07654301 0.09873906 -0.10382654 -0.07845541 -0.35078183 0.09789295 0.015599757 0.067884095 -0.0559095 -0.023971112 0.027716534 -0.065077946 -0.090038665 -0.084001705 -0.027991377 0.18693115 -0.052843112 0.0806191 -0.20340778 -0.061197173 0.18697315 0.1386119 -0.041408364 0.037376996 -0.19186649 0.05093623 -0.15947323 -0.12653138 0.036177475 0.100474186 0.050646912 -0.09619454 -0.009111482 0.13803269 0.06903929 0.047229763 -0.09556235 0.05826439 -0.07220787 -0.044892345 0.030624717 0.12903202 -0.002012491 -0.15221299 0.055669818 0.09551973 -0.00044063028 0.11576416 -0.011538341 -0.13277707 0.21717198 0.07075431 0.2325085 -0.2808718 0.2048665 -0.015305962 0.13687831 0.16910036 0.06961864 0.18984427 0.05838903 -0.057303697 0.07618572 -0.15138876 0.04961625 -0.0820256 0.011504218 -0.16923057 0.1620222 -0.0783606 -0.06266328 0.20402713 0.0753528 0.18909094 0.08984486 0.17658474 0.1537018 0.11193679 0.041618757 0.2524608 0.12050452 0.055009864 -0.11589242 0.06826991 -0.086013295
sobretot -0.099914655 0.1673559 -0.15018503 -0.031149784 0.06463423 -0.33148527 0.18725629 0.40537536 -0.15416127 -0.12849581 0.008944664 -0.22495475 0.06246104 0.13485838 0.14622413 -0.10649339 0.12049946 -0.12380645 -0.09446738 -0.42568755 0.13714826 0.008074395 0.1009315 -0.05747525 -0.041359138 0.022473931 -0.07526255 -0.10059036 -0.10338969 -0.02368513 0.23957328 -0.07742804 0.11573174 -0.25420687 -0.06551628 0.23046623 0.17822371 -0.041194405 0.02784757 -0.21151483 0.05213395 -0.18313946 -0.13787991 0.058496386 0.107607484 0.07577459 -0.12798788 0.008652397 0.16650517 0.08117173 0.06941136 -0.12156032 0.07591554 -0.0973851 -0.046182342 0.038948976 0.1678389 0.014870293 -0.19673006 0.061688203 0.110926166 -0.009079835 0.13545708 -0.0007942864 -0.1541372 0.27236596 0.10368339 0.28122783 -0.3636697 0.25878578 -0.022436328 0.15865919 0.2056627 0.075081244 0.22826445 0.06593961 -0.053557597 0.10142635 -0.18466212 0.06210237 -0.122768104 0.023455825 -0.21477704 0.18947907 -0.087304935 -0.061362833 0.25311965 0.10449087 0.24330144 0.116996065 0.22846687 0.1780981 0.127591 0.037536733 0.29189494 0.1364906 0.078079306 -0.14525041 0.090554446 -0.109276526
partir -0.09784599 0.13919476 -0.13308759 -0.014610855 0.0519775 -0.27414063 0.15488797 0.34024906 -0.14338477 -0.100008346 0.0047927857 -0.20265256 0.051778033 0.107787006 0.1211632 -0.088196844 0.10669107 -0.114109464 -0.08253006 -0.37493297 0.10610212 0.0063774325 0.07773374 -0.053977054 -0.036995374 0.017148217 -0.07030845 -0.10352768 -0.09174124 -0.02729971 0.21414338 -0.061139446 0.08765833 -0.2235333 -0.053387366 0.1892114 0.14847507 -0.044224553 0.03776718 -0.20149323 0.043355357 -0.15719405 -0.1322826 0.04864017 0.09786167 0.06878116 -0.10092243 0.0037222526 0.14710025 0.07680498 0.056802858 -0.099751055 0.07443067 -0.0660532 -0.03377497 0.033039723 0.13887472 0.01459282 -0.17281182 0.05791408 0.08751216 0.0015087575 0.10417073 -0.005394679 -0.12170408 0.22611617 0.07507891 0.23195912 -0.30278605 0.21084206 -0.017255578 0.13464953 0.18231659 0.06722269 0.18199925 0.053409074 -0.04988492 0.08369253 -0.15099545 0.049823787 -0.10072529 0.02328058 -0.18213628 0.15285076 -0.08583336 -0.05764902 0.21237849 0.08816677 0.21372698 0.110231824 0.19145583 0.15319426 0.107035294 0.045177124 0.2555085 0.12785074 0.062024333 -0.12309928 0.088695906 -0.09378595
altes -0.10883378 0.15190837 -0.13307866 -0.03210204 0.055096757 -0.30391005 0.17930655 0.36771005 -0.15942852 -0.114175335 -0.0005582665 -0.22807118 0.055734683 0.10743271 0.12375657 -0.09633469 0.10867758 -0.12299935 -0.08979492 -0.40897518 0.12516177 0.003982894 0.09445992 -0.07052806 -0.034113873 0.024566865 -0.068929896 -0.11402971 -0.09405535 -0.03122652 0.21734685 -0.0535111 0.10439885 -0.23671147 -0.07019315 0.21583444 0.15307401 -0.04344092 0.030384548 -0.21796998 0.060581904 -0.184092 -0.13225406 0.056902986 0.101016775 0.06176664 -0.11929042 -0.008939882 0.14753528 0.084276475 0.06645429 -0.106704734 0.07400575 -0.07562104 -0.044180553 0.02652601 0.16426831 0.01710745 -0.19357818 0.0661798 0.108625285 -0.006008408 0.12454131 -0.015835539 -0.13409539 0.25666592 0.09565058 0.25985157 -0.33578324 0.23122889 -0.03490189 0.15806383 0.1911284 0.0735998 0.21646312 0.056632265 -0.048140444 0.08962632 -0.17546576 0.060001507 -0.1099905 0.022549627 -0.19963942 0.17210977 -0.085860424 -0.066437125 0.24619403 0.108409815 0.22510204 0.11135914 0.20192014 0.1762133 0.11870062 0.04613969 0.29311857 0.14110167 0.06879727 -0.13677733 0.09796706 -0.09717043
poc -0.11748124 0.17627496 -0.14838898 -0.026518956 0.058048185 -0.36564073 0.19957344 0.42581937 -0.18355331 -0.1384248 0.006912855 -0.25588527 0.065293245 0.14899026 0.15617207 -0.102655225 0.122934274 -0.12986237 -0.118276626 -0.48918608 0.14814913 0.0005342205 0.1044434 -0.07429283 -0.050456192 0.03257194 -0.08425894 -0.11513425 -0.11379568 -0.042506095 0.26768205 -0.069081604 0.129395 -0.27289194 -0.07529396 0.24107984 0.1945567 -0.044594098 0.030860199 -0.24895307 0.066213265 -0.20580168 -0.16921672 0.055277407 0.123501755 0.07390513 -0.12464195 0.0090870075 0.17194688 0.10568822 0.06667884 -0.12817411 0.08008417 -0.09558535 -0.045642845 0.04944083 0.16871074 0.012897672 -0.2160284 0.06417593 0.12646557 -0.0012708512 0.14689891 -0.0017244229 -0.16146648 0.28553888 0.10559333 0.30951315 -0.38754 0.28737375 -0.03751061 0.17237724 0.22363417 0.09315055 0.24086837 0.08478 -0.07086812 0.10032072 -0.20941769 0.06520421 -0.106243424 0.022937305 -0.2344781 0.21468256 -0.11123344 -0.06686518 0.27515844 0.09743608 0.26412246 0.13049953 0.240805 0.18932618 0.13732477 0.058153722 0.32088944 0.16627961 0.073603295 -0.15904458 0.10226008 -0.12075479
mínimes -0.12682965 0.17888038 -0.160243 -0.02847194 0.053854212 -0.36592302 0.21302655 0.44613746 -0.17167051 -0.14353237 0.009050439 -0.25621292 0.05206419 0.14019924 0.15765753 -0.11028715 0.12548186 -0.14910592 -0.12447973 -0.47982553 0.14260773 0.006784298 0.109912015 -0.08232302 -0.050289482 0.033063572 -0.0865347 -0.14011131 -0.097777195 -0.03518844 0.2561496 -0.06863642 0.11392491 -0.27979746 -0.076884046 0.2468107 0.18335968 -0.06149791 0.034077667 -0.2498608 0.06320851 -0.21827441 -0.1517557 0.059166208 0.13741699 0.083685495 -0.1347575 -0.0012697416 0.18547677 0.10877864 0.07916162 -0.1289129 0.0906909 -0.09244217 -0.053747308 0.04112878 0.18047173 0.0020566478 -0.21953708 0.07814234 0.12806392 -0.008209567 0.15303929 -0.02078567 -0.15398562 0.29188973 0.11147897 0.3157996 -0.39672875 0.28447977 -0.026386365 0.16615595 0.22258545 0.0825227 0.23471671 0.08324503 -0.061797697 0.11114903 -0.19549385 0.0652601 -0.12140717 0.035891388 -0.24123861 0.20322579 -0.09011019 -0.0784385 0.28372416 0.122353755 0.26091215 0.14222987 0.249091 0.18814498 0.13696136 0.03870377 0.3397273 0.16748391 0.080196224 -0.16885738 0.10064996 -0.11772157
llarg -0.09023965 0.13105778 -0.14549918 -0.020685788 0.03779302 -0.31700635 0.18152265 0.3760009 -0.15596522 -0.10850829 0.021767914 -0.21487196 0.04305759 0.13807018 0.11342378 -0.09050007 0.11699288 -0.11806226 -0.10947816 -0.4011825 0.1346514 0.0021635122 0.082649104 -0.05004752 -0.037466604 0.023712981 -0.060394194 -0.10665334 -0.086253785 -0.018846896 0.24110736 -0.057569645 0.113529176 -0.2502508 -0.058916103 0.2070205 0.168773 -0.036187045 0.037833124 -0.2213606 0.06831025 -0.18030797 -0.14122586 0.052229874 0.100968204 0.06785132 -0.11723736 0.0074233403 0.16450118 0.077621475 0.050005965 -0.111658506 0.08681509 -0.087788515 -0.03828807 0.03810997 0.15343161 0.019586304 -0.16286047 0.0736897 0.11308185 -0.017808875 0.12899598 -0.016350864 -0.15636262 0.24060942 0.09334341 0.26407576 -0.33936247 0.23708057 -0.030977694 0.13821252 0.18803982 0.08119757 0.2105465 0.06074144 -0.060774 0.0951446 -0.17852531 0.06578781 -0.09582675 0.033653103 -0.1971204 0.16882472 -0.1049022 -0.07076369 0.23444729 0.08066885 0.22389635 0.12076476 0.20241733 0.16741145 0.13294297 0.04346025 0.27238062 0.12524335 0.06849641 -0.13619134 0.094602115 -0.095643446
alts -0.109361224 0.17974418 -0.1572569 -0.034497302 0.06248572 -0.36809805 0.20711082 0.4499195 -0.1921675 -0.15185893 0.013994426 -0.25370806 0.05658989 0.15164904 0.15756631 -0.104415424 0.1244775 -0.13297515 -0.12964222 -0.49847624 0.15308657 0.0026315867 0.11091814 -0.07289311 -0.04611311 0.026716247 -0.088041894 -0.13188986 -0.09934577 -0.024592105 0.25904268 -0.08510715 0.13088389 -0.29564103 -0.06504278 0.2617543 0.18820699 -0.0432839 0.048737846 -0.2570478 0.0663041 -0.22594267 -0.16006012 0.069774106 0.13478637 0.0660661 -0.12927467 0.0007363031 0.18411173 0.10732835 0.07359034 -0.12347178 0.084793575 -0.0868727 -0.060360547 0.046314098 0.19077787 0.01408031 -0.2072749 0.07250019 0.12895443 0.0030330233 0.14756684 -0.0028591128 -0.18598989 0.31066903 0.11335574 0.32261437 -0.39890945 0.29289508 -0.03315239 0.17362347 0.22619174 0.08929884 0.243836 0.068252146 -0.076005965 0.1229023 -0.19788884 0.0777697 -0.12715906 0.028984075 -0.24165505 0.21732461 -0.10342632 -0.06257652 0.2711553 0.108179405 0.27511257 0.14141071 0.23633642 0.18956605 0.15312955 0.03721066 0.34224272 0.1696687 0.08102908 -0.17760967 0.10158948 -0.11771938
mitjans -0.09859429 0.15715946 -0.15247327 -0.01559285 0.042575106 -0.31863758 0.1986801 0.39404702 -0.17067623 -0.12150144 0.0012487916 -0.23914906 0.06320005 0.11856131 0.12632313 -0.10169775 0.1196432 -0.12013904 -0.11189271 -0.4387445 0.1402083 0.019890336 0.104407795 -0.060781423 -0.035817135 0.032786403 -0.06892814 -0.10776202 -0.09343612 -0.026638106 0.23456752 -0.076388545 0.11969911 -0.2610846 -0.060755163 0.22403178 0.17092623 -0.05056311 0.040137712 -0.23229031 0.048720755 -0.19786897 -0.14229347 0.060109414 0.11285439 0.07505628 -0.12814857 -0.0018781649 0.15549327 0.08236746 0.07161259 -0.12389359 0.07164111 -0.09385747 -0.04113262 0.038266692 0.16314583 0.0023708777 -0.19490544 0.067242146 0.10809936 -0.012635676 0.12622763 -0.005435532 -0.1661591 0.2679393 0.09391267 0.2905022 -0.35704708 0.26100275 -0.033978682 0.15245633 0.20838735 0.07883115 0.2134275 0.06482397 -0.051874492 0.0910625 -0.186914 0.06507208 -0.10858034 0.03509862 -0.20781606 0.17726733 -0.09927748 -0.073915705 0.23673709 0.09136471 0.23529653 0.120949045 0.2145834 0.16928756 0.13584916 0.044873845 0.30631405 0.14144626 0.081534185 -0.14341412 0.09306518 -0.11098346
matí -0.10829682 0.14515124 -0.13580799 -0.013305478 0.05838194 -0.33209455 0.19281271 0.39410028 -0.1510453 -0.13448048 0.012013745 -0.2377551 0.043207686 0.13124338 0.14203502 -0.08659379 0.11000508 -0.115800686 -0.10558626 -0.41901544 0.119980104 0.017604956 0.08374506 -0.06910226 -0.03859215 0.030227097 -0.07982826 -0.11225267 -0.095048964 -0.03303174 0.24564706 -0.06599601 0.119707346 -0.24224034 -0.07287512 0.2260347 0.18083325 -0.039439593 0.041230988 -0.22883391 0.063250765 -0.18861184 -0.14643271 0.04485615 0.11529276 0.07487498 -0.1308702 0.010119748 0.16850825 0.08585504 0.058177248 -0.11062646 0.08737735 -0.07572907 -0.0558578 0.048717048 0.16002451 0.00021126289 -0.17728062 0.07247174 0.11364189 0.004297324 0.121881865 -0.015520246 -0.15633439 0.2573151 0.09321662 0.27228415 -0.3597566 0.25311783 -0.026497945 0.15328665 0.20541933 0.08044007 0.22206765 0.0666575 -0.051639084 0.099183045 -0.1799165 0.058954474 -0.09997039 0.02870158 -0.20216347 0.19568421 -0.10270918 -0.055105973 0.24240942 0.09188128 0.2323574 0.10832176 0.2069012 0.17866093 0.1369389 0.0503041 0.28238997 0.1501506 0.06425661 -0.14657229 0.10366665 -0.102277495
regular -0.123009495 0.14284484 -0.1433776 -0.0224799 0.03909362 -0.3237952 0.1918401 0.39890197 -0.1526417 -0.12379118 -0.0020173641 -0.22843008 0.061252523 0.11810825 0.13134353 -0.09611326 0.11683702 -0.12194273 -0.10705825 -0.43404678 0.13477547 0.004284993 0.088410184 -0.06083089 -0.046068344 0.018713562 -0.06325546 -0.12477094 -0.1000867 -0.03286876 0.22651015 -0.06408016 0.118925534 -0.25184748 -0.057541866 0.2228117 0.16610634 -0.049259417 0.03623977 -0.21510635 0.068200074 -0.18313617 -0.15335764 0.045611236 0.11821455 0.072456256 -0.11042467 0.0025678386 0.17493859 0.080195054 0.0789945 -0.12270944 0.08307269 -0.076113425 -0.06302542 0.04533421 0.1571188 -0.0023284184 -0.18872456 0.071128 0.10431745 0.0052049067 0.12388876 -0.012882576 -0.14439526 0.26467004 0.082662895 0.2850271 -0.36047885 0.25105953 -0.020182202 0.16575965 0.21248148 0.074852325 0.23307742 0.05937187 -0.053662736 0.092174545 -0.19336715 0.060412727 -0.121030964 0.024150198 -0.20425227 0.18668652 -0.10114248 -0.07134888 0.23560846 0.10107856 0.24931431 0.12158054 0.2289053 0.17118289 0.13999125 0.050882086 0.30757648 0.14444688 0.0720632 -0.14713894 0.08336924 -0.09036374
cotes -0.10526889 0.15736535 -0.13057591 -0.01889105 0.048908897 -0.310664 0.17741208 0.3666293 -0.15889484 -0.12448366 0.005098676 -0.22129276 0.053600222 0.11716973 0.12875816 -0.10011478 0.10336239 -0.10744109 -0.08540655 -0.39438164 0.1254014 -0.00214188 0.09447086 -0.06592471 -0.04810694 0.038573403 -0.07256752 -0.11511996 -0.09411209 -0.016070377 0.21254903 -0.058468092 0.09882241 -0.23049173 -0.062295552 0.19437248 0.15480538 -0.028257502 0.039035246 -0.21226723 0.065235704 -0.16829431 -0.12258123 0.05240917 0.09385387 0.059008606 -0.1100937 -0.0059592305 0.16645692 0.07056538 0.05289078 -0.10989428 0.08348709 -0.0896462 -0.036521614 0.024248369 0.15892799 0.013033998 -0.1800959 0.07471966 0.10431607 -0.002784389 0.12713386 -0.0034315842 -0.13345766 0.25455013 0.09075302 0.24986365 -0.33387768 0.22614095 -0.032870796 0.14415252 0.19659269 0.06733564 0.21037813 0.06817697 -0.054025967 0.09833465 -0.16049397 0.046954416 -0.10143091 0.03568176 -0.19101124 0.16459481 -0.09065823 -0.07059781 0.23747711 0.10214334 0.2275053 0.107724845 0.20398442 0.1683915 0.11042123 0.02756027 0.28160146 0.12222809 0.06429468 -0.14299186 0.09468218 -0.09339962
metres -0.118356004 0.20002441 -0.1856764 -0.037261333 0.07137613 -0.42878005 0.24869362 0.5111512 -0.19639806 -0.17201687 0.0100555755 -0.30426246 0.06709541 0.16494593 0.18162102 -0.11294192 0.14884567 -0.1514174 -0.12823275 -0.5545145 0.17855693 0.0061329813 0.107579075 -0.080183946 -0.067654595 0.056171197 -0.10061793 -0.1426815 -0.12676923 -0.025308652 0.31743836 -0.10445292 0.13520463 -0.32872966 -0.07942922 0.28658485 0.2276213 -0.06165017 0.03553763 -0.2807566 0.067107566 -0.24441539 -0.19655725 0.05358301 0.1585087 0.08778076 -0.16617218 -0.013948091 0.2192027 0.09976693 0.08903517 -0.14158486 0.11090703 -0.10570107 -0.056773413 0.04356836 0.21754783 0.008322349 -0.2384041 0.094353475 0.13726352 -0.014339069 0.16112758 -0.014112474 -0.20130038 0.3336929 0.13446659 0.33342385 -0.46413004 0.316266 -0.04742687 0.19893502 0.25183254 0.08960624 0.2798346 0.088552535 -0.07513488 0.13820298 -0.24969327 0.08597338 -0.15492737 0.039539766 -0.25077635 0.2509202 -0.13214688 -0.079848155 0.29797742 0.12469725 0.29828966 0.14390327 0.2793126 0.23102601 0.1660914 0.039610326 0.38270405 0.17447685 0.08444414 -0.19891538 0.11796156 -0.11717407
lleugerament -0.110471085 0.15939017 -0.12692674 -0.027152108 0.04797223 -0.30743524 0.18507837 0.36756876 -0.15199295 -0.1298532 0.01812573 -0.229026 0.041338217 0.11753007 0.13135074 -0.09119863 0.108962834 -0.114575855 -0.09439653 -0.4005586 0.11353576 -0.0011948935 0.07694214 -0.05354999 -0.03991881 0.022622237 -0.06034323 -0.099212915 -0.080028094 -0.033517983 0.21688084 -0.0670984 0.09425433 -0.22753707 -0.058369037 0.20279554 0.16871682 -0.055246692 0.043534387 -0.21651793 0.05882813 -0.18530676 -0.12790063 0.06023753 0.10618855 0.058781512 -0.12207422 0.0031004695 0.15929662 0.09186529 0.054727696 -0.11683487 0.084244475 -0.080749564 -0.039600424 0.04871181 0.14854823 0.010441371 -0.1888065 0.057300832 0.0973438 -0.0046726433 0.11628414 -0.013348033 -0.14087056 0.2531295 0.09438094 0.26733097 -0.32946724 0.23290177 -0.030874642 0.15725723 0.19708139 0.06251296 0.2101476 0.075391926 -0.04683442 0.08750624 -0.17281419 0.05684612 -0.099570855 0.024037361 -0.20009798 0.18401118 -0.07533799 -0.061470293 0.22582152 0.09326509 0.2198962 0.11612277 0.20360802 0.1617926 0.11285339 0.038154878 0.28953892 0.14110692 0.07415017 -0.14406899 0.10089332 -0.09416723
moderats -0.08155694 0.13103168 -0.11860292 -0.010916544 0.05619746 -0.25034052 0.15255524 0.31260604 -0.12804374 -0.11433453 0.008023385 -0.18151501 0.032680973 0.09913476 0.11102676 -0.08754575 0.09525838 -0.08841044 -0.0866922 -0.33494738 0.09318447 -0.0044237473 0.081656605 -0.057730354 -0.03233658 0.016428605 -0.066477686 -0.09101977 -0.077348225 -0.01634795 0.17148234 -0.064088285 0.07846606 -0.20249656 -0.06080284 0.16593534 0.13917735 -0.028174715 0.036520045 -0.16703144 0.04902054 -0.14642797 -0.100147925 0.049125183 0.09306173 0.051157553 -0.110251695 0.008280207 0.13683145 0.06790405 0.066540375 -0.094754785 0.067066245 -0.07819007 -0.05284734 0.032914467 0.13745937 0.014838035 -0.16254741 0.059843305 0.08474035 0.0023102623 0.10638239 -0.0007669455 -0.11009408 0.19785444 0.06676919 0.23065837 -0.27980953 0.18192981 -0.022254933 0.12772733 0.17021985 0.05894537 0.17558415 0.046437573 -0.053149696 0.08519338 -0.14333116 0.03554142 -0.09029249 0.009910904 -0.16189028 0.15106772 -0.06729825 -0.040913384 0.20668006 0.08211956 0.19110686 0.09812671 0.18451497 0.15293069 0.10907283 0.0378053 0.24344018 0.10989524 0.05369299 -0.10536638 0.07668636 -0.08224862
màximes -0.119226985 0.16587143 -0.14197443 -0.022488564 0.060647395 -0.33997184 0.21431251 0.4135205 -0.17713475 -0.14081752 0.009301754 -0.25844362 0.057470437 0.12421109 0.15531814 -0.10729263 0.11856944 -0.14263698 -0.114483096 -0.47519833 0.13559277 0.012222914 0.09413094 -0.061594754 -0.049940445 0.024552252 -0.079636335 -0.1268875 -0.10846754 -0.039559085 0.24834797 -0.07511558 0.12075483 -0.2740693 -0.078712285 0.24069805 0.18236369 -0.04979662 0.038216326 -0.23582833 0.07316375 -0.21552008 -0.1456649 0.06478323 0.122716926 0.07975687 -0.13421696 -0.0046967603 0.16901448 0.106301315 0.059104674 -0.123472854 0.08718531 -0.09195585 -0.042461015 0.037540812 0.1668553 0.019652717 -0.2176141 0.08317897 0.11308559 0.0010485859 0.14030054 -0.016297383 -0.1666847 0.27292466 0.11215545 0.3043064 -0.37942752 0.27540463 -0.02370657 0.1723974 0.21771395 0.07305014 0.24291925 0.06625852 -0.066749364 0.10998612 -0.18973477 0.05534094 -0.11535464 0.03599652 -0.23050852 0.21137604 -0.1002891 -0.059093416 0.25750664 0.11812704 0.26631728 0.11851318 0.23119113 0.17941612 0.1479977 0.05514509 0.31416574 0.15425172 0.07608533 -0.17018239 0.105018154 -0.11788473
sud-oest -0.052188624 0.07422156 -0.068238914 -0.0037073037 0.025962254 -0.17363273 0.088554405 0.21107768 -0.079777904 -0.061023824 0.008578563 -0.12314748 0.03085146 0.07447389 0.07938962 -0.04522741 0.052857634 -0.07077946 -0.044635322 -0.23233362 0.07165404 0.010002479 0.046103507 -0.026927106 -0.029949816 0.022493606 -0.033278797 -0.052568164 -0.059150938 -0.0026975332 0.12848 -0.038630076 0.058580797 -0.12635678 -0.037685677 0.1194837 0.08652953 -0.020977195 0.018535752 -0.1177785 0.033275347 -0.106817305 -0.06974574 0.04049689 0.06529179 0.03957264 -0.07210261 0.0071244105 0.08031819 0.03894342 0.047527242 -0.05195755 0.03744818 -0.05229178 -0.019853799 0.022994477 0.09477661 -0.0025244418 -0.10236823 0.035691053 0.055614665 0.000861224 0.063494146 -0.0006989885 -0.08120243 0.1464023 0.050076924 0.15653525 -0.1846195 0.13221052 -0.020568695 0.07270252 0.10465294 0.038380057 0.12831177 0.040656842 -0.036401343 0.06379175 -0.094115674 0.018925598 -0.053769805 0.011246625 -0.11456693 0.10631237 -0.03789103 -0.02330784 0.13170089 0.062773675 0.12837234 0.052784804 0.126956 0.0909556 0.05845384 0.03125207 0.15165289 0.082619965 0.030592998 -0.066969365 0.04297579 -0.046351396
per -0.116027035 0.1901149 -0.17070445 -0.03524826 0.05074588 -0.38576418 0.2368203 0.46348032 -0.1872377 -0.14475232 0.0023311628 -0.27613422 0.05539577 0.14766371 0.16272274 -0.12328464 0.13425456 -0.15309666 -0.1352642 -0.5284526 0.16544805 0.019748855 0.110864654 -0.07790963 -0.041700456 0.03804238 -0.094290674 -0.14323169 -0.11413447 -0.025988603 0.28820598 -0.07127274 0.14170213 -0.30113295 -0.06795964 0.27698123 0.21853586 -0.045166854 0.031988606 -0.26538214 0.060873084 -0.23988818 -0.18506171 0.06821584 0.13791195 0.07313788 -0.13695513 0.013286381 0.20053342 0.11481994 0.06985809 -0.14289238 0.100627296 -0.10092544 -0.06794617 0.054284956 0.19000737 0.004474416 -0.22314584 0.088049464 0.14001262 -0.005453423 0.16787082 -0.0070313485 -0.1775833 0.31577817 0.11454847 0.34015837 -0.4350474 0.30987757 -0.030487934 0.19689903 0.24076656 0.09051621 0.25559297 0.07967829 -0.07471009 0.11420047 -0.21900666 0.08474053 -0.12118775 0.021999778 -0.25522852 0.21949852 -0.10729557 -0.0843989 0.29822806 0.118871495 0.28426787 0.15415734 0.26427624 0.2099335 0.16326755 0.039793514 0.34499156 0.17055346 0.09999495 -0.17707574 0.121153064 -0.13086155
l -0.1258332 0.18998577 -0.17380053 -0.0313922 0.06993809 -0.40188918 0.23524015 0.47757193 -0.19473629 -0.16111141 0.0054027685 -0.28774303 0.05843704 0.15287763 0.15631022 -0.12075828 0.13336752 -0.15304005 -0.12465595 -0.530374 0.15977475 0.017639784 0.11672516 -0.075298764 -0.0554767 0.036146928 -0.0842231 -0.13144696 -0.108757064 -0.0331724 0.29081514 -0.07834582 0.13398388 -0.2967264 -0.08725818 0.26111972 0.21739179 -0.044961486 0.047820188 -0.2708078 0.08024059 -0.2284591 -0.17300196 0.07461045 0.14267798 0.083473295 -0.14742999 -0.0070538744 0.19825651 0.10818488 0.0735702 -0.12911093 0.10625152 -0.11135438 -0.06759017 0.0421631 0.19912288 0.010387957 -0.23641473 0.081440404 0.13325971 0.0043722936 0.15544128 -0.021274898 -0.1777111 0.31058267 0.12392052 0.3401445 -0.43487686 0.29276103 -0.040790807 0.19192885 0.24785465 0.09661933 0.2635005 0.084271066 -0.06862835 0.123212636 -0.22890902 0.07085518 -0.13167773 0.027419133 -0.25038233 0.22389317 -0.10198522 -0.0809639 0.3095028 0.118336305 0.27700955 0.13573575 0.2569706 0.21709786 0.16392697 0.051642224 0.3696917 0.17312095 0.096601106 -0.18050036 0.11378847 -0.11417669
cap -0.07660762 0.12695122 -0.117214285 -0.025662089 0.040397346 -0.25172806 0.14218895 0.29875737 -0.12595202 -0.108820826 0.018145075 -0.18316993 0.03679565 0.09877943 0.09865171 -0.08329223 0.091404594 -0.09100673 -0.06895929 -0.3353281 0.09572687 0.0024651114 0.07294223 -0.055115964 -0.037591945 0.017281737 -0.050019816 -0.092406236 -0.079282664 -0.016022671 0.18529293 -0.06543474 0.09137754 -0.19810578 -0.050939415 0.158329 0.12658757 -0.025533177 0.032416455 -0.16587758 0.054927792 -0.15193637 -0.115537904 0.036186557 0.087042004 0.057221934 -0.09411135 -0.0074317986 0.13086994 0.07032114 0.04564619 -0.08318335 0.059120383 -0.056044653 -0.037033852 0.032284915 0.12520361 -0.0024005382 -0.13490734 0.05210361 0.09016709 -0.00060418627 0.089302115 -0.0073621296 -0.11504005 0.19799241 0.08602757 0.20334767 -0.2760254 0.19444966 -0.024834108 0.10941529 0.1550366 0.06518274 0.16211215 0.047864974 -0.05370417 0.08130467 -0.14470346 0.056618467 -0.085843794 0.02170647 -0.15669219 0.14837812 -0.075102404 -0.059694864 0.18060838 0.074059695 0.18755674 0.09135177 0.15947981 0.12887765 0.08924964 0.03346525 0.21480168 0.109988526 0.0580097 -0.11457722 0.06010895 -0.06822898
bona -0.06977715 0.082554266 -0.09602061 -0.0029588453 0.032425158 -0.2110949 0.11434855 0.24815121 -0.107554935 -0.08582547 0.0052581416 -0.15462616 0.0342421 0.07969635 0.09170382 -0.058645137 0.074215025 -0.06993574 -0.06739995 -0.26121002 0.079073355 0.002453731 0.04317579 -0.038582772 -0.018034045 0.01899784 -0.054424778 -0.072638996 -0.06645346 -0.0130232135 0.13810442 -0.034041278 0.06283516 -0.16074352 -0.049392853 0.14264895 0.09576549 -0.035617653 0.014697272 -0.1435449 0.03126447 -0.11507987 -0.08359565 0.032082826 0.06262722 0.043766614 -0.06419499 -0.004648787 0.096705526 0.06265473 0.04790155 -0.07764764 0.061509207 -0.061020117 -0.040508 0.01831957 0.103466645 0.0038291998 -0.11528039 0.050311632 0.07064502 -0.0053918995 0.073983125 -0.018140268 -0.09618734 0.1718343 0.046577983 0.17758961 -0.21415757 0.15066661 -0.021157969 0.09127562 0.1188557 0.042355485 0.14292268 0.03072074 -0.041338757 0.06764367 -0.112771094 0.027750358 -0.073432565 0.02192824 -0.12293388 0.11308663 -0.056057975 -0.035343774 0.15254746 0.058931943 0.15526539 0.06756015 0.14179017 0.09494818 0.07779243 0.035281703 0.17952555 0.09551651 0.050192833 -0.1008509 0.05779046 -0.06679987
durant -0.14046143 0.18814817 -0.16971755 -0.019445533 0.056454767 -0.40354276 0.22718431 0.48282248 -0.1919814 -0.16485032 0.016223822 -0.2963981 0.065082915 0.16385746 0.15727486 -0.116887555 0.14159085 -0.15838133 -0.12961009 -0.5281903 0.15160637 0.0020676025 0.111037605 -0.06634394 -0.049727608 0.047960497 -0.0954287 -0.12832916 -0.12226108 -0.040738355 0.28650755 -0.08282908 0.13299692 -0.30212784 -0.081064664 0.27457413 0.22248924 -0.06777632 0.042174157 -0.27881572 0.06467188 -0.23371544 -0.17829154 0.06235799 0.13848598 0.077377215 -0.15188503 0.0038848242 0.21364714 0.11569304 0.07581639 -0.1351782 0.09887473 -0.10468977 -0.066336155 0.04469895 0.2054984 0.0030226551 -0.24027908 0.08068149 0.142226 -0.0035258245 0.16625597 -0.0041074543 -0.1962279 0.3198948 0.12535791 0.34604597 -0.43090576 0.32049158 -0.02486428 0.18984887 0.24937701 0.10146376 0.27914035 0.09384515 -0.084795915 0.119545266 -0.2207854 0.078012556 -0.13449052 0.039405387 -0.24545446 0.22254133 -0.11783316 -0.08776257 0.30748323 0.12308299 0.29294458 0.1490561 0.27021646 0.22523057 0.1681157 0.052995533 0.3656816 0.18390489 0.09337324 -0.18475828 0.10722596 -0.12128327
baixes -0.10972335 0.151686 -0.13352302 -0.023748958 0.049610917 -0.29218653 0.16149482 0.35526806 -0.15102267 -0.12554498 0.012807127 -0.20909603 0.05573174 0.10196402 0.12351933 -0.08895966 0.11089976 -0.12261278 -0.08388026 -0.3987575 0.10416565 0.0060442854 0.078514904 -0.06303136 -0.045179177 0.03146415 -0.07603255 -0.101054065 -0.08051857 -0.024542838 0.21040164 -0.05365097 0.08569428 -0.23364475 -0.0570627 0.2087836 0.14547463 -0.05048996 0.035052683 -0.21037666 0.056524936 -0.1626262 -0.13200359 0.042700555 0.11217776 0.060443845 -0.1131973 -0.0028566103 0.13882515 0.07535167 0.054198407 -0.09989787 0.07407172 -0.0654814 -0.03599174 0.034491975 0.13678646 0.01130776 -0.18308821 0.07172957 0.101054214 -0.002794772 0.1254484 -0.014400726 -0.13578323 0.23481244 0.09870973 0.25552377 -0.31738472 0.22864836 -0.027438572 0.15231562 0.17399968 0.065516725 0.19110227 0.07163011 -0.05574222 0.08968764 -0.15414022 0.042623427 -0.102794126 0.0270712 -0.19196275 0.17803966 -0.07709592 -0.06374097 0.22831447 0.1041392 0.21543849 0.11377889 0.18728924 0.15509793 0.12857917 0.04483777 0.27109897 0.12447186 0.07049604 -0.13170242 0.0963159 -0.089292906
nuvolositat -0.082909726 0.12676886 -0.1360295 -0.022419639 0.04697726 -0.29138568 0.17206593 0.33702895 -0.14820981 -0.100665055 0.016579814 -0.20994805 0.04131963 0.1133668 0.113851674 -0.073450066 0.10701899 -0.10540379 -0.09530724 -0.38234034 0.1078685 0.013945398 0.07299687 -0.05450826 -0.042549055 0.037570585 -0.05607073 -0.098442316 -0.080637015 -0.025860384 0.22479984 -0.06427864 0.10487864 -0.22849055 -0.047531925 0.20499843 0.16321646 -0.0430125 0.030804794 -0.20697086 0.06378069 -0.17638886 -0.13880469 0.05129443 0.09630719 0.07188471 -0.11855918 0.012442942 0.15209562 0.06746482 0.05737542 -0.10499132 0.07945681 -0.06783997 -0.05251396 0.04322355 0.15016674 0.016397646 -0.1723665 0.054802578 0.08819017 -0.0004967847 0.10907206 -0.0034528752 -0.13077848 0.24343082 0.086877525 0.24251673 -0.30890968 0.22773735 -0.036047738 0.12777036 0.17727138 0.07621344 0.19363865 0.051241897 -0.05350058 0.09855781 -0.15571299 0.0607343 -0.10251578 0.019727422 -0.18092844 0.15817472 -0.09587219 -0.06098674 0.22033493 0.08647435 0.21473858 0.113448 0.17999431 0.16639252 0.112283014 0.036815032 0.25419027 0.12009835 0.06224454 -0.14240918 0.091680184 -0.08193314
costa -0.09809145 0.13799635 -0.11020343 -0.02574454 0.05176804 -0.27672383 0.16699931 0.3343365 -0.14981867 -0.101685725 0.0070721395 -0.21343742 0.049149238 0.09940132 0.12649791 -0.09267891 0.097498946 -0.10873132 -0.09480322 -0.3781262 0.118856184 0.0072254604 0.06517646 -0.055889867 -0.04701955 0.021862565 -0.05417602 -0.09322826 -0.090330005 -0.023255875 0.21178591 -0.06955768 0.090629555 -0.21740873 -0.07036982 0.19248289 0.15944806 -0.03884845 0.033538535 -0.19256483 0.048206378 -0.17383245 -0.124679916 0.05374891 0.10192651 0.057197563 -0.091058046 0.0063678366 0.13090023 0.08601487 0.0677473 -0.10905509 0.079509825 -0.07996386 -0.043360088 0.040071037 0.13349605 -0.004731512 -0.17443952 0.046439763 0.083745 0.008953193 0.11856228 -0.022396637 -0.11922727 0.23337846 0.09257595 0.25273025 -0.31693184 0.21403253 -0.019068042 0.13962276 0.18178697 0.05718982 0.19436857 0.07110499 -0.061492465 0.09624278 -0.15364806 0.046141695 -0.09745614 0.009080257 -0.18779753 0.16598625 -0.08247951 -0.04122662 0.20128424 0.077686474 0.21411128 0.112934075 0.18899234 0.1633661 0.12220659 0.030818673 0.26871514 0.117950514 0.059758566 -0.1350817 0.09113157 -0.09283117
bufarà -0.08959437 0.133536 -0.12365523 -0.025484366 0.04142387 -0.28259784 0.16189733 0.33723113 -0.14091404 -0.11106966 0.0012779944 -0.18890238 0.0433113 0.0990874 0.113593996 -0.07900923 0.10015509 -0.11055362 -0.09476899 -0.37611598 0.10902719 0.0124308085 0.073712304 -0.053134542 -0.034809113 0.031831395 -0.07166531 -0.08564075 -0.08841538 -0.015151161 0.19009623 -0.054569148 0.08261685 -0.22104295 -0.059722647 0.18319066 0.14647168 -0.033820536 0.03683801 -0.19017398 0.049354773 -0.16919641 -0.113573514 0.053714015 0.10711662 0.061272163 -0.11262462 0.010535806 0.13653293 0.07790155 0.0558179 -0.096685186 0.07453204 -0.07797204 -0.049535327 0.031883128 0.1440317 0.01563408 -0.17357981 0.06542634 0.08724454 -0.010865486 0.10917431 -0.006911586 -0.11910245 0.23382878 0.09275341 0.24815947 -0.3053949 0.20801003 -0.011453746 0.1425778 0.18064085 0.07415993 0.19240426 0.06095192 -0.057848103 0.09816346 -0.14557537 0.04161285 -0.09723425 0.031248925 -0.17014347 0.16705433 -0.06877487 -0.05652682 0.22657293 0.095039345 0.20023277 0.10036743 0.1999553 0.16027863 0.10689887 0.03238408 0.25312668 0.12566164 0.06567566 -0.13608967 0.08228318 -0.0747651
2007 -0.07777021 0.12192511 -0.10005175 -0.006081536 0.05312612 -0.23311317 0.13593367 0.2918779 -0.12872241 -0.082282335 0.0019484711 -0.1554387 0.023601383 0.08671389 0.11292733 -0.078339025 0.081977114 -0.083289064 -0.060975317 -0.31763113 0.083305635 0.019345928 0.052193105 -0.042474773 -0.023318745 0.00895195 -0.05953157 -0.09717937 -0.0705189 -0.011212466 0.15943342 -0.056576636 0.09058362 -0.1905941 -0.044462536 0.16820258 0.12293702 -0.04225958 0.039909016 -0.16658041 0.05835313 -0.14463948 -0.10036584 0.04975068 0.08476457 0.05615461 -0.09902001 0.0144892195 0.12111755 0.05632352 0.0569349 -0.06754123 0.052766424 -0.057647124 -0.032208037 0.024149967 0.12342184 0.01903453 -0.12891601 0.040193472 0.07295486 0.013067905 0.09684887 -0.02528248 -0.112312905 0.1812346 0.0733887 0.20614171 -0.2681307 0.17470758 -0.005084125 0.12374459 0.15308525 0.06018507 0.17223322 0.04471479 -0.033369604 0.07325968 -0.14632429 0.028333088 -0.08355954 0.030825881 -0.14491798 0.122272946 -0.06435652 -0.051489215 0.17284892 0.08832368 0.18357602 0.08829167 0.16198505 0.1337522 0.07979837 0.03532062 0.22965913 0.11148324 0.059081424 -0.1153118 0.075628914 -0.085774116
feble -0.14503524 0.21671772 -0.19737352 -0.031769264 0.07556195 -0.44600353 0.26182845 0.54932034 -0.21568163 -0.17542131 0.014852622 -0.33201706 0.063468434 0.16696344 0.18995112 -0.12647885 0.16001756 -0.18206821 -0.1345714 -0.6043766 0.17802374 0.018376656 0.13803998 -0.08626059 -0.06489587 0.043490104 -0.08529769 -0.14174293 -0.13427892 -0.032416016 0.33592713 -0.11010882 0.16117358 -0.34639293 -0.096564636 0.3077236 0.2497779 -0.07948382 0.06180339 -0.3141003 0.069336295 -0.2629114 -0.20459266 0.080956645 0.166413 0.105583556 -0.15599677 -0.008832374 0.23546897 0.11450443 0.08913282 -0.1402395 0.10782798 -0.10663006 -0.074887745 0.04612078 0.23681964 0.0155158555 -0.25870377 0.098432355 0.14791785 0.0018410138 0.17132355 -0.007088033 -0.21680507 0.3665345 0.1266497 0.3881874 -0.4864694 0.34417406 -0.042991534 0.21103318 0.26985958 0.11820842 0.2935984 0.09228297 -0.09483743 0.13384931 -0.2594868 0.08698534 -0.14492927 0.039669525 -0.27356765 0.26298866 -0.113402255 -0.07646258 0.33984533 0.1428874 0.32255048 0.16366649 0.29943305 0.234964 0.18537393 0.04812724 0.42308685 0.19938995 0.10475698 -0.21195374 0.14106071 -0.15022995
mar -0.10266058 0.14503345 -0.12841623 -0.021237237 0.05520439 -0.27810732 0.17450891 0.3546958 -0.13092616 -0.12495417 0.019100653 -0.19445767 0.042466767 0.11473093 0.11482803 -0.09226279 0.11553175 -0.10876414 -0.08689095 -0.38628754 0.1207198 -0.0011882812 0.07235666 -0.054442458 -0.02187527 0.016485771 -0.052961227 -0.098836124 -0.09532925 -0.02870973 0.19651425 -0.055274513 0.09044235 -0.22639649 -0.058566928 0.19984277 0.16900782 -0.054679554 0.031935163 -0.19784747 0.04808674 -0.16745146 -0.11756745 0.0456304 0.112959884 0.06042882 -0.10577321 0.011445687 0.15306833 0.077470385 0.05683782 -0.09316815 0.06572475 -0.067385174 -0.04475097 0.027237026 0.15315844 0.0008283549 -0.16633375 0.05195454 0.09918642 0.0045756744 0.12592757 -0.022261238 -0.14320642 0.23913278 0.08866369 0.24849893 -0.32071474 0.21958874 -0.030598488 0.14076951 0.17141727 0.06996675 0.19868152 0.062494628 -0.059438594 0.09155312 -0.17252032 0.04744217 -0.09390629 0.031815074 -0.18925832 0.16721016 -0.06964623 -0.041974 0.2227829 0.07855717 0.21611327 0.11556323 0.1950294 0.15947801 0.11472806 0.043141093 0.2674011 0.13962029 0.060904924 -0.1417775 0.09381335 -0.09640308
quedarà -0.11685976 0.16814053 -0.15727215 -0.029667938 0.05593225 -0.36849838 0.20803648 0.42534775 -0.18093853 -0.1326628 0.014012632 -0.25045982 0.05786014 0.129965 0.15637735 -0.10859229 0.12559573 -0.12291732 -0.11478275 -0.47162315 0.14324217 0.011344037 0.106864244 -0.057280447 -0.04431994 0.030425625 -0.072586864 -0.13060156 -0.096770935 -0.029937133 0.2691272 -0.06997956 0.123046726 -0.27350047 -0.0768964 0.25308833 0.19883007 -0.050176524 0.032690074 -0.25497603 0.0725868 -0.20662807 -0.16628127 0.049213797 0.11998998 0.0757928 -0.14244956 0.0035028066 0.18570618 0.08526669 0.066434704 -0.13157234 0.08497439 -0.09210384 -0.06452109 0.04157984 0.17097183 0.003385327 -0.20393609 0.0770362 0.13246764 0.004237061 0.13773565 -0.02096417 -0.15975952 0.2959964 0.108481616 0.30146182 -0.3923307 0.27124393 -0.038197353 0.1777038 0.21843474 0.09714272 0.23389001 0.08525421 -0.06948545 0.11964122 -0.20819463 0.06151794 -0.108203195 0.017880943 -0.23660563 0.21105102 -0.11472884 -0.063909836 0.27254477 0.096000195 0.26606625 0.13299704 0.24392031 0.19731237 0.13797961 0.045065887 0.33062875 0.15117225 0.091399856 -0.1689027 0.10035226 -0.11609803
jornada -0.07164216 0.09742273 -0.09735304 -0.02093915 0.046293233 -0.23253493 0.12387485 0.27680936 -0.100676484 -0.08557637 0.005198844 -0.15882365 0.027422842 0.08417234 0.08873349 -0.067064375 0.074982226 -0.09250248 -0.0778407 -0.29585004 0.094334334 0.01278672 0.06817392 -0.03723996 -0.023524912 0.025789572 -0.053978607 -0.07447992 -0.066721 -0.013162376 0.15956153 -0.04951611 0.08082969 -0.18099207 -0.05411806 0.15837869 0.121152714 -0.032513425 0.021119557 -0.14571948 0.042857517 -0.13211237 -0.101620264 0.037569247 0.085342504 0.0379774 -0.0824716 -0.004272253 0.12720358 0.065402485 0.039562117 -0.07975492 0.051683564 -0.050081823 -0.025955278 0.031065427 0.1254787 0.0026688843 -0.13125204 0.043201335 0.06661503 -0.006905565 0.09073075 -0.013479768 -0.11141841 0.18572882 0.067660324 0.18690076 -0.24058063 0.17702267 -0.02705013 0.10716343 0.13406184 0.06321945 0.15157105 0.055266857 -0.036160674 0.06766593 -0.13727348 0.03673896 -0.06873352 0.015961418 -0.14356732 0.13111985 -0.07283398 -0.041141544 0.16413021 0.07825847 0.1591166 0.09116909 0.14801258 0.12134233 0.089956015 0.02893504 0.20983618 0.10207536 0.05229779 -0.09736029 0.059468634 -0.0788111
d -0.14872064 0.20857981 -0.18742388 -0.0348919 0.07427001 -0.42985746 0.2501464 0.51990914 -0.1994862 -0.16902497 0.018604396 -0.29859957 0.07953655 0.15920015 0.1758251 -0.13151108 0.14751755 -0.16162357 -0.13139898 -0.57149214 0.17351659 0.0032806545 0.116598025 -0.09064408 -0.043738633 0.04333309 -0.09322369 -0.1347922 -0.12220659 -0.048093986 0.29987755 -0.09526837 0.13720553 -0.31851605 -0.079227224 0.28849697 0.22684911 -0.07292141 0.055917203 -0.29421347 0.07142403 -0.25950307 -0.18960719 0.059535664 0.1520614 0.07809873 -0.14659637 -0.0052538333 0.2078857 0.115257904 0.07456684 -0.13963035 0.10018983 -0.10598736 -0.056566417 0.055491205 0.21379483 0.020254483 -0.24923632 0.095052 0.14659038 -0.012719746 0.17510441 -0.02437867 -0.20125957 0.3511741 0.12129754 0.35924256 -0.4591623 0.3350474 -0.025828859 0.19811463 0.27253002 0.11110538 0.27712783 0.08574812 -0.07766374 0.11986514 -0.24142687 0.091149956 -0.14519706 0.023448797 -0.27358234 0.23314849 -0.11749459 -0.07414188 0.31889015 0.12526943 0.32257763 0.14629768 0.27160946 0.22028439 0.18361588 0.05229285 0.38119438 0.17981268 0.10746359 -0.19795135 0.11893503 -0.12909189
matinada -0.12124339 0.175303 -0.14437579 -0.029474266 0.0533298 -0.34531543 0.19024624 0.42094716 -0.1638009 -0.12974662 0.0021034623 -0.24948 0.049217563 0.14241788 0.15353276 -0.10343833 0.11608138 -0.12501189 -0.109317005 -0.4583087 0.13070433 0.0059317527 0.09308897 -0.058842514 -0.05287246 0.029144686 -0.07673459 -0.12099172 -0.09663837 -0.027960513 0.25166118 -0.08408696 0.10565186 -0.26681253 -0.07236728 0.2252322 0.19362444 -0.043738298 0.045774657 -0.24105522 0.06314567 -0.19680393 -0.16251923 0.04874138 0.11529753 0.07644493 -0.13798575 0.00230581 0.18729599 0.094757274 0.06012355 -0.11093109 0.09385238 -0.094039276 -0.048735987 0.052554496 0.18045789 0.0040869606 -0.1961436 0.06896928 0.10940468 0.00048415767 0.13397762 -0.012792968 -0.16887209 0.27258605 0.1026444 0.29525393 -0.3773405 0.27686256 -0.024962194 0.1571924 0.20596097 0.079588264 0.23033708 0.067486435 -0.055193465 0.112133205 -0.20442168 0.070624135 -0.11824652 0.019947592 -0.21850264 0.20701182 -0.1033755 -0.0721453 0.25757122 0.112219445 0.25932476 0.11935236 0.21959902 0.18755841 0.14411007 0.04612407 0.31894484 0.15158811 0.07890677 -0.15592244 0.102558546 -0.101667166
sense -0.13203843 0.20034578 -0.17298499 -0.023983732 0.06517325 -0.38589457 0.24082024 0.46268553 -0.17640829 -0.15046366 0.02961711 -0.26567578 0.06271599 0.14886902 0.16712883 -0.10311685 0.13823351 -0.14346385 -0.123163946 -0.5151879 0.13453935 0.0077168434 0.101484746 -0.07042217 -0.056234263 0.037271857 -0.07427522 -0.1483382 -0.09594819 -0.023567656 0.28192466 -0.078171454 0.12447258 -0.2852694 -0.091789074 0.2515477 0.20176286 -0.061187748 0.051862273 -0.26781783 0.07879696 -0.23042744 -0.15128234 0.060206614 0.12657316 0.08730254 -0.14168626 -0.004296097 0.18842907 0.11790598 0.059502795 -0.122711666 0.09258271 -0.08092975 -0.047910348 0.053206887 0.18777119 0.008351279 -0.2364356 0.07516341 0.13756715 -0.018766522 0.15693027 -0.009046763 -0.16144766 0.29869103 0.120339125 0.3118393 -0.41580796 0.30474168 -0.023396403 0.1756199 0.2324222 0.07723434 0.25329962 0.090466455 -0.083520494 0.1269861 -0.21981016 0.07853233 -0.11945 0.035261083 -0.24177042 0.20422082 -0.10617892 -0.07546446 0.27209848 0.13748506 0.28590044 0.13780804 0.26313138 0.1960133 0.15325202 0.050801564 0.36029214 0.17306472 0.07953589 -0.18210639 0.103706926 -0.109444186
neu -0.10160445 0.17498669 -0.14344068 -0.041389763 0.07143903 -0.36322093 0.20346197 0.42086247 -0.15793164 -0.14914292 0.018197639 -0.26282883 0.056790203 0.1518942 0.13383952 -0.086702116 0.11703738 -0.12112871 -0.1222425 -0.47575608 0.13320029 0.0145663135 0.09238475 -0.064418055 -0.06101878 0.050529774 -0.07324455 -0.12397426 -0.10733776 -0.01386284 0.2661407 -0.09323081 0.12074708 -0.281811 -0.06864781 0.24617043 0.19006188 -0.051003765 0.044622377 -0.24679863 0.067137465 -0.20137987 -0.17327493 0.048542645 0.13777755 0.076655135 -0.1199028 -0.0050632246 0.19277944 0.081703536 0.076858826 -0.13289136 0.09410972 -0.0743893 -0.057161245 0.054342445 0.16476902 0.007072414 -0.193305 0.06883847 0.12631688 -0.015822895 0.13674437 0.005350236 -0.15914795 0.28329054 0.119646 0.27586433 -0.38767248 0.27535254 -0.033328794 0.17415011 0.22691259 0.07573427 0.23020768 0.08676256 -0.07196734 0.09650005 -0.20270123 0.056488756 -0.121151015 0.03018363 -0.22683056 0.20302539 -0.10980295 -0.07330722 0.26055017 0.11224406 0.2498796 0.1380958 0.2290109 0.20002362 0.14742221 0.046469778 0.3303516 0.14632717 0.08024396 -0.16835575 0.107138395 -0.11428168
canvis -0.13226584 0.1935941 -0.16684623 -0.021273475 0.05763337 -0.3593408 0.21990131 0.42708996 -0.165666 -0.13175747 0.0017568882 -0.27335113 0.06654837 0.13875757 0.14955378 -0.09744673 0.117896885 -0.14575386 -0.1040458 -0.4912066 0.13447016 0.022311358 0.11187521 -0.07594201 -0.064861275 0.032682102 -0.06678531 -0.13964641 -0.09540796 -0.03548386 0.26788515 -0.08083949 0.13024482 -0.26374248 -0.09048995 0.2609868 0.18082312 -0.07183083 0.053075884 -0.24997658 0.07623326 -0.23215604 -0.14361753 0.05206259 0.11808001 0.08414421 -0.14192048 0.0043865913 0.1803638 0.09403525 0.07801932 -0.12695624 0.102386534 -0.09662837 -0.051032927 0.052436695 0.19661683 0.007954915 -0.23565036 0.07023784 0.13335614 0.0040218667 0.13746206 -0.009674596 -0.15295085 0.28265762 0.10854069 0.3169995 -0.41180652 0.27632192 -0.020827776 0.17071894 0.22179757 0.0886164 0.25864786 0.09217663 -0.077943355 0.111882664 -0.19229798 0.0680561 -0.13158019 0.016993279 -0.23973055 0.21696033 -0.091091946 -0.08310542 0.2846853 0.11573694 0.27132764 0.12773666 0.24741802 0.19686021 0.15031712 0.042807836 0.3336857 0.16291116 0.073549464 -0.17160527 0.12175301 -0.11045744
país -0.05237308 0.08804456 -0.07588423 -0.012211525 0.03702773 -0.17349662 0.09668873 0.22346075 -0.09285151 -0.071774416 -0.0032494292 -0.13803244 0.024579646 0.07567388 0.073867954 -0.054929186 0.058771446 -0.06064412 -0.047516327 -0.2298686 0.07029125 -0.0059098974 0.058184493 -0.03632017 -0.020165112 0.021686941 -0.028130135 -0.0619654 -0.05857777 -0.01583189 0.13392872 -0.038306765 0.058489576 -0.1283891 -0.035037417 0.11512133 0.10595435 -0.031027798 0.016309084 -0.11622159 0.027705042 -0.09848998 -0.08701293 0.02054749 0.054253116 0.039039765 -0.05985837 0.008433905 0.09336706 0.052509777 0.035435267 -0.06960262 0.054974914 -0.052263245 -0.021600556 0.020934688 0.088622 0.0010279394 -0.09713542 0.03063854 0.061506096 -0.0018609249 0.073793575 -0.012656903 -0.09237094 0.13518059 0.048371717 0.15258211 -0.20051287 0.14699644 -0.009982435 0.07936846 0.10561466 0.03713631 0.1126859 0.03823083 -0.03373233 0.06562464 -0.096275516 0.03281888 -0.050650347 0.0073558064 -0.12267878 0.10343232 -0.05761738 -0.039101444 0.13768081 0.046800833 0.12840496 0.06726916 0.119424425 0.096103035 0.07087273 0.03256131 0.16530925 0.0767198 0.036432724 -0.08920313 0.050175536 -0.058865577
tot -0.13613437 0.17114618 -0.16699825 -0.027702533 0.05140093 -0.36067703 0.21948569 0.4358369 -0.16270591 -0.13049947 0.015975876 -0.25529888 0.065521516 0.13995168 0.15543567 -0.11175503 0.1309604 -0.12828372 -0.10164387 -0.48316792 0.15190953 0.015243287 0.094465815 -0.056091696 -0.05274182 0.04074578 -0.088509254 -0.13446087 -0.0972813 -0.033082414 0.2539026 -0.07453508 0.11398619 -0.2691046 -0.065877 0.24418274 0.19698358 -0.056303833 0.047348443 -0.2449024 0.059398465 -0.20912321 -0.16628969 0.06514528 0.11426997 0.08977874 -0.13295564 0.00949758 0.19033557 0.10859125 0.070463516 -0.12102882 0.095708385 -0.09419207 -0.056828726 0.048874345 0.19178109 0.016831733 -0.20858303 0.079407305 0.12105351 -0.0038704772 0.13739954 -0.021648996 -0.17613211 0.29439738 0.09435267 0.3167455 -0.39791074 0.27722666 -0.037309118 0.17835104 0.23072018 0.08965427 0.24255294 0.071378 -0.077789985 0.122945175 -0.21245193 0.075960174 -0.11792085 0.03877757 -0.22041552 0.20620616 -0.095310375 -0.0687904 0.2600557 0.103998505 0.2684091 0.13251127 0.24156019 0.19042404 0.14130057 0.050209116 0.33152172 0.16714033 0.08799344 -0.16515563 0.106399365 -0.121030465
novembre -0.073274784 0.10997144 -0.09885093 -0.015548402 0.05380994 -0.22996688 0.15423545 0.291043 -0.12624672 -0.103703566 -0.004056265 -0.1664839 0.05156707 0.103597775 0.096983105 -0.07135555 0.07557893 -0.07988258 -0.06669384 -0.31703264 0.109278426 -0.008035583 0.05310476 -0.03150292 -0.02404384 0.0068972833 -0.040246505 -0.08969345 -0.067493565 -0.015172523 0.15723814 -0.041863836 0.07070243 -0.1934589 -0.038935356 0.17448916 0.14080822 -0.027969338 0.029647259 -0.1752472 0.042252254 -0.14325829 -0.09996031 0.052697293 0.09557214 0.049462013 -0.09903709 0.013133334 0.13616364 0.054883104 0.054326154 -0.069944054 0.060228724 -0.053799916 -0.04832549 0.013293347 0.111879356 -0.0058464655 -0.15487722 0.05695259 0.07029556 0.008823216 0.09938724 -0.013060754 -0.12604402 0.1844996 0.07611736 0.21963012 -0.26675352 0.19304597 -0.023017244 0.13130817 0.14713106 0.046304204 0.1670541 0.05180153 -0.031270187 0.06270381 -0.13173412 0.04794055 -0.069317944 0.016360756 -0.15437809 0.12287391 -0.058764737 -0.056720093 0.18978597 0.08849019 0.18570039 0.098475546 0.14999592 0.14477144 0.08421236 0.04394963 0.21433195 0.10654575 0.052775573 -0.11063182 0.082777195 -0.07165672
hores -0.12291385 0.16746989 -0.14128174 -0.029054707 0.061957475 -0.3373412 0.20329976 0.4019576 -0.15942775 -0.12465831 0.009227612 -0.25025514 0.0535742 0.1334259 0.13090983 -0.108418874 0.12181374 -0.1268877 -0.11314877 -0.4543971 0.14094563 0.017012453 0.08421624 -0.07484705 -0.040621392 0.027466364 -0.07471895 -0.12292893 -0.10798803 -0.033476237 0.25002092 -0.06717598 0.10386084 -0.2680836 -0.07648116 0.23361047 0.17134582 -0.04998607 0.0462691 -0.24177139 0.057499006 -0.19124636 -0.14102902 0.055777434 0.11340643 0.06053149 -0.13051651 0.0016406417 0.18007256 0.08911356 0.07685034 -0.12534496 0.09051967 -0.077506945 -0.058755875 0.04973459 0.16198213 0.013952745 -0.21144247 0.07104687 0.108381055 0.0035572925 0.14108074 -0.022489324 -0.15962785 0.2646544 0.09342495 0.28976053 -0.35862038 0.25518566 -0.0180724 0.16558228 0.19997157 0.080749154 0.22954236 0.07829559 -0.061794486 0.11511121 -0.19447967 0.052551996 -0.122581996 0.031270072 -0.2170991 0.18407671 -0.10259042 -0.06523889 0.2637356 0.10030444 0.25129512 0.12360526 0.23365468 0.1894171 0.12653312 0.03204334 0.30471557 0.15118186 0.08312273 -0.14940253 0.10418856 -0.095460534
cota -0.08007131 0.13294247 -0.1141691 -0.020533836 0.04776683 -0.28807145 0.15055855 0.32594866 -0.1413591 -0.09643073 -0.0005550412 -0.2122755 0.04756417 0.12109945 0.1238023 -0.08573234 0.10967641 -0.10383752 -0.09211571 -0.3768219 0.11289614 -0.0039965543 0.07683931 -0.044295996 -0.043752886 0.032322984 -0.056193218 -0.08618947 -0.08878523 -0.015731435 0.20534053 -0.057759248 0.08871963 -0.22691451 -0.053938843 0.17474158 0.16097003 -0.051413186 0.027345458 -0.18047228 0.043687355 -0.1758807 -0.13133805 0.03266936 0.10867029 0.04922217 -0.109846584 -0.011108221 0.15582824 0.0700963 0.049269766 -0.09329555 0.07363924 -0.056158204 -0.045873716 0.028143786 0.13454263 -0.003498034 -0.14673491 0.07146532 0.09547502 -0.012834903 0.10664231 -2.0544445e-05 -0.13897844 0.23410861 0.09414935 0.22688225 -0.3128119 0.22770749 -0.023853665 0.12861677 0.17549229 0.05471037 0.17436916 0.06778443 -0.05000086 0.08955323 -0.14807023 0.048133187 -0.10387669 0.010701567 -0.1626082 0.15722556 -0.07444657 -0.051952716 0.19431056 0.087483786 0.21094573 0.096196376 0.18448052 0.14845297 0.119967274 0.02767526 0.2462732 0.1099028 0.05871388 -0.12625748 0.07750878 -0.082703866
cobert -0.06772911 0.11796525 -0.09374584 -0.010929392 0.04208854 -0.2381615 0.13694271 0.2877553 -0.12312195 -0.08643769 0.003663144 -0.15885195 0.04490587 0.083993584 0.101038046 -0.07423682 0.07214944 -0.08749674 -0.07602449 -0.32167956 0.09373215 0.0074257 0.05601438 -0.047367435 -0.03166209 0.027287163 -0.045042314 -0.07401831 -0.06741817 -0.032260533 0.17304376 -0.03602677 0.09291602 -0.17295185 -0.04437495 0.16611001 0.12338671 -0.041424304 0.023464048 -0.16601986 0.048531387 -0.13022174 -0.10829976 0.029180415 0.077759705 0.040296607 -0.0950711 0.0058121155 0.12289064 0.058637217 0.035771716 -0.083221205 0.0591791 -0.059312392 -0.02706258 0.029304111 0.10522413 0.014297829 -0.12707171 0.04189806 0.089534074 0.0033995747 0.09281862 -0.010553241 -0.10259072 0.20013213 0.07550798 0.19430378 -0.25481778 0.17705734 -0.03135628 0.11115554 0.14375913 0.050748084 0.16134365 0.046978332 -0.04228424 0.068660624 -0.13214658 0.05293874 -0.06485864 0.021960024 -0.15685894 0.14268267 -0.06388694 -0.044462238 0.18701395 0.06313659 0.17910585 0.07933208 0.15948986 0.13884124 0.085049696 0.035295125 0.22155605 0.09804928 0.0469571 -0.11185514 0.07404287 -0.072519444
